0.6496865707740375,-0.01988431522555914,0.1473974244090369,0.02154102522406738,-0.1037703241239004,-0.1198344777900986,-0.3038132395308965,-0.3121659300825444,-0.6703467120289118,-0.4374321266624582,0.09141915176746686,0.3381569464767307,0.5366216976156315,0.7747782720650754,0.5300919680857749,0.2903072670536479,0.03998095308365062,0.09698269033814459,0.2761408883623037,0.157394385748221,0.2141425070122794,0.1032340863455371,-0.00126302232902209,-0.07966474442873749,-0.168269130470197,-0.03714214043618345,-0.2390458141021412,-0.5091059057656078,-0.5526747649773124,-0.3077220347182459,0.3530089495962286,0.66016369556954,0.9251611713036181,1.09439409027878,0.8227916793337355,0.4362500330576715,0.4257024148675522,0.1592812868586973,0.150705768506205,-0.05334896656571463,0.2139307993550824,0.03523407626281515,-0.05164902128316636,-0.1752937716654277,-0.07773983618144353,0.005813162831498714,-0.007341453344822996,-0.2864015670908842,-0.2154516104041126,0.06869522865740989,0.1972928479824782,0.4990591691837258,0.937502204075032,0.7778581242742114,0.5037689512517775,0.07139141709731042,0.3037858942067985,0.0490752942783733,-0.04232152609149126,-0.1405572344963975,0.09200914828210661,-0.01100579027571055,0.06287288155950213,-0.2272809814116477,-0.2378534230259011,-0.3479706659907125,-0.1394979527961066,-0.1471292081593697,-0.861054217496405,-0.261297143295421,0.1600758659427761,0.3638791798943445,0.9655334567490315,0.8789424519870472,0.384036008832105,-0.08818845965919339,0.2687700522344325,-0.02918987168015102,0.1028801083026573,-0.1550350032168164,-0.1452517725917839,0.1543581783318212,-0.226086628610658,-0.06680364758730728,-0.02608359399426825,-0.06714830202466474,-0.1218060858474579,-0.2456571088933898,-0.08217345013542417,-0.4728793992557868,0.001475679311974557,0.6421502427553161,1.602086117816359,1.27195625260929,0.450403316096202,0.1600005043257455,-0.01953533260340342,-0.1541324267261872,0.1577986743275928,-0.03961991378507155,0.03883173594836718,-0.02505680167039686,-0.02168613717607782,0.08653422804456973,0.09045854325133078,0.2313445488110494,-0.2881683183338904,-0.1411090665668895,-0.3905517101165752,-0.4176312858868525,0.203833236525802,1.314037581324772,1.658501382064545,0.3881034191201475,-0.2766449713782445,-0.2465955097842718,-0.3481463310699729,-0.04079483274152639,0.2630129244447892,0.09861715117215945,-0.1172995744249324,0.1998233824073931,0.1111509822797966,0.05581175169902014,0.10262817922595,-0.07690032931477775,0.009255429939716581,-0.5079970919942705,-0.2278175230676238,0.03942008794168935,0.4757448442524105,1.50911409482415,1.142501079093481,-0.6297571292475141,-0.2321035192608086,-0.1738042537023665,-0.2619006524642732,-0.2527710268759584,-0.2347003777363634,-0.05323450154289493,0.1728939304666365,0.1819197424709862,0.0456763237441473,-0.2514112503164574,0.01640093956750455,-0.07016033006480499,0.1341896228362599,-0.4345674508141202,-0.2241557682105737,0.5586972583566852,0.9037116361952983,1.149816899091677,-0.1232755524756902,-0.2828192034051184,-0.6030172559916559,-0.4163673056803299,-0.2812298398134746,-0.1993346497045516,0.08377491150932405,-0.2645936468315614,0.02453594753746972,0.02741383996671145,-0.1341799617342544,-0.1294077771604731,0.1407017106278698,-0.120270161514631,-0.0006925599086721542,-0.6008669727749225,0.3323255213847208,0.4881695750758767,0.875181379319621,0.5670940762682425,-0.2595269931076087,-0.289533333137622,-0.3303696051465927,-0.2699301211269445,-0.1118664670145159,-0.3940709712301548,0.05697133779817059,-0.2626793946791322,-0.1712171404616581,0.2001257879949428,-0.02899089622058161,0.113533840165691,-0.08527204341890288,0.0675107528787546,-0.07480240520745542,-0.5525067280038248,0.4706982232943361,0.6911351929199765,0.03434601761389938,-0.2392765527023648,-0.7077508859520912,-0.4792545569917734,-0.1568352254372079,-0.2127517905648263,-0.3450262927516395,-0.06273348361200612,-0.1644482080993193,-0.1247136902978839,-0.3107444372309081,0.294089151137653,0.1495749929731318,0.1697365134332678,0.2286601414852408,0.3520174588953852,0.150685317612214,-0.16083812201747,0.4416381792991568,0.09454096404764591,0.05081292370019675,-0.3590049032738771,-0.1421084125483874,0.09631222224249877,-0.1638175882403921,0.001344717178027898,-0.2602459173669112,-0.2644278309720847,-0.2418814130071717,-0.4559709683409796,-0.3316446770336842,0.4621758858081076,0.2443290310745856,0.2382321873955609,0.2320070731906972,0.04182170528075153,0.2346239882794804,-0.1618270910775031,0.4379705782232174,0.2692424109178902,0.3718778029167416,0.4305178462638846,0.285700227752765,0.1685075851230118,-0.07978664787495107,-0.06151009193264068,-0.2543127921944984,0.07844550340118257,-0.07899234330533415,0.1370610708552185,-0.5164965201749553,0.1242621977113309,0.1215750274855295,0.3487202332259645,0.05480365487011045,0.1720093204490506,0.04979822588544872,-0.1029125070291046,-0.04575775322408616,0.2131138740156321,0.1362468626090327,-0.0736908446810869,0.05331121787249432,-0.001882802312151527,-0.1618446059841516,0.1751257242472983,-0.3615964244599262,0.1560325975347199,-0.02515456813485338,-0.1613075041281513,-0.5021850897729417,0.09630632766022135,0.3156630775525275,0.1636721566042423,0.3483999581599578,-0.002566242971062749,-0.3267400690782893,0.09799448086081078,-0.08099300167016461,0.06849005051649601,-0.09903423885432228,0.122318740251973,0.3566710797966022,-0.06326892696946475,-0.1025914122742863,-0.0780357206998685,-0.05176567546710559,0.2295230064963739,-0.03325853315050521,-0.06946119636189706,-0.2221489633030364,0.1237529644792247,0.1348914005946752,0.1741666497290909,-0.3985524853313439,-0.04299762889331248,0.09280336088888184,0.002362810893604247,0.02086538032160966,0.03733468906184987,0.1097226925416167,0.2965117153979525,0.06675311633158505,-0.03791424975502647,-0.1517722343065312,0.005909095426951254,-0.08093231406794776,-0.01362150631320996,-0.2290575682090455,-0.1141848023060042,-0.2317824998686912,0.05673350263847434,0.2339135043737255,-0.08353481989298427,-0.10965272472761,-0.09532019205824736,0.157199750389756,-0.2419405658726242,0.1082842735270904,0.05821408932116821,0.5408556101922658,-0.177946189644234,-0.09042854497577099,0.10375706525624,0.2329962614713491,0.1828164120583446,-0.06347653482484819,0.09768012920464138,-0.09063732268080206,0.07433021165166115,-0.1659447192360837,-0.1303185974225492,0.226019837254505,0.2765319938948217,-0.2064082568873205,-0.1340145008539667,0.06850586875378625,-0.05682864399994234,0.09525167219474392,-0.1737169791594597,0.2490271156399601,0.1269415922602387,0.02393835474401305,0.4318132819798007,0.1870679265685598,0.2129876452364726,-0.01647230916185977,0.382879331668534,0.03874928505227448,0.04949458929850865,-0.1284791851833939,-0.06929380687341853,-0.03056325465583486,-0.002533717872794806,-0.5762515579618497,0.1718227815837155,0.04155655047152464,-0.139511546091236,0.04171296628604108,-0.2039602496363113,0.1346266717125386,0.1029262398298532,0.1011812405072836,-0.01271840795168084,0.1086495556164084,0.06618464805245151,-0.1128713549688078,0.1022184636790025,0.01432601255764808,-0.288390625459318,-0.17903088258462,-0.09738886227521772,-0.1485288156361468,0.1802055077579937,-0.1884856847980658,-0.1492918463116272,0.1267116006835523,-0.2304305890396282,-0.1736667476903082,0.1363798863090191,0.03725561348919987,-0.2230096106915615,-0.02153486409487051,0.502794065673648,0.240281485777972,0.18193993021235,0.1237623938540125,0.2916906930990655,0.1796084658820996,0.03543220786860651,-0.03537523322907762,0.08129164016680607,-0.04798183117003282,0.07327191435370341,0.1370910272498606,-0.1848143262571356,-0.358649723107054,-0.2430143129757448,-0.2662597301235298,0.07369868670567385,-0.07441617246000913,-0.2381203720719537,0.201888469781046,0.1843694174308466,-0.0001745655732637981,-0.118265096466411,-0.1036167214132867,0.0800665705239112,-0.07809617133641776,0.08743603716050517,0.06815347792250227
0.7976598268149411,-0.02231400622476359,0.02523894141768706,0.1688063684407296,0.2161826325590539,0.2449557543729913,0.217344386374239,0.3150718240660992,0.2040178215147339,0.06741016040057317,0.167237383352043,0.205785974450674,0.04491255580447591,0.07974549692588494,-0.1369467657749903,-0.2776597218340801,-0.3249542809048376,-0.6029606150536733,-0.3038089882741694,-0.1666191260751652,0.0802202740820509,0.1858148806336109,0.1274083395544588,0.4451537716607292,0.3738003232853521,-0.05372658428661731,0.07457776414509512,0.06517521414798456,0.2011504726819946,0.1467728096461456,0.2913927191089544,0.5068852275208385,0.1365001597256916,-0.08289751675619078,-0.4037026940644473,-0.3455659982120866,0.2686936530560265,-0.2249833828824013,-0.3122799651756634,-0.4244685295669927,0.0629043291909933,0.1230631037304278,0.1583916938395191,0.4548386192181007,0.2120382410171928,-0.03047478078700614,-0.009527203213219888,-0.05584280396318028,0.08459502772608217,0.3264222818545918,0.4058955429078716,0.773858611160694,0.3917443098573789,-0.2550340435963865,-0.3453790954292111,-0.2622194508576901,-0.07887825392913093,-0.01911843356072945,-0.04371113733902061,-0.1275000123763769,-0.03851549579866925,0.2219518995340597,0.3453737619525839,0.09576407783652349,0.3186753808063102,0.09872281258851505,0.3343426610876786,0.2071562476807793,0.02431632880551386,0.3930029653580051,0.3818815390666357,0.3919597445907896,0.2307713741936637,-0.4239932444139144,-0.2330168547921997,-0.4653713246970028,-0.2119043028990405,-0.1172486414802968,0.0991519382810938,0.009794815915412163,0.2269968896099192,0.3387317867517426,0.2207876494755774,0.1048179104578723,0.2744093033482429,-0.1212862192544949,0.4522856911742065,0.06459106428631881,0.2284617819682819,0.04864106002411792,0.2299160438188363,0.1405274595045245,0.2345718968937491,-0.167155623500705,-0.05345282778278283,-0.07055045211761066,-0.2985134746202153,-0.1604920843440074,-0.2208921266761429,-0.42995125949952,0.3018839515005108,0.1605766185279467,0.04631164139129416,-0.07930122312419456,-0.00378543241809114,0.05957371736989311,0.03575916062833407,-0.1023486769780071,0.2099052679956697,0.5450086643554245,0.3948536716414722,-0.0289125159103571,-0.1449561297675317,-0.056447552063137,-0.1730483703707913,-0.280172182940366,-0.428108568692842,-0.2540925447893657,-0.3987293712599889,-0.5291267870531585,0.2721625428655816,0.2212186340239327,-0.04043764472314704,0.183315035068491,0.06110517869986545,0.0496840987730677,0.3543062438068846,0.02474709447103977,0.1751445627172317,0.6017271343409345,0.1570046197298265,-0.1184694815007335,-0.4388241325091172,-0.163611882345384,-0.1162128853916184,-0.1189125312828405,-0.5255677576510536,-0.1070553213765857,0.004973720404477439,0.08993000386077078,0.323992908157577,0.1446811064295431,-0.04989837839212851,-0.01211753381258062,0.1118116423956206,0.09239219864643285,0.05722174805135926,-0.1142151646387062,-0.05515495577241361,0.5177840396822134,0.2021764944020397,0.06465026059558726,-0.001179434673859745,0.2919382241807209,-0.235568350411682,-0.1309086677323545,-0.4771669723670582,-0.3403081018569883,-0.001111778808523167,0.02557866908927179,0.004804560900801606,-0.1034669028206592,-0.1092734986826654,-0.394517615583112,0.2580266153732714,0.03691485168405355,0.2569654372698432,0.007316999355550466,-0.2192224708973279,0.5121402904881021,0.3648274244468654,0.1603717594448736,0.4607096573116407,-0.002214132114362981,-0.2804547165538827,-0.5032102937179944,-0.4745601562695715,-0.3286719727254857,0.2326432007847096,0.1673959077934261,0.04973284546461838,-0.1617688090593512,0.01580255833460015,0.0743062364574059,-0.3364829653602801,-0.1263398860635971,-0.08839118255156281,-0.537259932582127,0.01617794473933337,0.4879973927646822,0.2682593518470558,-0.06941443598717413,-0.1617630136649238,-0.3506112065220721,0.08645237152238859,-0.5553356477197429,-0.5176287062596435,0.4562508753401794,0.1059484019826251,0.1098139165603922,0.2573009013723506,-0.1372484401680165,-0.08564062732605955,-0.2526335581483386,-0.2617724682326328,-0.06945933365389058,-0.2323933254774659,-0.9145115572616919,-0.4037489085796399,0.239833091556319,-0.5907046371191271,-0.2691326601958833,0.2680899497005528,-0.05921744209888816,-0.3611775659052329,-0.6208947575187466,0.04317335214264246,0.5181984046906611,0.144780842837409,0.003835120180121688,0.4530028139772643,-0.03999061695449266,-0.01720638939771757,-0.02887984441632286,0.2305837572714196,0.2439697149492675,0.2758344444970556,-0.5842908848315264,-0.7124196396847876,-0.4968316828734459,-0.1655013306651683,-0.05446095542648706,-0.1386303874732619,-0.2920149983093612,-0.6913305630031177,0.284845330155339,0.624943101342159,0.5305352597089813,0.1122645986067381,0.2240053662733104,0.1958055668001071,0.2630786654275876,0.03611408043144338,-0.1083467769459923,-0.5024131513834771,0.07600449160608616,0.4286813926306813,-0.07160693441597396,-0.2358813563893033,-0.03243598702897977,-0.5588397890236576,-0.5524622892069767,-0.119957087853453,-0.7262125172859438,-0.06288654404922361,0.9829726597758339,0.5360150669259351,-0.1339940486292543,0.2542824610791151,0.1314962076628493,-0.01634305834747234,0.1671732244525927,0.1954496370694672,0.1116479154436743,0.5528779712231032,-0.1282246470159422,-0.03535017508160602,0.07645859327154104,0.5437548631973212,0.2356602131745828,-0.1674091514738868,0.2687650309607874,-0.2823500537250811,0.2066602474559579,1.300006847402928,0.4484755692205744,0.08116564949201834,-0.06404089757356222,0.1811353844474018,0.1951484358196797,0.2278805688841956,0.1066858243341351,0.09429402840725329,-0.1760089564482383,0.3461607717967556,0.1136345067075463,-0.3118493313306388,0.1423004129638884,0.3263297327391221,0.2988662186447181,0.3062356332134099,0.490303009419007,0.8394675143906899,1.151931804090143,0.8321646884107355,0.3498838241930916,0.1150447083464976,-0.0166535652749451,0.05154369397037742,-0.1582481156615444,0.4623004385259771,0.3289472403161188,0.1579792003423961,-0.005983930238835367,0.4246896178338829,-0.08902314624984461,-0.1253696994964219,-0.1968176184068404,0.1441779288687864,0.2020446387233519,0.5438224040661392,0.427712731816111,0.6751448168557411,0.3198274288015194,0.1190694341602296,-0.03619464654887979,-0.03714506888783306,0.005768716334104403,-0.1837192919682281,0.05391341909848892,-0.2237781492723703,0.2840475109156859,0.2850887430023844,-0.1222176197287927,0.05195552827299285,-0.1314437199007298,-0.09155518273315993,0.09602314446312744,0.2115793064850396,0.07290393890309764,0.02643129822563785,0.3049127991583088,0.7103094938318664,0.2110390744201736,-0.1980773474156599,-0.06201475738499617,-0.06220083831493635,-0.2301721688646917,-0.1788276562744821,-0.467098475741855,-0.5915218318341009,0.459141282047617,0.1608345847310346,0.1420380507931767,-0.09976321564838207,0.259616590637029,0.3983096376359886,0.03908210073164476,-0.3708731841176641,0.3311402813317875,0.5874348451065297,0.896482655789502,0.3302248703695655,0.01792819599809086,-0.05417387644763195,-0.304667513907469,-0.03082340049571773,0.003027890278946157,-0.1342664839459812,-0.6362119086127135,-0.3406136405390484,0.5219782361909568,0.2662213686007127,0.2488461688220679,-0.06654309355926211,-0.09229838582089127,-0.04690418350037959,0.03146366278284277,-0.02541216669728005,0.624428898862851,0.7007338606202019,0.1291062122068845,0.04858007370512864,-0.04093439334715628,-0.03592471458921283,-0.4474499690722415,0.06185300053887994,0.1297749146878213,-0.1053634997387202,-0.2394136936408139,0.02869451421491557,0.2758020904351494,0.2331023178808829,0.2190434545581463,0.005088623977115626,-0.1264617648578025,-0.06460147641922453,0.03249230408947019,0.3749640334491136,0.7407487822770402,0.3407631487867011,-0.1485344112608244,-0.1024593878163014,-0.192942027445684,-0.4109907817256785,-0.6553541034029683,-0.5141106094355581,-0.1367831265319839,-0.2994773166405419,-0.07306703356632765,0.1828380027179013
1.060152288211068,0.06622162498600785,0.03030035331256395,0.02852405378319134,0.144413356439541,0.07631779859479186,-0.04281282270092369,0.08099746772186739,-0.05444816311148921,0.1344668942455816,0.1300062620122895,-0.03869595917033615,0.07978126599334212,-0.06213894225887689,0.1009059823214507,0.1305425370693179,0.1638646546159601,0.02774512242743081,0.1138355627369013,0.08772319320686847,0.0930623029900782,-0.005663972664130502,5.144448267412348e-05,-0.09438977178680261,0.09375492437155122,-0.02251886101141743,0.08927523286095657,0.05460021682764567,0.122646495387627,0.08565639633658058,0.0427436087003688,0.03284153866340751,0.09896301128682884,0.2936158662127649,0.2664115772198636,0.3328357142221847,0.4303172237126371,0.4318081737455511,-0.01029180384629048,-0.3276809562848447,-0.212566204503054,0.07560924029563718,0.06607560441369306,0.01566027727376174,0.1146812604233899,-0.05233929104408506,0.07415471073843485,0.2257552978172055,0.1524217356302026,0.1475930919856129,0.1450772583964646,0.0683750783954321,0.2084987726133098,0.3641644678172347,0.5692547668029933,0.788544302114246,0.6317528732179324,0.4691930621655873,0.1731061700989215,-0.1650953994130772,-0.3366930503582068,0.08314858877733067,0.06943823988657033,0.1693575085174689,0.2850103256302409,-0.03374421792302683,-0.1001149806806092,-0.1112413644867144,-0.06764044312515326,-0.131613939028287,-0.1036000159962454,0.03821380276573656,0.1299518888528361,0.4165766515616741,0.6050294817754186,0.6711957380784606,0.5446073059269706,0.45924506697415,0.2761374913585344,-0.06840390739453397,-0.3088064262725065,0.06443949333306728,0.2490633084376927,0.1962606848958648,0.1389847193012539,-0.01441117322885729,-0.09967199789120415,0.05797685570819535,-0.1240275122351067,-0.2801291438320097,-0.1802978222719273,-0.01730668739563281,-0.02658205547492618,0.2464851178509524,0.3820444994730643,0.2959757623297379,0.5043998403258259,0.5056696973198602,0.2576855854347518,-0.06166892171797773,-0.2140938415796109,0.1591030249926535,0.3135326593850182,0.2460353452690238,0.09235773004643809,0.03728983233223146,0.3941090014351899,0.2541378695561481,-0.1528031826804519,-0.1485545885625044,0.08806453849197102,0.3227796821296436,0.1818596260268111,0.06729199855876199,0.1068464788873018,0.3125437471076168,0.3475607975347167,0.4534849420051581,0.09935281467868295,0.01903487766263863,-0.07020510323799843,0.3123000131353096,0.3008629007851381,0.3010120638446437,0.04581473687539203,0.08769469338573065,0.4101844252389774,0.1982700345122204,0.0513599691109422,0.2389746229850113,0.4429580094604039,0.3990300908758145,0.2486879631592519,0.2525310019511377,0.07061207679676074,0.5241766271796778,0.4232944442778497,0.3074438982405176,0.0436054035285286,0.1241701666009391,-0.08368553098655697,0.1954305710771663,0.3353551758777482,0.259637291546669,0.1999440057233467,0.2953375258959041,0.09140719335274156,0.3366615652300265,0.3743228288364882,0.3708696599906317,0.3212845003077261,-0.03088760896040796,-0.3222416764609698,0.09526559879725974,0.3863421966613676,0.05406221793034728,0.0909925655517539,0.4008533360169465,0.4904445840883327,0.5001131518143986,0.1267100778000066,0.07965575280748069,-0.185448440558079,0.1590910382273349,0.4538068764100701,0.453115142028297,0.2038099176262899,0.3738503485936946,0.3108574832792325,-0.3768761818809094,-0.6814714464393874,-0.4618234075723624,-0.3361841019958293,-0.04622271314798288,-0.06232522126263423,-0.3080112265076624,0.07667740999012987,0.2459162457886142,0.3652797140016359,0.4791491522775271,0.1529854704236776,-0.1464716843683207,0.04106156375348777,0.1258445914716808,0.3762592203893798,0.09800213487022258,0.09929412700312587,0.13750922347294,-0.2936271340431961,-0.7241396703476985,-0.3961781303831791,0.06663252273765811,-0.4261429416868841,-0.4184706660587439,-0.4880649390677472,-0.4005987248675616,-0.02124954890725953,0.2322770915395226,0.3311659725855504,0.1338165897292459,0.05222702820335146,0.1337870343406097,-0.1375452023681997,-0.1297426962347331,0.1397752714180652,0.02409314973529498,-0.009377649071737186,-0.3357184470305153,-0.6581102037129655,-0.3108411845906239,-0.1897195287369479,-0.1446670882061259,-0.5393464527681923,-0.3260842974260583,-0.17194740345569,0.1925460030813225,0.04575441256711186,-0.006370892394656987,-0.04777260586719224,0.1425304104620133,0.09071547064350144,0.190002522978051,-0.2674622155785592,0.2274400045997361,0.4730048224545074,0.3394910179398201,-0.005786212577997837,-0.5459076596843597,-0.5917457116269799,-0.3505916145946746,-0.2425080868418079,-0.4734763473584681,-0.2828044673438967,-0.04515097124716211,0.4273347833897087,0.439123710998827,0.1693589791122805,0.09867267112627082,0.3493569736174987,0.150318850781084,-0.04750745860229804,0.268157314909874,-0.1941952747190159,-0.1339043763271287,-0.006404019494009413,0.07183861131288136,-0.2245417947623176,-0.1607787923906032,-0.02392745198577443,-0.2356599284825173,-0.3637165804355794,-0.4027410222124642,-0.4746405949070052,-0.07294846430962582,0.1250079763661144,0.3488530243169556,0.4648505491055333,0.1845763871220838,0.1026539124397591,-0.3412357637388213,-0.5912548481969137,0.2444720886533103,-0.03442262767890152,-0.1387494731120862,-0.2576875054701668,-0.2735188757202886,-0.002531716249408352,-0.06984510838268676,0.2144632892019027,-0.009052529072020636,-0.07650702747082989,-0.1599627740038474,-0.2594999166849952,-0.08891351487749148,0.1517425479364599,0.3583246068769806,0.6684647989759794,0.6108690834051838,0.3897138159695626,-0.2384275498527577,-0.4875403838739881,0.1039016709083027,0.1629765339485281,0.007801069732750418,-0.0241797296777867,0.01807159400158459,0.08518289460565648,0.07239295758893513,0.4144114106181788,0.2039130981586422,-0.2589834899391132,-0.347539486786098,-0.0873193047595871,0.1747331511727301,0.3157523127123384,0.4139835945662315,0.5426942721599169,0.583316382635763,0.353574835402592,-0.1819726127168486,-0.4476008474109948,-0.0865595231901642,0.3108584446325799,0.2048138547919088,-0.06502660554666641,0.2355339028524951,0.2288968152949618,0.1825469698273367,0.13957584893813,0.01262562701609871,-0.4800672882533087,-0.6068938692337301,-0.0390500796767479,0.2711786948215697,0.4605771075784324,0.6604233346151955,0.5612878355609776,0.4462389637496729,0.2281316913960404,0.01868175026405025,-0.1904104181028269,-0.2901841012094372,0.04502719280883062,-0.1700677859578007,-0.001239162857539127,0.393305367829212,0.5609441952229153,0.4304048716377372,0.2771337002005073,-0.007018031849853749,-0.4479679638192303,-0.3237185558911583,0.0488582999414658,0.4089094285686432,0.5697210773498715,0.4419026683283702,0.3748760919122319,0.458396175851424,0.2740430271994531,0.1419081528127286,0.1076737382584956,-0.2032797257528671,-0.2807465667757335,-0.3724315815164003,0.09815133293545011,0.2940314325483008,0.4629357086559244,0.4310151693501999,0.1959753995033367,-0.03726787828151372,-0.193174597521468,-0.1947424249752763,0.1784821787481576,0.4274728542226386,0.452783757319006,0.4208510559100197,0.3275991250064241,0.1736542421638378,0.1109422494532529,0.1718736294775983,0.1800581905664105,-0.08483776005350922,-0.4343650143865898,-0.4981987621731672,-0.1876611033040899,0.3098118585563139,0.5003807487129915,0.4479656878474718,0.2665191874434449,0.2522106581921519,0.06673308317635548,0.01981726085804845,0.2757251932165015,0.4890335767028667,0.2673446289385505,0.3499208216849838,0.273612884202105,0.07216922619796654,0.136851895866341,0.0853236294322459,0.05180349429339704,-0.1524228282810654,-0.4002507551482385,-0.3217510930096047,0.07612278898731074,0.3302451234559127,0.4241365382145963,0.424325441072351,0.2943539642310755,0.3145646216766672,0.01700532089376383,0.1915856808537126,0.1943914097935553,0.3862485438987187,0.2937536351835225,0.2732517421468756,0.2656298970812644,0.05361536427072479,-0.005384070296896824,-0.06850083256760028,-0.07419795569773499
-1.141496484869021,-0.0278821539656572,0.04270860337873562,0.2636290913715894,0.3135748625099019,0.3368694971823432,0.2277105462241013,0.04844369188197813,-0.2760114727796384,-0.6359189690175766,-0.8472995377797063,-0.5975371666474789,-0.008661288141698118,0.108966530445962,0.5280556374073263,0.5944495540906373,0.4109587350237625,0.3291679289061603,0.2853678973934832,0.198664614782967,0.1544037695669579,0.05968523575165726,0.2376097177674301,0.157639267407904,0.3228524781506708,0.2195720700704642,0.1191509466852169,-0.07744015518232124,-0.3468060797197446,-0.8462959655232944,-1.020691735980445,-0.5596613995600316,0.1947919586163624,0.02027275596435577,0.166812703276749,0.2307660989457461,0.1676158457229807,-0.07069735512839728,0.01022539234870089,0.1479733082230393,0.1773077511032652,0.09240942114386531,0.3495312114853889,0.1804614307665307,0.187258148919657,-0.1966689232395844,-0.2182653650234395,-0.01660379728792758,-0.2311783740686875,-0.7433389996485927,-0.6960800690877784,-0.2270783242579299,0.05808355683333769,0.167603987845014,-0.07743963947453023,-0.1386886310249617,0.1984976444257021,0.02405509989632725,0.05327512209912318,0.2359970193191414,0.3120335905327813,-0.1099964459184322,0.2243034422779114,0.170879775647443,0.09289176976444105,-0.1004306379006319,-0.02920132074894582,-0.1822327849565686,-0.3932412787411967,-0.6109029671270534,-0.4615448758401167,-0.004229542690307198,0.07716267787928693,0.1233684765514638,0.3051949633196907,0.1748898152889584,0.3042820524474633,0.5237111663804971,0.201450906657669,0.03997465693353069,0.2847808596667935,0.1387761232690943,0.1943263582887692,0.2539955080463237,-0.1489280450249534,-0.3964613106320503,-0.1196330016033129,-0.2585908382444214,-0.3566119474511231,-0.7166527649128219,-0.4377479596452832,-0.2798902184236671,-0.159608692290642,0.09224810472153538,-0.00907752495439533,0.3718834542502331,0.1798543667107291,0.330350587739562,0.06921039549759196,-0.1140050185753392,0.07932662430886134,0.1144061575011854,-0.08856881827239033,-0.02405205435611242,-0.03579151736045647,-0.5565748763976912,-0.3600472949864357,-0.5964862512267043,-0.537607305979405,-0.4434246791721158,-0.01756980576247802,-0.02353596305913428,0.01306215278063356,-0.03317918564298798,0.04930496657533875,0.2612714577269459,0.1496823081349485,0.1941907192390929,0.01820595681470655,-0.05244417596648565,0.4522805991588965,0.1500750460597805,-0.05051685113816837,0.2087739290884458,-0.2961118167903454,-0.1083911398909735,-0.3802629605596407,-0.5400033674594116,-0.9888264583202303,-0.445610965315212,-0.09518196057749137,-0.05621308959022892,-0.2852690611409097,-0.1492901184360457,0.2299480200215762,-0.017222681918649,0.2826855009077857,0.5920634149337128,0.2086998033607752,-0.2772282806381001,0.328726799905489,0.1098475356020837,-0.1983656463266844,0.03900467019307972,0.1761998245429491,0.2131471889693375,-0.6490320008806525,-0.5233839620614976,-1.503518074638143,-1.192235885311323,-0.4265610772668896,-0.3404022710147143,-0.4654311217783429,0.1197678744248278,0.2511717695930413,-0.06483506800298175,0.08829763142840934,0.5429077791526111,0.5020457672998464,0.08918931412817591,0.5143680108752815,0.1357063817755647,-0.1061602828579871,0.1427021990943534,0.6486889412554459,0.6333402942275068,0.5818510123224168,0.2546578243393897,-0.5632626969670581,-0.6706979573336288,-0.4565210220686693,-0.2584073114552369,-0.1421572863695972,-0.08571462962009825,0.0449297538525911,0.06349143028811177,-0.1203996660195989,0.08298725150973532,0.08451481206994012,0.1494876254911665,0.3793943999220792,0.4454783401586436,0.3838701837488225,0.4219080118434727,0.4691866247435513,0.7360793152501964,1.22432559078142,1.361994854689763,0.6478704905675439,0.3345207317896337,0.2915553863369072,0.03389774367201749,-0.1489156499959159,0.1337712894556178,-0.3755834441938841,-0.3318290218381117,0.2172881533749939,0.02940983965269082,-0.09548221681010677,0.2115621299017496,0.1759844338366225,0.483368846832968,0.3477878630555251,0.1883994771805792,0.1971127160387089,0.2547687543879193,0.7103456947279752,0.8659876302737913,0.5542963966071639,0.5494033241294604,0.4970830946879488,0.4673123066964275,0.3226936124866688,0.1236202908134116,-0.2607069584965517,-0.1745431533425801,-0.09977282473939354,-0.01737386138097613,-0.2483001912489218,-0.3350882090962704,0.02448960622722049,0.4871776120201025,-0.1238156091885928,0.2601604495526684,-0.1366059277210424,0.2384329239099636,-0.2362764163480292,-0.1655415649817142,-0.3338723491105159,-0.148810545025694,-0.2403651682670922,-0.0184803931151358,-0.1560637156676289,-0.03213407174416956,0.1935924940369736,0.1004748100694159,0.1085290887358259,0.191408812176763,-0.06085447186572851,0.1372417780405456,0.2743406754168183,0.3955380261245209,-0.1465745098027928,0.2705560673687773,-0.02854250198076636,0.0477571042951721,0.194818571268774,0.06626014084985188,-0.1706242675268478,-0.09391748910268803,-0.2063955543480003,0.05838411492061359,-0.00472110388328423,-0.0142530383978107,-0.1989900884120108,-0.1350696206460996,0.04494650339997115,0.2216763675087935,-0.1661331691738291,-0.1684283814481703,-0.1857917122195499,0.2986855105768008,-0.2337081470672439,-0.1465099870026741,0.08760837577853695,-0.08505417268517275,0.3629699440392102,0.1953558226774216,-0.06903625609364714,-0.1019560507628172,0.05939655081468537,-0.3141169932707326,-0.2664856252011735,0.06349093875144733,-0.1562660813593915,0.1258396351242984,0.7160223115882289,0.2010625933610396,-0.1140983622082042,-0.3311736843747505,-0.1347413193881692,0.2364334062967756,0.07840732196450445,0.1118797348603017,-0.07013549024780608,-0.05030705082389902,-0.02719963848773893,0.1544731029156116,-0.3073223278200063,-0.2750761553266264,0.06802538207635911,-0.1986621359983825,-0.1792071032700111,0.1146679912377629,0.03038823698971426,0.1077003574948864,0.3064714039923779,0.2428197522873243,0.2575641530368997,0.08206945527015735,0.06277972483998698,0.01065549154515278,-0.08583391409745082,0.0388189489063883,-0.004636010129085977,0.1452455493519026,0.5549852334475303,0.1521124175850093,-0.1035571995060555,-0.03923053189559555,-0.2008483783883946,-0.3362637155574064,-0.1704095776338165,0.2083934194646475,0.02518660212192086,0.2437045061828605,0.09791099981799745,0.2130699602241901,-0.004794635805163422,-0.1611142458935912,-0.2132886328879743,-0.1051141829368851,-0.009768368823231517,0.02885734072433135,-0.3154348162093006,0.04206079623830963,0.0536850077292697,0.1123075382202349,-0.07836647321227949,-0.09697952094304484,-0.2274773499758706,-0.1569880652125699,-0.1239686300572281,-0.1447705602686983,0.1603656152890302,-0.04337932989759902,0.3468357621943565,0.2800161375602047,-0.2547670749446003,-0.349259323899442,-0.4316066186321224,-0.303225919780968,0.1730934438882371,0.3821408332952766,-0.1623515299732327,0.005980347391886492,0.08440777743762742,-0.01745378669021635,0.2099650868926779,-0.02065605703543119,-0.2564532903115198,0.1059153029058131,0.1367468945776897,-0.05082242147858079,0.3803875007960199,0.2760448915968829,0.3221794678917311,0.2614398867322903,-0.1517761530132,-0.299024307760193,-0.4368318153312255,-0.1599449618912346,-0.01963764325347734,0.1035296790739929,-0.08720870482100661,0.1481980327046577,0.2507658757952861,0.2351851296567974,-0.1492850187659806,-0.06937959310449501,-0.06704000688601874,-0.005895534303111218,-0.04555083269456918,-0.2028344181590759,0.1110448304481439,0.4422287229427063,0.5538047669109613,0.2222172011159885,0.2022937783893968,0.1167621481718432,-0.3277147565266429,-0.2657878251585865,-0.2563851664886306,-0.28375651186557,-0.2428187910936371,-0.1076678803765042,0.1948141867906076,0.02762047759548693,0.0212155450676423,-0.1404402287335125,0.1780033789345046,-0.004778381054298553,-0.01614728902957677,0.1587669797023817,0.4289960866124733,0.6015245468016347,0.425416928579043,0.03230557537790516,0.1008846388035123,-0.1827517349657777,-0.2906597978649737
0.4177312068685293,-0.01266116080131557,0.07553094161866393,0.04955904719830142,0.1814746025044298,0.05994562934819678,-0.08896527433079229,-0.1093693264991015,-0.1987245746852627,0.01094437124897972,0.3194962034068305,0.3722253954196422,0.4317514709757452,0.4363833042203932,0.2722444449263073,0.1793637798044546,0.01373726832279788,0.001385215464373224,-0.08470853067279162,-0.0891098204319497,-0.2087741484783993,0.03719684629589082,-0.03708329315195089,-0.166564486011133,0.01070313613166102,0.01284053148563254,0.2244465403992209,0.1119522679613332,-0.2983996446295456,-0.02901077216000846,0.2145782336219305,0.5524535558095185,0.4733481199882412,0.5358156391442792,0.7856831259284656,0.5203567868917985,0.08186322196435054,0.04691133561879421,-0.06936373727906975,-0.1398967035857404,-0.306912687681807,-0.1311168929886774,-0.02601467996118504,-0.02163102528579294,-0.1493097410278412,0.2039792528747162,-0.2566288083850874,-0.5960402653057124,-0.3291953729047788,0.05843832880937275,0.4210833322293957,-0.01208622976072735,0.04042861942073179,0.8613117235488743,0.8224075203167244,0.2914535579194716,-0.03106254764606165,-0.1635567037574041,-0.2484826406536605,0.2812259527009223,-0.1810715832145749,-0.005046200075484889,0.1716324040634783,-0.02991256875902112,0.02958726233501591,0.4596308026072231,-0.2242183876958999,-0.4894741962855632,0.1235892617776219,0.07262229387729363,-0.3203606093087249,0.05336719143957943,-0.02414102308878484,0.6965233948137464,0.8614628817512054,0.4503690401164659,0.03834158763708279,0.07091788456823704,-0.1444951342252041,0.3243319208534047,-0.1304994322243281,0.1115623683370812,0.08154188533563324,-0.2289882599123918,-0.1801222278179256,0.36028301397962,0.0641463585378278,-0.6804850678531815,0.03651771951451482,-0.2615577761633429,0.004223447470175236,0.09930570616060071,0.4123354064975744,0.40602793818484,0.9478217961571876,1.036449360668441,0.2190790441390686,-0.04066174409581456,-0.2436705010597952,-0.03886362851110905,-0.3055842564213568,0.03855492206260092,-0.1447233306145425,-0.1299397944411678,0.08738539866333522,-0.01660599803905512,-0.1366623618602048,0.01183894172247057,-0.04707030197116079,-0.09778841616066261,0.1062327202256672,0.332945622407119,-0.06871161527370105,-0.4588394940551864,0.8344389625371342,1.795519204159168,0.3483891638930092,-0.2270264473792054,0.05746112142836671,0.08069843455932321,-0.3106331002073526,0.1662746802843932,-0.1267581415598431,-0.1844076634547173,0.003338366511134157,0.07743873612102768,0.1377751257587026,-0.3799332623968335,-0.1857190951077654,0.01385455733208763,0.06691124109571393,-0.06020188566980445,-0.2531403245250892,-0.4224579114746683,0.167557402251962,2.017846932958755,0.4981889908276954,-0.3540425334228397,0.007850502886037973,-0.3159454623771077,-0.4087199261358918,-0.2299193651221295,0.03001129439532092,-0.4724669826345554,-0.2459196518945908,0.09372921013993511,-0.3907572107735288,-0.3243203184303891,0.1608449102064633,0.06291818877071854,-0.1909898055617235,0.5581249152528446,-0.0866300022103688,-0.1855608138701443,0.07771021176611173,2.030911992675853,1.292948058935377,-0.5343537897540693,-0.05504614411046446,-0.2075649068786248,-0.2608784964233818,-0.200428196225703,0.1542293048343059,-0.1087284742928799,-0.2548870711624763,0.08509422215051284,-0.03598233211481661,-0.4098578800002063,-0.1165263755224917,-0.01620371895723926,-0.2525824985180216,0.2931611809850114,-0.3743625266751099,-0.1693984084471207,-0.7106813453257136,1.585604077509786,1.361941838235267,-0.162743651090498,-0.04154714322834634,-0.1718876002887993,-0.07149105952022032,-0.1453701839027218,-0.1642409213181734,0.01427534773214424,-0.2330883337677192,-0.1124606830519111,-0.4126109686125141,-0.4677246272953841,-0.009796244746411695,-0.1899783559536864,0.09135672134047652,0.09089197099818951,-0.1036090928178566,0.0308990802272375,-0.3525639535414672,1.303045482116579,0.480600160379436,-0.2129962101082684,-0.220168731325821,0.03992353051938192,-0.1028308080128721,0.06237971948505052,0.03031271648749157,0.07462191872261704,-0.2771758645068521,-0.2588909629623909,-0.204846084775423,0.1571490969785883,-0.06983772600016218,0.114180872015085,-0.3130570892880232,-0.01591961056779945,0.06236352352870442,-0.1396048711807983,-0.08248566464965912,0.4537453937990454,0.1172819064958,0.1431633922349929,0.06969564147756531,-0.09884914298538384,-0.2545496321972679,-0.2519125722705509,-0.05655208993946444,-0.05695357067039134,0.05258086374408039,-0.1209354285810408,-0.2451223621554745,0.5160623331561754,0.04550994856234178,0.1855428534604026,0.1693091421109036,-0.008874611445100579,-0.02738947810417675,0.01832184894421326,0.04777938997520659,0.4464508846767715,-0.5748883821761731,0.09302282883181509,-0.1953329196582978,0.2941135973093282,-0.09571235646083001,0.1118176021794525,-0.06563576616279383,-0.2079504338125659,0.1093788013680115,0.09439077762011712,0.3282167465093758,0.3481594343083693,-0.08201471655979313,0.2847716380570461,0.0287741150741614,0.06073565908512257,-0.2192682928430993,0.04996681919020713,0.6985182912783858,0.1071047537067501,-0.2122385841816548,-0.3467877820179638,-0.2589180792702265,0.1517062467688537,0.5264464293314396,0.3461807868682013,0.1289429255876469,-0.03947817424630862,-0.02578631056974338,-0.02877289102655135,0.248528026976359,0.3434702098490512,-0.06651435394942315,0.02897268941024958,-0.09581018609312478,0.2976164450117183,0.2058064425458601,0.301624767589474,0.08797837016670798,-0.3437292901379249,0.1463945355250139,-0.2716183793556631,0.01426928914385283,-0.07025327568110916,0.05302502064396179,-0.2093095795981946,0.1713178069987432,0.1300112002840967,0.02744019687419584,-0.1426329698415035,0.1497679579348586,0.461343081485993,-0.07404507599105639,0.008034019986958038,0.199264211291453,0.1413578176594134,-0.07367032248834772,0.2579401660254518,-0.06349776448270823,0.05601333431453923,-0.188059083027654,-0.01884441375243731,-0.3211697875275958,-0.2718243346819053,0.2004318040927422,0.08038965086510892,0.08884905891605503,0.022151874325272,0.1541206973942772,-0.01621335982732594,0.3869518350961937,0.5817458765678526,0.3652491816804352,-0.009304321682536169,-0.2353536144894996,0.3497625925065625,0.1268149681979,0.1462785841883569,0.05477441627249531,-0.170733261818505,-0.4098348136346773,-0.1615875849575243,0.1155404429176151,-0.2457997779435786,0.1233281753632243,0.2915921222371082,0.04449867350589885,-0.1936472512973198,-0.2371568697864872,0.04110680863079794,0.1807657957966093,0.4051438802706556,0.752355941709312,-0.09745691065820855,-0.150159349383775,0.2565015305954543,0.04168730227475783,0.1078472320811426,0.1170192539489948,-0.3204137965853192,-0.2537779748517773,-0.2975540171020673,-0.1405652514014863,-0.4428081322983493,-0.2473111435661653,-0.2597739353470856,0.2183094113170278,-0.2435977421683387,-0.3041969839399894,0.02003340328161929,0.02730516902058502,0.359649391232011,0.6359514010899086,-0.0134026950677765,-0.4536740475289847,0.01023276022008355,-0.04347392143344297,-0.0479538593404268,0.08585253830675103,-0.3316393726016543,-0.09044319921838538,0.3549869218092513,-0.2906423113005479,-0.1010027556765979,-0.02056271901681635,-0.0568213457326356,-0.1016641293176383,-0.0817926796824693,-0.01950479449435465,0.1955890672000455,0.03319466195494996,0.3911680354255912,0.7462969260713053,-0.04796333523734007,-0.03297155677912161,-0.2565795411122774,0.3506164917399715,0.1018191482402579,0.03947800130499466,-0.2728130028795815,-0.2558503873982784,-0.4990351665606543,-0.2987974387006443,-0.2856077444371404,-0.009164681380324169,-0.2025927880409214,-0.298780502555748,-0.4646973765895346,-0.4471561797447725,-0.4092939570394187,0.1396297681845444,0.9454544418451398,1.178749716872283,0.7319704077980661,0.7026877904407777,-0.1017908801780726,-0.2912564918687462,-0.3999540813147923,-0.1900895575300816,-0.005210435816458894,0.116478286610446,-0.4229653213397844,-0.4018301879169198,-0.5510758723057192,-0.2440809405202883
-0.2828549205029708,-0.03503647309112506,0.1598262754596112,0.1998424436236905,0.2816173687527144,0.1809111632608152,0.1599375165188542,0.04541783914436195,-0.0479440557968852,0.3729120349316434,0.004498356783028387,0.2070878257119377,0.3778917720475801,0.6238905670483114,0.5178674559564214,0.2670408826676989,-0.009986530136648283,-0.04090504204824365,-0.03175827216882683,0.06333298952822762,-0.02265268911447352,0.02562625609149726,0.248051096651244,-0.06789132130677954,-0.02177923265470134,-0.1216023986254662,0.2118054491163108,-0.008400329015666078,0.0677884088542508,-0.249122642951122,-0.7218127889527379,-0.5722542051647729,0.02688854279318712,0.1811949925164086,0.03839718779303124,0.3082619742141525,-0.09925348824227094,-0.006941193979198489,0.1906479797288461,0.06890866814067263,-0.04481583017719451,0.1454582787178449,0.276589208295634,0.4118622682757625,0.02236031509443565,0.06139016721153664,0.1711295583336158,0.2177498487828661,-0.1430731910365892,-0.4140405376178889,-0.5383307152703062,-0.03500419716725733,-0.07321358704822728,-0.1283431339704784,-0.1236909255635969,0.4024438766101914,-0.05521974730164297,0.4316286474962038,0.2684054869536606,0.3835478358635183,-0.009149546443149975,0.3419300147879942,0.3053862260191855,0.1229875033998673,-0.2922518498659298,0.09584920192162773,0.1356863477608659,-0.3629923851581425,-0.5454925574826903,-0.4637961305176343,-0.2042355892112103,0.03000976891794894,-0.1116802027361118,0.01550198572241085,-0.3257797614190652,-0.07235614837201607,0.414102839402269,0.3351972234494044,0.02048407339679855,0.3018343668383046,-0.05115194169325625,0.6246449429060181,0.2557179795368174,-0.2225330336909005,0.2285642197212486,0.3673912577645989,0.0329142588909745,-0.6669621657739471,-0.5198050615515051,0.06121522457575205,-0.07568317411380973,-0.4530704252074469,-0.1852211718382661,-0.2382197805255362,0.1445924127564985,-0.4469547467721979,-0.1328356561842972,0.05054627558423166,-0.07663099253601784,0.1040201166435889,0.1042960220782975,0.6382271517271952,0.3355828455259898,0.1206588916513825,-0.05285760108067732,0.2885016507395129,0.3537219985705111,-1.188581295344602,-0.958225209360129,0.3836101762660991,0.03577589250936367,-0.5913361368497797,-0.05041629638411371,-0.1076577553448681,0.0753093623181823,-0.5937976090192796,0.06553917345445771,-0.1209656358208543,-0.07305829752942329,-0.1768351124143173,-0.01307652844864684,0.8190465966041509,0.004742882046231069,0.1799351576637585,0.2050636991942524,0.5281575408517251,0.2433721457293618,-0.7196227842666931,-0.9123966160014283,-0.1184235462527982,-0.4109278223290938,-0.2984820990586066,0.06065799678959381,0.07191327552288675,-0.5227448769152602,-0.09553794359698962,-0.005231657298353336,-0.0260920037179471,-0.09017866123070681,0.1113359369237545,-0.07598537159229442,0.6450964934648743,0.2970793165996127,0.1559377762771771,0.2416927428635541,0.3025495901283364,-0.158288946531016,-0.924033845991891,-0.2951720213354255,-0.2032663522939601,-0.1690570199119178,-0.3463104210894886,0.07650583536445779,-0.2951588753024605,-0.7671177904350841,0.163754299515838,-0.7360462587621371,-0.03047940801211253,-0.3559265150432926,-0.004159471047108399,-0.0406189617044761,0.6176489763415854,0.2043274594157702,0.2405440826877011,0.5991337613318255,0.5762602834493322,0.0716379027146859,-0.8541266389404483,-1.361430693522414,-0.6849692648761414,-0.4171811780428629,-0.5885554880814626,-0.4803047715334705,-0.2026067676722578,-0.1514070176779412,-0.4750945959774949,-0.2330129206552633,-0.2343657483941854,-0.2582566544584746,-0.2050830313102786,-0.2316103377755574,0.615408097779271,0.1880440807062659,0.4172721864367989,0.5760728565700916,0.9172685096118874,0.6486321377573856,-0.3260487257606197,-0.4256573758666729,-0.5841568721010423,-0.008827626518354352,0.1320597353843144,0.2277303516736415,-0.1520639454280211,-0.03741896925700238,-0.1256328163800727,0.1168261245158002,0.022244423790707,-0.03764062416160211,-0.3594565935396766,0.1868527659986243,0.6303516399256518,-0.1096341546256424,0.1146200093228797,0.2400437541744916,0.4805784047677912,0.6931196150267207,0.5846871852321879,0.01546804576055742,0.1164110959193531,0.3002317893363264,0.3557835752662878,-0.01506659807736109,0.1382187300970861,-0.04200637316744837,0.2024897651910009,-0.3109131859655506,-0.05210680633755617,-0.4138071632466367,-0.3495444987806778,-0.1443162018179584,0.3866076802358185,0.4925897846902207,0.5094669579228426,0.2903120895892531,0.3588603945156589,0.6522771221151067,-0.434526657010891,-0.0268860258536713,0.04227524495957279,-0.1072999112925854,0.08678109994265308,0.6487649043634132,-0.1949687982874338,0.2810628260426341,0.2754456093419537,-0.153579459353214,-0.05640315726125928,-0.2818757265388171,-0.4121613078997137,0.04094977576691276,0.4430565758758388,0.0430903923613531,0.4681314905738583,0.5207085293461426,0.5503835079473252,0.2539621905950261,0.0287541100413168,-0.1187288760696498,0.2884583150732883,-0.1191294302104884,-0.1165376046416643,0.3248812158253689,-0.064257662830896,0.1566901605096769,-0.1597083339436637,-0.02373444036888752,-0.06137920626317305,0.3271554569904985,-0.3617506611075073,-0.08409846055239827,0.1663024615929543,-0.1148695056671361,0.2973066167266863,0.3008304747970607,0.5174624589890904,0.4412384296730334,-0.09261152056002059,0.1873195520870127,0.03365926313275509,-0.1855415466703984,0.06900794091007974,-0.06826990746656637,0.1432917240874928,-0.08292193870554203,0.258778009504567,0.1632317819752732,-0.2328875194640674,-0.2237881009421645,-0.1199202353683284,-0.04628622167981223,0.1529788284047514,-0.1174491065967817,0.2934854608129889,0.2097501656506848,0.3872826533886189,0.09529723126551125,0.02235299991311335,0.09552345979551856,0.03120534678417133,0.3358756696012349,0.448207150292121,0.1143499718416422,0.1488404395572442,-0.6399849949222354,0.05201505641855282,0.0691393099681967,-0.2049172308090521,-0.1229259703442141,-0.214261437440782,0.1178446901846223,-0.1773898795389381,0.09983536991311372,0.1400784007023765,0.3532361058827532,0.6082351874074915,0.0448091670984574,0.3322635583879575,0.2518054711130097,0.5066563806883508,0.1229079795453364,0.08881411218532699,-0.1877701937066664,-0.4663204271773551,-0.2283997503498597,0.09978507776360585,-0.06053546436007223,0.1651394852421193,0.416847897682761,-0.3930938563263618,0.1518189452577107,-0.1474512426848967,-0.0323240120238379,-0.07986386036072136,0.2793378567862366,-0.1482295614074496,0.09165547669090496,0.1617725385079208,0.5303512288126224,0.2395830460129996,0.2753574920747758,-0.08406815723068152,-0.2243164501920627,-0.1993560965508198,-0.1526947021618025,-0.1888843024940781,0.01708702688580538,0.1684038330978409,-0.09953581220593605,-0.2068935321064085,-0.0160146030408376,-0.5743519599040339,0.02000312798977564,-0.0319363604395262,-0.2445001704440636,0.2068350487540406,0.05010261743070398,-0.05130207123357634,0.1794136845189963,-0.04121135618448784,-0.2206731196363116,-0.1459864783390884,-0.2379411160739829,-0.1665824086392283,-0.07523100903705367,0.1279137520318744,-0.2412935990654022,0.2339504177729787,0.1564649052944126,-0.161008176642635,0.1775718484238001,-0.6532605444143806,-0.3347703726142192,-0.4400428159348549,0.07281690784856433,0.5678117732948148,0.6876343122999624,0.2879474653990525,0.4864910498489446,-0.3922110684958512,-0.5053957026951648,-0.2980665420222918,-0.1064598766311583,0.06189856413583242,-0.1003064193148658,0.3470722904182218,0.1233097091118979,0.1249670788498516,-0.06274563566760316,0.08436853993203693,0.283296857093606,-0.5408850368220923,-0.7570841673455803,-1.010642799787139,-0.8077990817502769,-0.07596399689033984,-0.1842684617026793,-0.08691820185079042,-0.253034563678303,-0.981111827895546,-0.9702352148155267,-0.7567232013017967,-0.4395218809823167,0.04132440807216926,0.07899538511340116,0.4689022913445269,0.5808410040284708,0.3022013685290208,0.06190582500720986,0.02421119105200411,0.02640297332757595
0.8190246604578615,-0.06529277086801318,-0.2387661349774978,0.0105403075570678,-0.0139991565646679,-0.2207944482091236,-0.4585142941507381,-0.1411323594845065,-0.1719617597089909,-0.1254621541393106,-0.01345449496651103,0.1441987109985353,0.2511795184203002,0.1133061655753783,0.004215021790575021,-0.1429868676309453,-0.3165788822908039,-0.05052855180513385,0.2280309919745385,0.05443497799577724,0.03514725910769777,-0.01317286114485226,-0.1161418760662556,-0.09352156245869932,-0.07770238810625961,-0.02137331033871765,-0.07074608192877813,0.06673894551771133,0.2051944159435358,-0.1720588319693256,-0.3149807134133895,-0.2196529019542011,0.1417071606148338,0.1951066561857123,0.01197318978510655,0.06398463240958797,-0.3002342864700299,0.07343500953811566,0.152914423927873,0.3231116029359286,0.1299909609185983,0.1191621120848425,-0.1020149328965358,-0.1374641204225486,0.1353364206738233,0.3010731056561469,0.1762239513878532,0.2922062743675574,0.5880021582853132,-0.08863579648496654,-0.3793850844473298,0.002227849997559475,0.1175181546796401,0.009252527254099299,0.03622831147563377,-0.05426172952860803,-0.08114147981314596,-0.273348954842362,0.02786365546330695,0.2685710464853241,0.03062498645899667,0.2895233002962821,0.1697798871037494,0.109527577770969,-0.06049617408631455,-0.05766728848418826,-0.1485089599309118,0.130891388926224,0.2957500881479381,-0.501316658394701,-0.2498912667089236,0.2059885370761336,0.1864836170907756,0.1145020603791169,-0.2395373000209486,-0.137781927301083,0.2485291991922785,-0.1918283969366724,0.1271935181989416,0.2278279060949552,0.2153526789107916,0.04992113427822054,0.09624694914775693,0.1562961943186565,0.2693163350552455,-0.01325365676620117,0.2420740524148425,0.4243255113262171,0.3191670173919927,-0.3880749862330963,-0.1564498848729876,-0.2422121487181279,0.1806297791603481,0.2283498397713006,-0.04930412146736547,0.1465466957359819,0.02720122706379317,-0.06036560693219274,-0.2192119852806113,0.3291988264551976,0.07266165327997914,-0.001069049307170563,-0.1117134176486485,0.1463339339219461,0.1113173156019463,0.4144396125628582,0.2921778443091734,0.06155417813060878,-0.0565742321197936,-0.2793774505200446,-0.234197635006496,-0.0329006675637702,0.3388468918586433,0.3721336373804061,0.4093716666122468,-0.3035769086516717,0.002302812041053333,-0.4249929076263662,0.07834204336668468,-0.1781058073499102,-0.3427936404760545,-0.1830854485334678,-0.1126077569928324,0.4015801483883891,-0.0974536837918242,0.2014116648953455,0.7701198955493153,0.3816280611777691,-0.6499465350633576,-0.6968677488585083,-0.1260299586223505,0.1324716196803152,0.07402115579090085,0.1433891113470053,0.2260393718530997,0.1443437717271893,-0.1849919308595507,-0.09463362889226548,-0.08760144369672986,-0.02807852849448286,-0.04460908993194711,0.01025632849011966,0.2387112952415603,-0.07604614417618771,-0.07985034921857737,0.2854031093701056,0.7412536037394249,0.5282869518641163,-0.5641961508071163,-0.549529824413085,0.3803041937897749,0.1198794489232566,0.0825403935954529,0.03025800891736734,0.3711599181896629,0.03025961658260065,-0.3735306551639809,-0.1184657677053049,-0.04202685748158274,0.02292559536348845,0.2685633393801772,0.1904231047495274,0.1405472722918527,-0.3729178827015815,0.1751973143353239,0.3471190659089941,0.3950414042986228,0.31862847679125,-0.5179677523054683,-0.2841395883022331,0.2036685116348545,0.1955110552657689,0.03264032922916951,0.5417123440775835,0.2762617824889229,-0.09871922557160766,-0.4645690621747742,-0.1339643386124412,-0.1542405015747571,-0.1231029256393874,0.3660771416826896,-0.0583642344222375,-0.01607108569071847,-0.0169950426782192,0.3426925820214914,0.5734155767089455,0.2894595114977638,-0.5480344502619656,-0.9076309716749777,0.007521010242187084,0.3920817912678853,0.2287956246403621,0.3462528403766707,0.2487791000008341,0.236365961755577,-0.3676598073543912,-0.194844252789393,0.04106202726114296,-0.2917053217341306,-0.2693094953557326,0.03000163754136962,-0.1313405447167678,-0.01708039921091958,0.04963322735500476,0.1303454701751953,1.179671566661219,0.3118361111462056,-0.5881927768869026,-0.659869108542834,-0.1369127128093841,-0.1359676069184437,-0.1565389672324356,-0.09254252082060613,0.4487586101270291,0.5550244453462717,-0.1852236119900647,-0.05875979137340322,-0.4841281508876544,-0.3769906326870168,0.2914332435202397,0.1449432716186969,-0.1111635300873116,-0.1571285202909376,0.07257738922186203,0.1969406097755317,0.7753617596262268,0.4644115891500206,0.1490782308230847,-0.01281296987756448,-0.1008453530532157,-0.4343479797095707,-0.2086538794341072,0.03166536216147401,0.3330050269735345,0.3406634807414375,0.09271084725967962,0.1873765579893785,-0.01381937307277279,-0.2721526094717017,-0.04604458988463321,0.009843198260097039,0.03654791923955939,-0.2327859842780257,-0.04642075558672575,0.3512737178869112,0.4803096109048269,0.3886743231649561,0.2532343755452418,0.09029007774304837,-0.25307475393288,-0.5138182136413877,-0.4411679198481585,-0.4733117021425504,-0.3948642860458056,0.165709871528224,-0.205156946594608,0.2311561180501286,-0.1246856464012772,0.01418968244973225,-0.1166862737099236,-0.03164982506663535,-0.1465459200799862,0.08733023456211302,0.1264709025497264,0.4794874630421034,0.7520403860245358,0.1842583793322612,0.08020846584758722,-0.1377054057197522,-0.1590769930800082,0.2300026620357921,0.1772644281628025,-0.3632733336544973,0.3117455982549501,0.1295716095173794,0.07125964200498412,0.04844298651397098,0.05676933042622969,0.08935925103372509,0.1419147413203769,-0.08708156209641478,-0.5498836100865723,-0.3318511522803582,-0.01888961937656867,0.7090714262889647,0.5281813771774567,0.4869951708175418,0.05712360179960745,-0.2973479405839871,-0.4123982632288124,-0.2953488709585541,0.1639346850417582,-0.1218723912097135,-0.3421010833656423,0.0660129941986119,-0.01813774154260549,0.1008828545997348,-0.1352757830803085,-0.3354887586908019,0.0691389334976532,-0.3379283124298111,-0.4311275009539264,-0.5667053808767183,0.3574205525537726,0.727612887780127,0.4369185919357289,0.4121965466275909,0.194358275970437,-0.05230656341711849,0.4504521916070612,-0.4841708638094025,-0.4086068554912347,-0.06913551990516714,-0.5983247239427393,-0.5049388707793663,-0.1447199547186415,0.1789798507269822,0.3464612529984776,0.05254338397126834,0.05235033326828119,-0.1017334036077873,-0.4728109663621234,-0.2181358707040739,0.3688811694829733,0.691375620281815,0.4206551154590855,0.1120208841555354,0.1641808467514839,-0.01896090615746603,0.08285031598786023,0.02692624955828015,0.02173139427649351,-0.5292725968863677,-0.1162558618455803,-0.4977101091619846,0.01197445745720038,-0.03631240107970997,-0.4086117036720176,-0.06525442988216586,-0.03469389373523389,0.171433607469833,-0.5527964050674988,0.1114513424457204,0.5526016595220911,0.7008101243403314,0.1585715530667733,0.04458918671710126,0.3840435911558537,-0.0137438632709802,0.2527841255306749,0.1313680404366993,-0.38681955395174,-0.1624965168404623,0.1925875968574143,-0.39724432483665,-0.4017467523909401,-0.243203281710881,-0.162781243626748,0.02529663106239504,0.1141739567136564,0.3373399781639926,-0.3867201284562208,0.1919969200060226,0.6059969497894657,0.8467795431864642,0.5823111092186163,0.210811171728671,0.306329688394299,0.1874022449495349,0.008264827265980067,0.1014816429172985,-0.1876327593323053,-0.2376198965702434,-0.2407631289698682,-0.2218782121398234,-0.2449144236424384,-0.1740554564817482,0.01001105060372527,0.2225665641118952,0.1612956274665387,0.2161181840552461,-0.1913376787033823,0.2564871705385223,0.7147665918425251,0.6583976100342029,0.5064364855221432,0.02827035832162187,-0.1638807662421177,-0.192981251140817,-0.2944510147330777,-0.4454896536245099,0.1164783133817824,-0.1994278369960726,0.0164791857277244,-0.2013486775483211,-0.03793928590540995,0.05586266683100861,0.1750036853429998,0.4984589025049944,0.1776234403123018,0.2108182712501788
1.214619145963658,0.05703964925041114,0.03160906208513532,-0.05200724802485462,-0.05871254455491436,-0.01151749211160787,0.1298029953691676,0.03083143004270189,0.1048717959382514,0.1717060573906874,0.1262909956800614,0.02097023895089168,-0.06742141246807586,-0.004728492012324555,-0.2900321124927543,-0.3418064773672729,-0.2331136855525644,-0.4940576316560901,-0.5429217586256024,-0.1750699977040475,-0.03274831926680605,-0.02168551450211737,0.02599207269666194,0.03657499844340026,-0.179607643901274,-0.1127732894588449,0.01764923684797802,-0.03486151979863505,-0.02720648974140695,0.3108778365652714,0.22611622742693,0.2873529376043007,0.09624305636789093,0.1949194008213351,-0.1373348646145885,-0.07792997379731241,-0.4413755202304053,-0.8878018557647689,-0.7550736138322034,-0.3511906366959671,0.02691072240949315,0.0754105730454669,-0.0207739909739171,0.1453825885948666,0.137603542536947,-0.0977941573555262,-0.1169178129768526,-0.08348467474841781,0.2918131338165902,0.5012468847234101,0.3000049446939274,0.06983315626312869,0.1344957991773084,0.2617900336953768,0.3233965366422919,0.06553698629318228,-0.5476537250360144,-1.193408148230211,-1.195216301768169,-0.4936580247210025,0.3630976045802022,-0.1075513041920921,0.02818519430923799,0.4151836874657645,0.1341920000180629,0.08107392373155438,-0.1475383900041516,-0.1034214791687735,0.4820130857692824,0.3457714704463281,-0.006287968005771209,0.178922068229752,0.122963541737814,0.4228957176284796,0.361632695267285,0.2951375166741199,-0.271755876672937,-1.110126631700054,-1.206568448800791,-0.520725569325888,0.4738833814231039,-0.1980584562683701,0.3134006621989713,0.1843828555640552,-0.07916932597304727,0.02791111010863052,-0.2875417999700092,-0.3297754168168208,0.2643056587343638,0.2887331150884868,0.09208771028729698,-0.007803525154250135,0.06203019556056016,0.1731744363376955,0.4297605782406296,0.2583190717889328,0.04593498999288845,-0.8843638557345842,-0.9534862517829186,-0.576089136385334,-0.06854440890693587,-0.2700680971128077,0.266059545505233,0.09199221998277014,0.02551751871802134,0.07002162191131669,0.04805396761073642,-0.05151766579479018,0.662807196861984,0.1304206058090229,-0.1595651959098139,0.2167023658908749,0.06636926665093618,-0.1652658469361049,0.1359828654822191,0.6930948648936999,0.2201625256346761,-0.6618255686081743,-1.177736061059473,-0.800527636309966,-0.05531025810772683,-0.4068812167167643,-0.1150050762792357,0.04495950494410417,0.2413129860746991,-0.139082949659723,-0.06544392717491172,-0.1808471918361128,0.3867420520413791,0.4233174109844182,0.4162896643509319,0.4646604749637152,0.5979828873192035,-0.3344592997781139,-0.06407909298261429,0.3194783918805911,0.5187018146704937,-0.2913711630937509,-0.9145222942029527,-0.7553185907154906,0.01540384989313043,-0.7261756269103561,-0.4009051259638879,0.03393840568952455,0.2321510148412507,0.2417270277188883,0.007533074658413219,-0.04324173434091756,0.1364161494356572,0.1188843303608163,0.03752480453273325,-0.01436187130589982,-0.1956184836515846,-0.2508088784211374,-0.1364685291932801,0.5336417235030989,0.748415751229162,-0.09499086233470172,-0.7589933886496614,-1.055209736169668,-0.6968517929761985,-0.6053306275519167,-0.03234636522042637,-0.1601912550875586,0.2035401020787374,0.1779838652041861,0.2633210945614808,0.2060231531192529,0.5425948918694985,-0.1335299774509196,-0.2331236460913457,-0.07851390393904763,-0.1362965477043109,0.1557982325717049,-0.4687663102198657,0.14881316218534,0.6864615957154397,-0.02130635429083194,-0.01395073454015273,-0.84815659519565,-0.9323127511974808,-0.3044258508864572,-0.03920985734004977,-0.5524170010479718,0.0340466992363456,-0.135504514814885,0.4367949979205725,0.2455120665470883,-0.03988887737969571,-0.3462957169029462,-0.1134801435873685,-0.2302019723000951,-0.3028179447701421,-0.1105696098166532,0.04173659771376144,0.1081366058333968,0.1834664885569635,0.2773161551663131,-0.2911218603395059,-0.9313023835743593,-0.8359115029309101,-0.3715289102059205,-0.1339007388385326,-0.2334734804915905,-0.2237107922099298,0.2225003178457818,0.1491738136068761,-0.05622230272022111,0.1806934424308114,0.1073325719426686,-0.02875170002283546,-0.4327665468460277,-0.06327621146751927,-0.2104436298178864,0.008886321629825996,0.3763110535422085,0.3482014337439567,0.2649200739870168,-0.324845245017117,-0.6478715564889862,-0.8562376490723227,-0.2493577637496259,-0.4649002412595428,-0.02035096020193313,-0.3014566933827179,0.1261177098218069,-0.00174134761537466,0.07909769512092672,0.5334033215103081,0.452410740346451,-0.2965148608142331,0.05744596441148434,0.551098752358557,0.2496817049997855,0.5305861037546203,0.2780253529037767,-0.06620582621089455,-0.07499484235966011,-0.208354506415873,-0.28748682972298,-1.170307180631597,-0.2578112866536693,-0.6861978977720233,0.05978871304748658,-0.05289288083987326,-0.4025145208792324,-0.4225151194324109,0.4097844731380438,0.4565749250441485,0.4066999289665602,0.2755835282566437,0.4319769099692566,0.4067182885720372,0.2670620356895055,0.5422981261553484,-0.01764580840267066,-0.2025551811254305,-0.3164825657183694,-0.07278193305117112,-0.5201346311211468,-0.9607783599587283,-0.07256985732268832,-0.6536307120877853,0.17863580525781,0.25091251165282,-0.4028337588256632,-0.06129890159631016,0.1864335920915242,0.4925621118695189,0.3967384585663806,0.0629643538055327,0.2648753891359227,0.680986308682494,0.3057630994716721,0.2321248790997014,-0.154256626938673,-0.4440710391006025,-0.3417087431517216,-0.339696767665335,-0.6975344572528054,-0.7570511495992147,0.2525203470515477,-0.6107776124093052,-0.5372296151741262,-0.2913040011372199,-0.1717250618762341,0.06471804205767437,-0.05742662365173574,0.347618439621574,0.5021927933935053,-0.01648403353554855,0.05985882487623507,0.5524966436644546,0.6149155364752248,0.2418285199341802,-0.04835094225209387,-0.436170696425986,-0.668386155407441,-0.5952023068878229,-0.3678952115660969,-0.1589798038466777,0.5200265963287599,-0.5022895579051646,-0.3517733616740126,-0.1102317693368023,-0.3204985422969025,-0.07157645411221218,0.3881702942200005,0.1411321589055702,0.08547297132338001,0.3522477222367242,0.5160809248290383,0.02161903404134078,0.1015449764086847,0.02584489314507587,0.1324661306639638,-0.2581542978912821,-0.4584990246582298,-0.8914615016102728,-0.4850645278235528,0.1626985716954802,0.2986380841976422,-0.4332726600266034,-0.4066702956906359,0.2410059322491897,0.1028296760895441,-0.08628234494943403,0.1799820770760828,0.2272050941188447,0.06369815709741715,0.2526838501461292,0.5090428196598119,0.2899263224412909,0.3395560854889704,0.3847123554935265,0.3205502299810518,-0.1827157475640948,-0.7890729864480368,-0.9957858669759727,-0.4480165813566868,-0.02860803235283508,0.1341251663235717,-0.3153922855149531,-0.5045738817701398,-0.1587146823255235,-0.1843806271830795,-0.1873707273263971,0.170407774846803,0.2197030933184979,-0.1378090114111344,0.2108182643355628,0.4343088886551683,0.3966598920594848,0.4209115324817352,0.2228150997830452,-0.1257738871088245,-0.5382837044269934,-0.8884889496999128,-0.819945429620782,-0.5536647690882348,0.08524644859990094,0.04464626856614826,-0.1670516244311668,-0.140167673595795,-0.116799771758769,-0.2244431409600229,-0.138853248326042,-0.03041488066549564,0.1242826127833817,-0.04446084588057754,0.187245906182386,0.5798216010585548,0.4044926877027574,0.04386560299750398,0.005084870039639073,-0.6165900980252056,-0.8777835641669319,-1.047576224037209,-0.7515624720665864,-0.4344393110511181,-0.1371405846076013,0.1486821364647052,0.1789189429469667,-0.2788461018448725,-0.2827351688739795,-0.3207937085627139,-0.2927542000019883,-0.3293303550855418,-0.1806655248224725,0.07747873647683644,0.0459587225103134,0.3019046827191725,0.08829777931020139,-0.2833987014371895,-0.2827612916085966,-0.5446145272333303,-0.6431850964077434,-0.7738788064615231,-0.4046094678473139,-0.3238565625481939,-0.158283577575055
2.258208679379001,0.1169645555182794,0.05330778995110883,0.05237631225327322,0.07247512216495181,0.02881848457296713,-0.05099221561047979,-0.2183734545375938,-0.2110381522466104,-0.1958493266572586,-0.1576862285456818,0.03238705719014293,0.2198037409147608,0.2165161540625046,0.2183440890423294,0.04510107330140591,0.1563491376620223,0.09295139194049383,0.1534725975442083,0.2773008070198201,0.2845775654587782,0.0468987560162525,0.07298354820223411,-0.08613797628194547,0.04875043230620046,-0.09393419461173863,-0.1854343999826121,-0.3332456057889594,0.1240252364439281,-0.3020809750110707,-0.1538393564053841,-0.211736906777163,-0.2315183396636797,-0.4242997541597675,-0.2459561458940552,0.2109390928196059,-0.1795021418411603,-0.031804115344258,-0.08359672823975094,-0.008302003157263477,0.1494775543852929,-0.01927934553591008,-0.1636193612100318,-0.1472463577033317,0.06417621220621428,-0.08809978593111915,-0.1771331415177844,0.01800170746145075,-0.1268144678569863,-0.2432362823148788,-0.2276980679021273,-0.03412691377804147,0.1260027718809123,0.1624312963718468,-0.03280062568318829,0.2330741605915032,0.1554837124962252,0.005654481577816846,-0.01938004944077569,0.04693692798727884,0.05064221701269991,-0.1022065325072093,-0.04943412976657014,0.2539201149408553,0.06382505419866769,-0.005675103597560499,0.1906293624474715,0.01296504265910785,-0.2125525810371942,-0.1937551838853008,-0.1279925196266632,-0.545926741033919,-0.2792694768550493,-0.4253012755210278,-0.2710132307031043,0.05193918270822294,-0.2972619569017962,-0.2253584939119442,-0.0091060582926463,-0.03473541972866863,0.08084721744924162,-0.005208915640594858,0.01869584646306233,0.3356774067623239,0.3654958100773703,0.00979941812497811,-0.07307010044584722,-0.004063469421054225,-0.08051586493055848,-0.1294004725749021,-0.2398631174604393,-0.1804954960084148,-0.2556551639815478,-0.4260559341620559,-0.1759418737198455,-0.2193895724133027,-0.01674575666708664,-0.1080716411828059,0.2113878912501135,-0.08065604515836583,0.2599134821244607,0.03454578940599455,0.001427671705723164,0.4769866287419391,0.1725424369332491,-0.1026628926962252,-0.07900200169659284,-0.1381254067701827,-0.224476201826884,-0.1965178853425079,-0.5157779883693314,-0.01875745035341306,-0.02618452476469272,0.1019218058074013,-0.2489121964712884,-0.4149021533800513,0.07044948954023141,0.2645283243140733,0.4218215491354144,-0.04682436096001069,0.09475337206998502,0.09430859437411267,-0.008485427935435814,0.2102125839963752,-0.1049333041360504,0.02089012057420617,0.07407153605847032,0.1270319771888272,-0.3837174897433704,-0.04072585131875699,-0.4332786797563709,-0.4741779998524717,-0.6972712487564251,-0.5766776845326395,-0.7350559146659408,-0.1090651913339491,0.3784774056517134,-0.2890283811459782,0.1629046256308125,-0.1120817774146917,-0.3493872050096474,0.1426750507385297,-0.1982888220788868,-0.1207053044596672,0.01470476596713778,0.3589500580373789,0.2696411853109077,0.005245695585158793,-0.004698831585930579,-0.4417730347115147,0.1774753892300466,-0.1228615271047528,-0.2704811277664773,-0.1986700216106186,-0.01101271989858776,0.3471127934027744,0.3844363784295735,-0.3034071961323735,-0.282725825979194,-0.0659342363914486,0.02968293300466748,0.3461011017404257,0.04788328993981913,-0.1535096500479183,0.3020402378173458,-0.1383238849921057,0.03784725508190213,-0.0049160672003947,0.1076929915988895,-0.1697741910203702,0.1414820910871619,-0.1484788944568381,0.1837935612434339,0.9609599407533415,0.8320492418966846,0.6635701887466642,-0.1424749754855376,-0.1920567499408787,0.1698703301825206,0.05156580499162852,-0.01289655044483007,-0.0910505909934308,-0.2747109232465684,-0.2523734551300905,0.1927836399250505,0.3530729490570715,-0.03760981675588029,-0.07877706697945577,0.1695271772593918,0.359775178783991,0.7342434735651767,0.6074777079824899,0.8915496117517303,0.9575222197521969,0.5307813180178234,0.4789231499565245,0.2471978464651315,-0.07862685669466662,0.4982446134652512,-0.0279377581925744,0.1217514418329593,0.06708962507259678,-0.1118092510920203,0.1041891546257191,0.3535669975070491,-0.07309787908096112,0.2992184341020908,0.008963685084506949,0.51212218886711,0.8124320539427599,0.8923150660244836,1.150392752155185,1.138272593189121,0.7648629475384249,-0.1674462403898073,0.2248268965738983,0.4157126127927779,0.4844290050024143,0.4277096048902975,-0.1635865642931801,-0.1321637378564367,0.2089340882281808,-0.2214163122616226,0.341868122154412,0.1247151034563807,-0.3178683067496964,0.5428002769032308,0.3943652471022234,0.702137413416155,0.9385936265453171,1.368800453265939,1.352423337666131,0.7581595482535686,0.4163618399259607,0.2574190751718971,0.1566624527134846,0.4621352058217637,0.04133319487721404,-0.04812398798572356,-0.2122579186076362,0.2256923091891199,0.3607831454642921,0.1355494057827,0.3741401949928029,0.282475411457648,-0.222994370403822,-0.02412165981324787,0.1631281980762664,0.4196500330979656,0.4667872054198509,0.5792957414928843,0.4798085047137011,0.2011929508931987,0.2406181350583774,-0.04161219485380269,0.0575647262663383,0.2015664307634912,-0.06018648514220098,0.1487636361804237,0.2072262308326019,0.1303700961866905,0.2920150493047672,0.04324088220058316,0.2319525793970179,0.1777780915673758,-0.2443180144169591,-0.2739018207154189,-0.4298504013866697,-0.01302388252601779,-0.2678468111413366,-0.7993339137250306,-0.6011723955619007,-0.1700213506756231,-0.006141967039560948,-0.09257867941138334,0.02086137597174225,0.1495532814180067,-0.1058875888277874,0.1667790505020866,0.1645812765927959,0.2196471682529601,0.18995691871133,-0.2383586476795691,-0.1635317539503053,-0.1048077027891396,-0.4618789207980898,-0.2126158083605292,-0.2313419135612915,0.03536037111546294,-0.5802332610726307,-0.734365194176117,-0.3070394328739047,0.06006170585704725,0.1678174956683819,-0.1678759949134047,-0.2534202042850506,0.0632466666092636,0.01683310389747245,0.09775341063328954,0.05516028341256739,0.3721752634237091,-0.1817642052655302,-0.1053371475913505,-0.2419389357760109,-0.3473308775395075,0.1090402115133338,-0.2145337666304411,-0.4859037149386469,-0.193159100117225,-0.2010190034007137,-0.07450739192307473,-0.09054100020356642,0.100992849197396,0.2828409027739879,-0.1199960653393013,0.01762210435287976,0.2951427420440055,0.1381803442494731,0.03238645202576239,-0.3426383755978323,0.4502110726397294,-0.3018555013812191,0.009369387486949612,-0.02607093995336382,0.0171441210293144,-0.1949688150098466,-0.09454471910189341,-0.2570318552995706,-0.3950483805467966,-0.3332092852133767,0.3593482975517707,-0.08094448052683523,-0.3367290407361488,-0.3347185628044326,-0.4057076851739955,0.1486290969455947,0.1714570281692903,0.1977018466494278,-0.1332700725692737,0.08133324178007406,0.5151615503436228,-0.1284079136410853,0.08885798699486717,-0.103421891795598,-0.1830673996542986,0.01126167921582536,-0.1641390639497357,-0.195402715736748,-0.2799825483394718,-0.4665054855237873,-0.1167984174933197,-0.2002009792408732,-0.04468464319653211,-0.2004662361847055,0.0810879118667191,-0.1270696063737686,-0.2437266173246699,0.009840187906692572,-0.07567919191182809,-0.09580339815744156,0.1769150983884518,-0.2294448106258947,-0.2203229754535498,-0.3141056883810135,-0.1817095516055884,-0.05133384072004597,-0.009492489154377833,-0.4808528093185617,-0.1353646601213168,-0.1683929295372174,-0.3130873385880068,-0.1446825358435473,-0.2950975815366388,-0.2878166696833965,-0.1551746229496091,-0.2634515467078498,-0.08927264660988626,-0.1799145368391984,0.1099579804487787,-0.09340951589645478,0.3011202991356738,-0.1737052943557252,0.1225810708175334,0.07011512143999549,-0.131077244259247,-0.1524615197927789,-0.282145443509734,-0.6171407080811723,-0.2939612814047823,-0.3788040787560025,-0.08437755933468261,-0.1894475004967943,0.02117099554717592,-0.1501367968054746,-0.1792209610336353,-0.06750751772041368,0.03114376211829037,0.2237311484795825,0.1547901995910572,0.1563541479493149,0.3857869937458707
1.209393208285028,-0.1132767970655563,-0.3807764138080834,-0.4572578905428634,-0.6498702288768584,-0.7424774314290135,-0.6535381096999684,-0.1905458813370072,0.02782324875451337,0.3108413078814306,0.1833471355564506,0.1590763527646405,-0.1637971796100118,-0.2408468462856196,-0.1174770595314545,-0.1744289421968686,0.08539079075491687,-0.1891278024784607,-0.1319239331399354,0.09152950972786804,-0.05861756334147231,-0.3875437656508909,-0.5683198613405249,-0.2249482350660442,0.1308167450589006,0.06191556509679996,-0.4839173127713584,-0.1065359858601587,0.09419131232021113,0.1089509005900951,-0.001802250970817047,0.157063447526403,0.2943872786995779,0.2276025728640984,0.383250160986536,-0.1120252857901193,0.09102671595576416,0.4383388899122657,0.03124011056766091,-0.1771539412432327,0.006378802755573627,-0.2391952803568431,-0.4415555225936743,-0.2545232318214168,0.1012119509587598,0.1805090493181052,-0.1958300349592502,0.01505156601379244,0.2262881986562672,0.5199604457838327,-0.1394342964589993,0.3011433623019778,0.4690137637479995,0.5644167366137942,0.4836157717615427,0.04097259749167974,0.07514797586778588,-0.02531183913637981,0.04985723687578617,-0.1173199802199785,0.02689480109515462,-0.03126275304074289,-0.1575885775249762,-0.2969184346869542,0.2744685671436629,0.02170792337798897,-0.08333047799971036,0.2588653432642648,0.4673611429349827,0.127762081411473,0.0503462572847267,0.09737312459664441,0.336448827730937,0.1987253114827331,0.2391831701010461,0.2010126293984633,-0.2759171118162861,-0.1758019857123588,0.08333012712329717,-0.006948293437846424,-0.3183980087208134,-0.4493580851393167,-0.06029543640001539,-0.1198294831139089,0.2252905148660863,0.1676327350929262,0.09325461346877049,0.5848531311721012,0.04311952842069398,-0.2185844000120547,-0.04452592208062495,-0.04896943066690752,0.07479648833422546,0.2664802351092769,-0.161913689215741,0.1544757012970023,0.3521346409853569,0.07165177194668922,-0.1513266896014106,-0.1437124963767052,0.2034677608795137,-0.2621044909576862,-0.1647963218924186,-0.2802704195515795,0.07907593425733758,0.4072418945868565,-0.02099131852959123,0.6503989391941533,0.1043372912663868,-0.2616235252502093,0.02953741565700556,-0.1015356870981524,0.2476195301682032,0.1976110635106197,0.2865480514753523,0.02706791016319345,0.03415356286846059,-0.09020798086249342,0.2867785332832746,-0.1670995130130971,-0.07385402170323303,-0.4216312351646067,0.263914601989609,-0.01183418227440485,0.2982577512002856,0.02386744298699994,0.2567613946627857,0.07020521565598277,-0.1138314854436697,0.1221841382579155,-0.008763606975191776,0.1563780254577371,0.2930436733819571,0.118249994485996,-0.03753327190738712,-0.06105266459562841,-0.2384768674760399,-0.02636989853341284,0.1378611459043776,-0.1087706772315713,0.1529804399760902,-0.1342014736720903,0.2563391294981942,-0.1416322698795964,-0.1535006301973569,0.589433975355839,0.5858236063003142,0.0780975354298768,-0.1020250349155543,-0.09035584794352701,0.09254445266609494,0.3229471792204837,0.08047281777250674,-0.1809164833295361,-0.001961430179376833,-0.1117286673548287,0.8042169589736529,0.2690655487514923,0.2914251658243154,-0.04848444546132068,0.0293991055062646,-0.1393458330015807,-0.5892353431013357,0.05412998927872551,-0.2320723433398223,0.08566011365055051,0.2902462921429131,0.4831784681157243,-0.3069508796541658,-0.2889418201657561,-0.1115362378958896,-0.02094345608104027,0.5557155376635069,0.1681208991899258,-0.289820838884486,0.1219365259050573,0.1029597057291522,-0.001096939938037189,0.2245222972023782,0.3956878682883236,0.1077826811899312,-0.2776271360226273,0.07501066912663636,-0.05556338512563315,0.09610348766139623,-0.5789073000861387,-0.007952229541613155,-0.2976282560089558,0.09678335562065726,0.03137393959059501,-0.09971812483510661,-0.6599556589485367,-0.5266085477087979,-0.1240529628979824,-0.03769715106853326,-0.1657230003759129,-0.1659286986968792,-0.08258543320299459,0.4627871182874669,-0.1512760800944612,-0.2717695896750247,0.1022247493251899,-0.1569059335993558,0.01803823173988414,0.2587829837997928,0.002998746406778499,-0.2941509775217596,-0.2961360843487618,-0.2019392389413681,-0.6524788225198236,-0.4397278350185643,0.1915878586964113,-0.7395502043812702,-0.5240657794623014,0.2180423579055165,-0.008210526187519003,0.3636424300944884,-0.2067214122379032,0.07662688229337372,0.2565263817104608,0.7436180759344633,0.1444766573108263,-0.5460557269341063,0.206499711202968,-0.4597059634665951,-0.05518136294755843,-0.7470011359823897,0.03448136975257603,-0.4690495177189138,-0.1623396706060839,-0.352578033975753,-0.003353567233624409,-0.6430639384344925,0.3555501607849282,0.9645769685578904,0.0452100124484903,-0.3684431188152716,0.1108214444264267,-0.06131116327742504,0.1579518325835154,0.004572242158860599,-0.01627649109893863,-0.1281278919869925,-0.1919793560244947,0.05064051979380194,0.0499261040502152,-0.437901547429361,-0.6389064093907351,0.0345110021775308,-0.3966640686758806,-0.385148760669592,-0.6653572332249245,-0.3214510480566571,0.2442487169860897,0.3326218918438473,-0.05136927911491621,-0.08381897503552617,-0.09704153399577443,-0.1929469375423646,-0.1621706618769019,0.5658134037863974,0.4030048458841624,0.3101777636855712,-0.1139185037188489,0.2468331823955214,0.3812704377887864,-0.236260945648702,-0.3290238834150909,-0.5277002278559645,-0.5092050906966701,-0.5194617236272505,-0.3930938055302212,0.04862728939452694,1.318845748457778,0.05421581418934981,-0.1667932482541059,-0.0727073267518797,0.0546836786363585,-0.2509750333721488,-0.003780157839951255,-0.2313271280621078,0.1705390928440533,0.1995467296296148,0.09716468639408564,0.2516011786543755,-0.2430497982442277,-0.1490180315918816,-0.3850573902216076,-0.2038595965032909,-0.3949034272933073,-0.1336774600422601,0.2752801836529996,0.8438809606601151,0.275880843666005,0.2133708699256602,-0.3418828788447809,-0.1260145010172767,-0.218747753610484,-0.1126004220493864,-0.2906523881319811,-0.5751296032252684,0.2082393666698936,-0.138539314495244,0.2984852362524842,0.5598176744302803,-0.1454555377941221,-0.2970716734136061,-0.7476737697350987,-0.4187665966525927,-0.270248635371341,0.3785414803257355,0.7850102165590408,0.4089938388378486,0.2804956395328623,-0.006674752806018333,-0.2412074806451967,-0.238117141026804,0.1042728509543583,-0.1703347323507453,0.08499340847278218,-0.1373153599460972,0.533167830653464,0.1446291358217967,0.01978908780495841,0.1336653029472965,0.1460762054330952,-0.5359629149768467,-0.4683090156441406,-0.9240089138619212,0.2087626625707233,0.7917916277653815,0.8309108758874069,0.08881886136895194,0.07114370526852819,0.6157058882421704,-0.2616225934215841,-0.2067265663918562,-0.3870463540883244,0.08194625783687266,-0.3347747360414075,-0.02728798451630743,0.6926078549587471,0.2597748618015399,-0.1761573507294699,0.2519808216915622,-0.09845904838278413,0.1627714701095962,0.2404987288257228,0.2952899964694648,0.8184089438916158,0.6527643771915618,0.4606354174446233,0.1627415028532509,0.05139680713987677,-0.09791593613912961,-0.1938689288748332,0.0401751306825914,-0.0690337409565189,0.3957503017089949,-0.2684504021967437,-0.3394330586820212,0.5092970446480983,0.4025151324558623,0.2006318896862628,0.8049392171947832,0.8845137406834969,1.066616623060936,1.440701663474938,1.428962243593634,1.163142446408158,0.7572002058491922,0.5853018280608514,0.02481759825302881,0.1505952763522866,-0.2051063689857952,-0.5110818500674295,-0.2213056612169645,0.05004674930861307,0.2024081691195869,0.0003492416502558005,0.01778806557813827,0.338620748291515,0.2273605823142499,0.4849701377364801,1.206302410595286,2.139342044850363,2.33889962014017,2.133290977119121,1.672976726842776,0.7899605516530303,0.6481305428293941,0.1974302456668565,0.07655979420105584,0.05550472250683391,-0.1650005116208565,-0.07119035571506099,0.0506435344481825,0.1508981841451467,0.3228185275492234,0.1677145399181372,0.2580694648095588
1.081657689757605,-0.1018677587899962,-0.07561432005638596,-0.09296114081311917,-0.007036912249134646,0.2818750007891688,0.2750942427170293,0.4530785909333714,0.06034160610908807,0.1235093964575399,0.1376650230593823,0.1960466622216345,0.08986640810099246,0.07474313434459859,0.1752319322005485,0.120460957988096,0.01880532692944657,-0.2325798751661753,-0.1920039152766672,-0.07150419233719015,0.2088342937558725,0.03662418349727312,0.09396463547213893,0.1487768852478315,0.1698693312669803,0.5877176770781163,0.658608417559295,0.2626775056124366,-0.4561873818494365,-0.1155888293210398,-0.1997853563033492,0.01208979650718381,-0.4165892347465023,-0.2162774907666342,0.06600899733466919,0.02128455736194444,0.1782427180089569,-0.2334830880711625,-0.3102153187826837,-0.2674061495837241,0.1418915926304915,-0.01733091115290761,0.1230731376711455,0.3307402295385343,0.1453369986810082,0.4453225184759139,0.2706897714185238,-0.2402878435651707,-0.4125785353669106,-0.1225992708350371,-0.3519319233080866,-0.6409495346407886,-0.4962041954830161,-0.350925876512461,0.2058018022842549,0.2346581443600182,0.1243644533671545,0.2428119490395877,-0.1318134264638227,-0.2446632589277969,0.04750166616063223,-0.1358225091364949,0.04767485524323327,0.3170914888906031,0.3610850504172913,0.2122419187895024,0.2785053847210421,0.3367403829415102,0.09166519910069987,0.290527614264391,-0.2267984553562155,-0.6398662782467966,-0.5651389071008004,-0.3247630924068539,-0.03691204234641681,-0.1358123216560914,-0.1589571939158913,-0.0579285056791941,0.1213077046050867,-0.06892593765491332,0.1125579201639061,-0.227968159580606,0.01474607396466907,0.6333479789208614,0.2468895851094247,0.03420450224377058,0.4317035405648541,0.4227597150318878,-0.07470869327897425,0.04276324151368491,-0.03058559521564982,-0.1930276120321806,-0.2549333532102962,-0.3433110833382821,-0.04457381791878186,-0.1318463129833416,-0.2218747222058342,-0.03432694356403731,-0.03932013540162453,-0.1663003194220773,-0.2348347111774374,-0.4396364061041456,0.1712518291296419,0.3255742696826211,-0.06629506234208038,0.2533019207629736,0.3194251381979545,0.1792394030211546,-0.1326260955277776,-0.2880769201152567,0.3834625054137167,-0.06844757875650506,-0.4799318349013736,-0.8678958924450318,-0.0818044963074729,-0.006911408885680846,-0.3258884920276213,-0.231324937382799,-0.3403941425669667,-0.2781678833839614,-0.3519737582452416,-0.2057338720299801,-0.0386490974236046,0.3149545596359365,0.2315757450108036,0.1686387284148687,-0.136811759342799,0.4421940163254152,0.1852637721468615,0.03569090854904208,-0.203904480914895,0.1068978245889106,-0.244997837396423,-0.8142998447936356,-0.7034358689728119,-0.2406691972783272,-0.3443813996734928,-0.3870030521792618,-0.1192383911091651,-0.2782696899974183,0.09135556429512567,0.1401321393488829,0.1604092581245252,0.2838239213116161,-0.05294548100836839,0.02174380487321214,0.2373660000809856,0.3268301854839176,0.3308683406381073,0.02616886830004465,0.1663771407380061,-0.4308865631952539,-0.1631721430126006,-0.9030601146282704,-0.8267255606933039,-0.2150108976626688,-0.4585616107935216,-0.5618926468034517,-0.1302523793715001,-0.1960211685618286,0.2557876961437887,0.3283426843662552,0.01918756678004543,0.2052035791134901,0.1909317844796502,0.341489412518818,-0.02438979972648754,0.4316135774811578,0.1555207749142007,0.1462696319918974,0.1088154579106534,0.08231325554687165,0.1248968898416459,0.04190461272727839,-0.2172194440070093,-0.1624281560978823,-0.3370334450836907,-0.07886117822166942,-0.1342657864088795,-0.2959899449955339,0.2571950169158663,0.2433847576089707,-0.2734111585489549,0.3175459802031507,0.1960251342277789,0.4745293025981298,0.07106199179499116,0.4884294276840799,0.1527159936582873,-0.2071184339080358,-0.03140489435307976,0.01231561748848525,0.1895987056736126,0.3601543641851329,-0.4912775269815507,-0.04723109449485185,0.133264318688479,0.009022726192904168,-0.1881765060913614,-0.02694633414631616,0.3914132745437323,0.4582987989864779,0.01290879605124937,0.268875852096729,0.1919289003314968,0.05745717150361748,0.1570632425313068,0.6290375502992782,0.739274181647576,0.156674554255584,0.3515947124546422,0.2549425421555364,0.1546614110633456,-0.02798267612640342,-0.378283820147445,-0.01949983436477951,0.015010230157223,-0.3301775695399214,0.1656516059145981,0.2916402504366656,-0.03081034717820586,0.2315556301204746,-0.02601819993643112,-0.2384619083159361,0.2710375884995654,-0.04735890009017028,-0.07304321255447549,0.4986130239276481,0.7570598448181678,0.682665941951429,0.6127610151684526,0.1816811569714569,0.003939437134830815,0.2277220062252416,-0.01598383223061503,-0.04347530767255994,-0.2241945660360029,-0.008893343738440064,0.09036807894845028,0.04875286073487387,0.4877294643682652,0.02860097526678386,0.03233008119042188,-0.09276319667066663,0.3954872479453226,-0.004480330950310487,-0.285698902526705,0.01878148529515003,0.3111721542558364,0.7336839722029523,0.3289017014686761,0.2758473941215897,0.3678632114785643,0.06807107741206105,0.05259400098679942,-0.736839590892608,-0.192935167232857,-0.1578895245558782,-0.1194021115817988,0.07560009670495857,0.8391985832715362,-0.1148182229355138,-0.2148612731052111,-0.0324108581902964,0.1748714740620711,-0.1160818590161738,0.2408715993062809,-0.1264666866932344,0.4333716775748295,0.2224069713396853,0.4218135694773331,0.5635976635081942,0.07458538886212991,-0.394734794460494,-0.4739536397174976,-0.2297057995923875,-0.126194108023334,-0.1157725206536298,-0.08051361577670872,0.02813618612271881,0.7630585149707771,0.5288621916130389,-0.3260614963457888,-0.02152064272858242,-0.1994709467286055,0.3158706542801206,-0.06992723863870942,-0.1657832421066621,0.2150407768715782,0.0429258846400041,0.3221442921289945,-0.02869560845830114,-0.04357045422669074,-0.4438176353239328,-0.281037461873943,-0.2067326787052753,-0.06982848783330256,-0.5260029300329453,-0.3181858467073195,-0.3335319971530105,0.2726970097815883,0.5263992296373059,-0.2138974510945896,0.08461732554684766,0.3147556299551203,0.226133308386391,0.2309336733501357,0.4221786183262617,-0.5264927363687177,-0.007463331886622127,0.1849892325542448,0.1364043307392163,-0.03286045449991721,-0.4552202506285188,-0.2620085780450233,-0.08756634933259254,-0.03530139381220534,-0.2067341143176719,-0.2313145857572817,-0.3376198712185644,0.2533421548326071,0.4038145005727739,-0.2175643461538992,-0.03951483190807023,0.5598671431928035,0.1327408856321653,-0.06536822430553399,0.5181316736997901,-0.08780371761714076,-0.09002613639974393,0.21202154729713,-0.5410168127065356,-0.0219199567197357,-0.2340965934047794,-0.4229314683202025,-0.1940362552339548,-0.2201800499558651,-0.2116395645091028,-0.08298505060115312,-0.2932207053304968,0.2895610162492795,0.6333280175970623,0.01859743208603439,-0.004934701589055948,-0.08074058841922369,-0.2258634140679529,0.1021773137750185,0.246746407764603,-0.09276160294975046,-0.4337760377016451,-0.2714009034058093,-0.2385638153086182,-0.115566816405787,-0.3896150512083568,-0.01466757105394937,0.07453415967750349,-0.1322490558111088,-0.2327872186854157,-0.1034031853053092,0.02988147441698791,-0.04293847014698421,0.1173203597753213,0.3608167234409044,0.2609876957303543,0.2944969820180356,0.3031284559124691,0.1521733820042384,0.4807936326415563,0.3400793973757092,-0.4132420743612932,-0.3873898980312374,-0.4649034572255021,0.09442805453576376,-0.2234573156692533,-0.1293446899280689,0.07781211792216179,-0.1750096234615304,-0.1919302171014634,-0.1996671805000509,0.05812824617676903,-0.2192500244082292,0.07975056076757546,0.3603229469491462,0.9595455817731366,1.242360976831771,0.6167072682294487,0.5697276670400658,0.4001690437232635,0.2572496741874068,-0.3203962225466853,-0.9180495795615831,-0.8961267369077602,-0.2565149103319977,-0.3960432459330969,-0.1723096234311763,-0.1948435105191266,-0.4114258987742077,-0.4004439869729785,-0.4888215787883557,-0.2344907072938671,-0.2799284744119724
0.05915734361952803,0.05843995050570805,-0.1090954453927244,-0.04114026854883582,0.005534999573776412,0.1584627013072136,0.1667896481625875,0.4036836373133812,0.1897087724549242,0.2198554417410854,-0.1077107010040648,-0.251556291088,-0.1045674508556604,-0.1038949832976515,0.03102146886703236,-0.06390100564333245,-0.03812281497027066,-0.02176632293012205,0.1962302399318933,0.07641317585112908,-0.07888792509168378,-0.03135149363749374,-0.05464454832123818,-0.07066557685097295,-0.03716304610511209,0.1906629584753828,0.2887148039809281,0.2404861076710185,-0.03274321930375612,0.1244414495437425,-0.07661123139578802,-0.07667599014271595,-0.2113766168993487,-0.2796399556050464,-0.04245176644182681,-0.03150861606140879,0.1225532483252839,0.3443671512663057,0.3507978870562411,0.333445292147475,0.01177065505546832,-0.04382970027707953,0.02615016121622893,0.007724288004750806,0.2540331967259985,0.408769632857965,0.6256344760510226,0.3934490373806032,0.01251075474521096,0.2025166195102386,-0.2492825963181116,-0.2102309742494217,-0.1835981484799931,-0.2252288199826141,-0.1641919239397987,0.1534738066965952,0.2271883682425926,0.2506493479621646,0.2182535924778648,0.4125276496538253,0.002422639172844772,0.1667663973133326,0.2257769016317947,0.2858918293325394,0.4560873293549483,0.6554129502016224,0.7042502519800331,0.3501082201206251,0.03490990414012649,0.1131252712485074,-0.3787059597748897,-0.5460881098547933,-0.3458052179829342,-0.526084879984307,-0.352244186171944,0.008885100363924432,0.3157932772645816,0.3766768710088153,0.2755586478832737,0.3896097180634873,0.1161708058165577,0.128417692519572,0.1868014675470526,0.2689711558098974,0.4028233867296449,0.3979523503501635,0.5920703806948852,0.2002885686878699,0.2398519500545291,-0.2788310673929758,-0.2581498998439525,-0.3356941172897475,-0.3817071139109198,-0.6010236111253072,-0.4232585611199765,-0.1449620788268983,0.4569111682967164,0.6779878905757879,0.3699306102021791,0.19877065337617,0.1041788602539618,-0.02385277021536668,0.1009681766544896,0.2531828209987008,0.2302182726828346,0.4985605002403528,0.5529158505717164,-0.07168668229876229,-0.03607265290847375,-0.4789229630191069,-0.2870159322162917,-0.4172160567268883,-0.1035230852642929,-0.1341126606526191,-0.2273752044466801,-0.1409613201256752,0.1067881254339221,0.4218241947859943,0.3427649919194808,0.2866480859824547,-0.07275664391408812,0.115599571313895,-0.01245864789506299,0.2629598046793226,0.3724678918944541,0.3174466417637319,0.3147887317254424,0.1815599279171306,-0.06581658662058415,-0.5788861854050718,-0.5580013885298748,-0.1341055154727925,-0.2180999569386435,0.1992565107327294,-0.1029772712618576,-0.4224869043958694,-0.07173667358667406,0.7003574983949131,0.2679594275747742,-0.02814720440626424,-0.0487263591707671,0.01366334968835535,0.2053973092985443,0.0490749999278848,0.02489097026307691,0.0651076517568054,0.2069496872608734,0.1351498654816394,-0.3153339789636326,-0.7415184465432108,-0.3931376702677928,-0.01796928400631686,-0.1490449702826268,-0.2389883770706575,-0.0453674255176648,-0.06592588632094386,0.007904391159313458,0.4711130596023601,0.4104418155389802,-0.06920507818113938,0.3940971426582404,-0.04605304969079561,0.1383811607328138,0.1274425439817604,0.1359564784657819,0.1527168488655332,-0.01476578711654875,-0.3249254297041823,-0.1276421278984837,-0.5452180863903433,-0.6261343184865802,-0.3703892810850132,-0.6047714761806143,-0.09399144704829221,0.2815693646615274,0.1917383096431582,0.3751630394094115,0.6305325373047701,0.09679527307210103,0.03481344656046135,0.4842943278182699,0.003403712399013431,-0.1832750428897673,0.2266098526602469,-0.03289082226989115,0.2329011737994834,-0.1180639520233885,-0.1559573465947339,-0.1927720983584408,-0.5370638891794011,-0.1869591376733626,-0.01862084337708686,-0.06201300961351747,0.5967195996888085,0.1385558292821697,0.3545767085142471,0.3686748388506154,0.505290273248291,0.4139530920706223,0.2232494767638104,0.4310739417249885,0.3267354850892742,0.004319413501543649,-0.0176218120901342,-0.1636824180522453,0.2434131854273769,0.1783330311636819,0.223919767786336,0.2830659728256856,0.03956662637023368,0.2436436465197903,0.3727804738965755,0.2941328767535501,0.3193215775799831,-0.1878738270505601,-0.2450653388870946,-0.3096425359258989,0.02584017126488195,0.5747400514394906,0.1259568809327135,0.135317696450344,0.1629804511719103,-0.09552054046870635,0.3162141015460609,0.3269008178806047,0.02129877734833387,0.2109486568850133,0.256631706898536,0.1151908580999195,0.1015268641481458,0.3267214742226759,0.2663196026717276,-0.1921904145119064,-0.2147972612893292,-0.7055703094385353,-0.6116336429006776,-0.6921616167285078,0.2392975040685157,0.7696228609192549,0.2465626013518425,-0.0251368485689284,0.2383968596220103,0.2382978858926407,0.2549038623015586,-0.1449800495109446,0.0683538295460737,0.354727059235163,0.1956844621472947,-0.09645171369064232,-0.2649276702267102,0.1403553783167605,-0.05993241701023602,-0.2676139998402965,-0.5937768004150462,-0.3889302954137231,-0.6253643180756495,-0.5870980842689116,-0.05372531689397651,0.3320648782118171,-0.0261854960185019,0.06754059358560752,0.00588233251830417,0.009031003994983303,0.1292672488213347,-0.1766130039421386,0.1843906457833233,0.6112916015677377,0.1523602705989332,-0.1116256642469451,-0.3398113682563592,-0.1550400388259491,-0.2423628853786956,-0.602969405185792,-0.789566607018477,-0.5421127002783909,-0.5891232374159187,-0.08491720995617225,0.2043065201373305,0.2333180222807539,0.06522747308319134,0.01021805249281737,0.1355558009717353,-0.1393753622272005,0.344536328968548,-0.009143048132217101,0.477904463444553,0.4762404660833252,0.3298959449731175,0.1663250398349748,-0.3013116376346324,-0.08056432505933804,-0.1403646777619633,-0.5261206457497833,-0.5882447337523503,-0.7004378261334868,-0.1227362779296517,0.1182910165216762,0.08171462974309936,0.1703164987569455,0.3415155888621049,0.254937330194166,0.1221901960386202,-0.09794697294668223,0.241885158818706,0.1267325386183707,0.2320231944777308,0.1763947329591476,0.3854085042435103,0.00402065809443778,-0.1700411259670491,-0.07719672856085735,-0.3972275647048303,-0.595903791876163,-0.8427946228875768,-0.215339143797143,0.0911505727433399,-0.06494460862084156,-0.06788620525599028,0.1854473668927431,0.3159084148727295,0.08851338736221663,-0.05654932708429759,0.06294104072961534,0.1473800116361467,-0.1302097117065353,0.1953142733585836,0.258115297406626,0.2120123520740695,0.132742503554618,0.1907618393489419,0.4074433827435288,-0.2996151819293782,-0.5845218624731504,-0.3720097078069597,0.01327269654543296,0.1290428609026659,0.1157029218694614,0.2071410642892758,0.1166438971070187,0.2448349396538675,0.2066852143283945,-0.0419291006967189,0.03508664819255089,0.04909934009019109,-0.05499579447716602,0.1367424172619675,0.5617850862202933,0.2529733888141791,-0.172953846385411,0.3800410502349228,0.3663511471332175,0.1287995007345559,-0.2705973259656282,-0.3454151410702799,-0.001095194781708373,0.1443084285358801,0.05963656460399803,0.1928366313291148,0.3118149811587427,0.2478797691272286,-0.02614624332539219,-0.256648957996244,-0.1592609940300441,-0.009470632455032112,-0.1368503912583694,-0.10130435835552,0.1724563050632777,0.1227638674170864,0.1966636474113941,0.4228322183836319,0.4525862585015194,-0.1257159036622745,-0.160856098765031,-0.1074836212509586,-0.1001736151795617,0.08535571895213262,0.3400376554380237,0.3426147482823863,0.1625814489041998,-0.004228276049767824,-0.009107552877518375,-0.0287822658876908,-0.2241759235034403,-0.07505133765038868,-0.06914097984441946,-0.04023393877601281,0.3761869827167867,0.3874187915950843,0.5913251921452495,0.6484071196001077,0.3435007277776459,-0.08418759781644576,-0.1082675993368325,-0.0575337971703474,0.08560809102279739,0.1300238919456519,0.07383371118777192,0.07427814619666782,0.07786942068213584,-0.03092945778818929,-0.0733764447343065
