-0.214839085664563,-0.09429102323377231,0.06471604078760397,0.08836267052891938,0.06940741435321893,-0.01548784891294105,0.02783935312341366,-0.02186686127146906,0.06050884736772572,-0.02184329969084911,-0.01368414297680599,-0.08597685203313032,0.03242157530721699,-0.001509281501758303,-0.1003213838770698,-0.09517402375756472,-0.0740370635879037,-0.05966507279231063,-0.009606857778605106,-0.05337789886787278,-0.08923621640669437,-0.02904204379294983,-0.03418481719391401,-0.009588559557426624,-0.02905854271296241,0.08080645528546636,0.02009475971857981,0.05159691645513165,0.05368731188796073,-0.02863490282121103,0.02587545995131453,0.05717828157641084,-0.02134481805466999,-0.08823428697125754,0.04566437427624111,-0.00259836674844559,0.08165133866119784,0.09995557630057593,-0.01219573233789929,0.08267423927712901,0.08410287317967906,0.05228870380421994,0.09826519540832727,-0.05353926979671482,0.03701202946414595,-0.1059983812490954,-0.04430522810729704,0.03172306760744287,-0.04133567690949273,-0.03950226536999711,-0.03020250729254021,-0.0722855676456079,0.07866053286959608,-0.1044609451018114,-0.04997095932179087,-0.1435596638842226,-0.1139864335743459,0.02761762761402016,-0.06825936670636468,-0.008747592416367213,-0.05359884932283326,-0.08815172222291058,0.02707826060152833,-0.0346526853709286,-0.01290101855821237,-0.09607484967831344,-0.1513265753593775,-0.1115837245849449,-0.01284317755908491,-0.037697000696783,-0.06277915079008869,-0.1328389317382241,-0.1588337271141023,-0.1546903294244308,-0.1912369395543159,-0.2089827833650918,-0.1009806316752281,-0.01382281520765713,-0.06977419099797762,-0.09521503949587996,-0.09073412671340476,0.05789326579887185,0.04506930475302225,0.004490138506522428,0.0136397691447699,-0.144188361840721,-0.09031056032087385,-0.1435541238185032,-0.01898423689224447,-0.09231671472799463,-0.1046475126226912,-0.05552081658722132,-0.1776192349739001,-0.07666539937129166,-0.2618897209138134,-0.3543799798892786,-0.1658386674919403,0.06273531017440308,-0.01235536676937772,-0.03121298149942298,-0.04066666755602397,-0.07362891469019432,0.09619992101417932,0.006377212853016279,0.05601453564801432,-0.1719839857953872,-0.1705041798335061,-0.2599873100822903,-0.2385395803020854,-0.1626539174672447,-0.3581990124984631,-0.2026525586292719,-0.1081455331119813,0.05325927212110398,0.0420895628375431,-0.1782143628265811,-0.07577617101078105,-0.07462096634936498,-0.1875589487452452,-0.1589373772342802,-0.09073063661743236,-0.03181923485081029,0.09034009019803366,0.1062839246804919,0.04865601463929365,-0.1239108786542595,-0.2458352308005498,0.03726467301340559,-0.07265122411740077,-0.2082735367235472,-0.3476305134042849,-0.2228199074115767,0.09688660758999529,0.4756725535303346,0.7174718680698368,0.2446068846742846,-0.02487231447271494,-0.07975668072265139,-0.2198098301486287,-0.25395067735296,0.07672355379441159,0.05653017544559632,-0.02865622009011625,0.1238887379641569,0.03990255501985481,-0.1475241269735074,-0.1479241225620363,-0.1252073776241962,-0.3297312010161984,-0.5647032595954667,-0.4403285385633577,-0.2555382047908321,0.1369884807341991,0.8206769198748731,1.026640188509476,0.6970812770554131,0.2652046320910543,-0.1300119119334811,-0.265070480519043,-0.2109158146848246,-0.02498318108557936,0.05774574532881078,0.06737596399929981,0.2333141378843946,0.08536576312116764,0.05054752985132247,-0.1717395766785785,-0.2714048294469239,-0.3015540322670106,-0.4431188799142954,-0.3267834975512315,-0.2434644513151019,0.2317218895888912,0.7398720721772652,0.790970501521482,0.6488374578172144,0.2084802284167255,-0.1301434097090765,-0.3810087310690754,-0.1029467801316213,0.06307524046786622,0.01991212504309602,0.07801731554860732,0.1722968799047105,0.1213836514592118,-0.09043468100945581,-0.3254534171418572,-0.1876151727484405,-0.1068411970290238,-0.1865419750752239,0.1295671403613138,0.2256503177867234,0.5921553316279023,0.5990946608715741,0.4576466237719496,0.3238893369954848,0.2969791195194635,-0.185917016809469,-0.2747076233825718,-0.1771150588261169,0.05226098176322831,-0.07400757088206314,0.1785821678372063,0.1881489979336816,0.2127793472467167,-0.08260254544346625,-0.3601870952917477,-0.09912078161279794,0.1222351835152161,0.225222810874121,0.3660188553204928,0.7543119896888931,0.7300284604068571,0.2507942931644808,0.3454383193985911,0.2310817101268428,0.1162942331853524,-0.0870442471587585,-0.2973757437219051,-0.1488566077323648,-0.01012704253205284,0.03925636621547425,0.1981281239841505,0.3392596298115103,0.3033304841149474,-0.08353986742075904,-0.681652550131798,-0.6199216582698548,-0.4191944504943222,-0.08486670496894459,0.1542705766489892,0.04958485981972195,-0.1541557842042537,-0.5005089303855659,-0.1172338666558484,0.1134305016754353,0.1618590394684419,-0.0245465597674111,-0.1090916810863812,-0.1488407208575307,0.07033100346133001,0.04001230079504726,0.2035727008213485,0.389089371696162,0.5238427268936631,0.03095799050420006,-0.7824072417036335,-0.7796652707575199,-0.7596432146133966,-0.3424438323949274,-0.2988253771611729,-0.4692022263708454,-0.4748067455825648,-0.4499105629587854,-0.03711970956692833,0.1634535490109476,0.03974944593855895,0.01816325589024827,-0.1173225057950821,0.01344765866714609,-0.07027095375102803,-0.07775821327044188,0.1751184115322676,0.3094140042456124,0.4917551636838821,0.2673305357424381,-0.6098429260030854,-0.6783190142070993,-0.602300697894315,-0.3472039469453572,-0.2832704989043394,-0.5975131469676036,-0.4186178415446841,-0.3287231541817299,-0.00153878731038236,0.2268876914664195,0.1656788409932086,0.01459059923341148,-0.1316651337979411,-0.0674954441998657,0.02014601342242551,0.08765036640506209,0.03073869426943142,0.1656294198983068,0.3801514094048697,0.2228516612570296,-0.4738062133672766,-0.4558291230369056,-0.2909625641302837,-0.06697620483579717,0.007342056650980613,-0.07905928229184264,-0.1024199578080994,0.1023080296688035,0.1018697177638235,0.01930061366398268,-0.1531652574186724,-0.06995121206749799,0.03543127482431273,0.03599391940253223,0.05100559502742714,-0.02677813279875089,0.1062202568352942,0.0146468590782336,0.1016586160883485,-0.1115133183896614,-0.3193376623269256,-0.3661119792777066,-0.2392092961268441,0.0999909624084605,0.3031673003399613,0.180183646789018,0.2290788885423633,0.03697311416936201,-0.1685917848630095,-0.1722418383517148,-0.1804736150276613,-0.1312792082971563,-0.1821796958863693,0.02424400708236496,0.0578345437197788,-0.07156511042914192,0.07041475121729215,-0.02765644969497462,-0.1150809700253084,-0.08588702189620279,-0.2932378733342427,-0.2523561519689129,-0.03040368984010562,-0.01597622490791951,0.2427023817577707,0.2599578571596792,0.166609912895214,-0.05520284001390546,0.07690964680161766,-0.01824118941700986,0.02321724609318209,0.02460651682497703,0.03065307724547356,-0.05981910521436444,0.0872572291774435,0.09524498886184625,-0.004060789621859852,-0.1233787562417189,0.0241587841559289,-0.1397784072836246,-0.1533718425855436,-0.2198592287010787,-0.1088391668724875,0.08132954058845331,0.07354942702757823,0.1465599687886689,0.06155920052474723,0.05960025438484987,0.0499655978282229,0.03085854909218517,-0.059176120306552,-0.0687939137163666,-0.1040779067083261,0.06008009634024034,0.05156675076759996,0.007040130591287289,-0.02499290535809495,0.04107057698934818,-0.01704574459094482,-0.07802145248001849,-0.1222306142337143,-0.07261528372834564,-0.1003566127656434,-0.05057804315873057,0.09974117905394965,0.1134043536700333,-0.04075584543129253,0.10001742003765,0.09378686960995411,0.04574386019514539,0.04771474248036515,0.09572883068805307,0.08732924334310473,-0.09327394335226696,0.07366277427469121,-0.09595459022443986,0.02404987661765212,-0.001378907619702791,-0.06386361093966958,0.08670907514886905,-0.004701286981351139,-0.04309315956717875,0.01427340292384572,0.04106065306412371,0.07942723964738553,-0.1052969589058557,0.007723360695267409,0.04715066198737161,0.006733354522105908,-0.04669317717775438,-0.09896297218599318,-0.06523697049392427,-0.0147640912429997,0.01888619676827961,0.04904879607059151
0.2108676054335961,0.05889238270758269,-0.002578481920286641,0.008780418838492366,0.102086641746465,-0.0211433653963525,-0.04257899969928335,0.05450120920586671,0.09842998081256968,-0.04818569279132712,0.08223572788620793,0.02155766670157369,-0.01029566078173918,-0.08224339045943789,0.07071778503727558,-0.05339927804407853,-0.05336248150848385,0.01242309109323424,0.01573545541639814,0.05136952188111325,-0.03557211738197263,-0.003433034872100162,-0.05487451340381654,-0.06135982022519462,0.0381185562989242,-0.09507864430408063,0.0639834612234885,0.09588837902568802,0.04156633682252087,0.0003589112456166143,-0.02740382200721922,-0.01800063260320504,0.03869278452755059,-0.07290268081726374,0.03773138585929901,-0.09042060683045561,-0.0333427838291519,0.05240510455577341,-0.03307928661211783,-0.07040950625324796,0.09155688765947778,-0.06239495966186823,-0.001578409757380907,-0.00804016415935168,-0.08392328434648019,0.02632599564723409,0.1451604605533026,0.05693097781933316,0.08812167434829499,0.2204474937564804,0.124513434429141,0.06270355054376602,0.02028504511315246,-0.007540696339392663,0.04187530067850716,0.1455352115962044,0.03791344582424001,-0.03952340235123152,-0.03707059845741892,-0.05188114346341348,0.03781522390998925,0.08306220350061168,0.1010640377879624,0.008810201498178984,-0.03569015739522326,0.1873979241947708,0.2968758390577788,0.2564387171183274,0.1213740729796223,-0.08408296714770627,-0.1065245263354048,-0.03199398360296018,0.07239179854491315,0.2543644902674401,0.1368895315081742,0.262883822681993,0.2049015869721817,0.1162076980441431,0.06631123622299402,-0.0389407852186199,-0.04422744173236638,-0.04080370672839988,-0.0990911810871242,-0.08146887813814681,-0.001774137694939413,0.1979341287307515,0.3857511374590203,0.1641839732381851,-0.08082425586379005,-0.2584076532247957,-0.1698895877113757,-0.05007967327779797,0.1005523361056384,-0.2116550394704863,-0.0701326939998024,-0.01985936411019582,0.03346128327481905,0.1561106866958679,0.2734645159308242,0.09681871241050719,-0.07241336230821428,-0.09400060555298022,0.09873105925538313,0.06886495898234851,0.1173078040285011,0.2743408754843172,0.3611128339250351,0.1473045193796206,-0.177286466707954,-0.2196443335535267,-0.04819017273542425,-0.1971427092581261,-0.05745084245687833,-0.4103658260960228,-0.4879472213902879,-0.3215763370436678,-0.1452803475495637,0.1916586128411733,0.3661992882109154,0.1359778245004515,0.06198847892406746,-0.0675251385912654,-0.02400098924334856,-0.03100520445649678,0.0526814292405096,0.3099370805091591,-0.1436553067589257,-0.4011570470439247,-0.253763462694267,-0.137573979412864,0.1832193641235675,-0.008450347434922336,-0.2523813750520447,-0.4958641905979303,-0.789244272912544,-0.5629404507835903,-0.0279294798254975,0.1893844518861539,0.2581762345789284,0.1594059999039929,0.0769394317334109,0.01671386793473052,-0.09854148457103888,0.04045570961130733,0.2511342566253064,0.2652503233939773,0.007977369955164329,-0.2437911955405031,-0.5454871264497954,-0.3787060160488094,-0.1208260715983233,0.0135230209169575,-0.3379023903258974,-0.8202441300557931,-0.7935593652974225,-0.4367783267434284,-0.07572224728151342,0.1374521121779574,0.006432629936313342,0.3826653406404698,-0.01644286493797417,0.03141414580784414,-0.008452269391134149,0.09236272638625974,0.1390627996965962,-0.1800711599252158,-0.150702199614708,-0.3013712757945938,-0.6792104802565584,-0.5595560305819479,-0.5294233395521974,-0.3711047015868492,-0.2907469143830131,-0.5243395770761776,-0.5590048534558758,-0.4575056167628188,-0.01062984441368373,-0.2824856441165765,-0.009187552178997988,0.2194540417588914,-0.003358268069449281,-0.07923517022296184,0.05480640763675172,-0.01980940931046982,0.112608318263199,-0.4775871534482389,0.08875185831514851,-0.2018811906706328,-0.4918624517216185,-0.2329405402392635,-0.02051366640477274,0.02128753812587646,-0.1666148212949952,-0.1599086989952337,-0.1959202262133688,-0.285702908982189,-0.2192695826351906,-0.4018886973940648,0.1243564745472007,0.244417582193389,0.009995275972438669,-0.009077022977936344,-0.03031289250892883,0.08941706666015141,-0.08318991615904354,-0.4177077450743573,0.3104283722072236,0.2290617072739248,0.2953232479498497,0.42786255743615,0.266263842244755,0.06851410772514795,-0.2018525578504079,-0.1025477094605175,-0.0276304382387602,-0.1088893587053442,0.04176803586504277,0.07709144888918766,-0.09015460199651905,0.2275984921394011,-0.0179216644285697,-0.03042389209920654,0.06430725124107546,0.01411851265153201,-0.1070955560561549,-0.3746217254083344,0.3110608017932665,0.6515714853630528,0.7407002172764631,0.5894410324216417,0.5552682159141336,0.07958759304924064,0.04467218123520746,-0.07933087956712595,-0.1820279817639043,0.03641042055539401,0.09135835508762535,0.09143602349183551,-0.207974781144989,0.1041421534249764,0.126350778822767,0.05650421933261755,-0.03054301585431262,-0.03183779550241629,-0.2283822187101433,-0.2159746363846078,0.2580228803808187,0.2076166398042097,0.4663280416313825,0.7251746691765405,0.5496691853622775,0.1903608785656971,0.3127297349718163,0.03174793343557981,-0.07525216111464923,-0.1055945393544691,-0.07419748224754297,-0.2025228775484121,-0.1860528752200267,0.0148452156440439,0.06834544726176951,-0.06750641244042921,-0.03899479542173767,-0.0497138672878965,-0.09198620111032044,0.1247906916228106,0.264241144082032,0.03990995798773421,0.2636008206630911,0.4526303209292811,0.3449159849160313,0.35100559640784,0.3968247436305441,0.2604315091549129,-0.002625659660415617,-0.11752440684659,-0.2557704731252985,-0.3143770935992087,-0.2310502914126231,0.05648635090372105,0.105253504685656,0.001367574998489722,0.08892527244901063,0.03192823876474609,-0.2380770521469902,0.03288224248640167,0.1884571282440452,0.09561613010934178,0.07863958225775423,0.1141293610304537,-0.05693995164781743,0.4417758746016169,0.3177000558367963,-0.02910047111452201,0.0269508141586936,0.05151041660875769,-0.1756309791825916,-0.1069091309921211,-0.1752064547316541,0.04049359283382045,-0.0003062754693012512,-0.03425117166813257,0.07445166476504372,-0.04851027862944553,-0.1540848513673969,-0.1661344139072124,-0.02323290528721054,-0.02912065476747257,-0.05220985454156241,-0.1538730132901824,0.01281990886331887,0.1554719076654088,0.01582172105201737,-0.2648943230579445,-0.1808402503222959,-0.08426837900027878,-0.04041753651046209,-0.2061846757941696,-0.1122487388818225,0.03928628975773546,0.1155772983743082,0.09383838618161754,0.04504735445504079,0.07109063959854006,-0.04111969019153952,-0.1485873853440746,-0.2379714634561571,-0.197550263503414,-0.1521051870880683,-0.006560820156029571,-0.1973693452258046,-0.1454143863191695,0.02479369248099209,-0.1720930912041297,-0.3183387001107279,-0.2779120330662991,-0.1098266299723705,-0.1937477589773786,-0.02988163687798748,0.06062134381413857,-0.04443408610500817,0.04053435917187026,0.1008250610294627,-0.003146466243112659,-0.03989054915213341,-0.2170671382343542,-0.3693412309657356,-0.2617454556295738,-0.2324348156258375,-0.1233801412338264,-0.0549906696694861,-0.1549310961323707,-0.181469762725127,-0.2260942723123554,0.001860729606658231,-0.1727785412442154,-0.08371131943330658,-0.0125630644197591,-0.1010663407518374,-0.07032870303834392,-0.07924338168795969,0.02842366229670422,-0.0335048166856284,-0.03552912597328556,-3.389136601208455e-05,0.01911507909436482,0.01980302340638694,-0.1755666623806921,-0.09194901760026931,0.01173956511023449,-0.07263600609146947,0.09637691111775706,-0.03240672895812148,0.08230689824373628,-0.03120134040072925,-0.06638970132465875,0.09656880900478383,-0.04329784851773659,0.0746808401761659,0.01823040859206737,-0.03001827310318097,0.07001803360582298,-0.01569233172885436,-0.03264334469096,-0.02607517920006884,0.04544452459283527,-0.04755377241642656,-0.0708761139181949,0.005618721847365537,0.08024507012998412,0.06016985115789979,0.08830030743273307,-0.01079333868303205,-0.04856783182823678,0.07445446231134419,-0.05546462914551802,-0.07738956914786928,0.0421729582788589,0.08117998298252328,0.09530709870737668,0.0556815246729282
-0.1327305106527575,0.06739540271795663,0.04973532341524333,-0.03202177796141188,0.1014392669684763,-0.08954711802758343,0.05837095974817325,0.06709903025569472,0.07213942624081285,0.1018309796103905,0.03568224956302423,0.0231352227260781,0.03800132899560856,-0.06496372436090375,0.00607661808749702,0.04449859378533657,0.08911630375897527,0.05205413809878406,0.07729436202837053,-0.01568238763774385,0.0645051883910302,0.0207313307924544,0.1022720695962757,-0.07794479389046349,0.04824612353962711,0.06540486912588529,-0.03894928215412195,0.01163863526303347,-0.004452340445527195,-0.07818498021261572,0.03089404922977182,0.02186626622026362,0.03220861000483317,0.003833006541172305,0.08240003224708707,-0.00272770648666612,-0.09372331383392273,0.06030147992809656,0.05001959900958127,-0.07898526971799254,0.05865413976813073,0.08766374211412989,-0.004559475600849236,-0.0564525890463238,-0.07786366148126621,0.0838611016219893,-0.05861754774216484,-0.05058151480909884,0.1412709851539989,0.1734448958523538,0.02256680406018348,0.08645733434285355,0.02032937223038711,-0.1043124981200551,-0.03850601013576044,0.001901097252485111,0.07471597653226074,-0.02056072725586422,-0.0520591370047629,-0.04146266611947179,0.09507463561815786,0.0992986326020457,0.009433702266690009,0.05146752034505396,0.0318985536746267,0.0852008903181673,-0.01195730556838283,0.2016386423839198,0.1824747970834667,0.1888265095277909,0.1942034284239028,0.2588820903754256,0.2206097067152125,0.06739184818404045,-0.2553316179163383,-0.1628979628483838,-0.0776113827356794,0.05690512200070445,-0.1697764426653945,0.02779271443034646,-0.01025484160282389,0.02673328453974872,0.02170203702351018,0.09075470505495058,-0.02502259734883187,0.03569707000242789,0.151356273652077,0.2736142856089576,0.1387415914057726,-0.005597166843548385,0.1585995860656769,0.4386045059358344,0.5240535106486578,0.2341076734764625,-0.01926894843037939,-0.2556767593711851,-0.06071267639062871,0.08697320425749808,-0.1170026490944944,0.08400932349783231,-0.05139626732995313,0.07250765080884637,-0.05843778446681658,0.06124287951536661,-0.003706872830878083,0.2143591166478259,0.2746344723728173,0.2663797841543045,-0.0152933356732983,0.04098848194510139,-0.009198336548430275,0.4590871204277328,0.9331091622181497,0.4778873493734878,0.0222110905476274,-0.3619020309194434,-0.1753705597530066,0.08128008139849176,0.04483586263352151,-0.07586736004439942,0.07549603155531423,-0.07854936845137894,-0.06089907803070849,0.008891189271631666,0.1754294196236995,0.2203713530549638,0.198710503477992,0.1962438131121323,-0.04703747485493251,-0.1464683617724367,-0.2039331804313165,-0.04485377662042742,0.491005742680405,0.6616566251029218,0.3168503265938576,-0.1598037677125732,-0.2833396723906942,-0.03027390446583481,-0.07179364767483441,-0.06686635217193698,-0.04141048190515527,0.05163571866750099,-0.05066042708877766,0.09684888861323376,0.09420062364951955,0.04311342365363389,0.1720047019037794,0.2509865896187123,0.02330424809414283,-0.2745281413867485,-0.3117636152787024,-0.2680605363579163,-0.008829993381592394,0.4402886248158692,0.3423268884783126,0.06474369262576173,-0.1914751382383087,-0.01855767479980682,-0.148087834035166,-0.03114102569780239,-0.00871497429889685,0.01808974706395183,0.05534449296019901,0.1523424124156411,0.09385601422547121,-0.1065931326502339,0.02136281609400955,0.2163019007866162,0.1388748987679648,-0.2055205088436611,-0.5012068659948148,-0.4308954874084055,-0.07483144209578652,0.3293004366117855,0.448514079465556,0.2386470830788505,0.1255884790609329,-0.07243848461260979,-0.1152800229596285,-0.08214475664275431,-0.01838734253530623,0.05411825868791147,0.1035855781349472,0.01787610660547555,-0.01084616760431766,-0.2507031689153839,-0.1195678502299119,0.1529125052184337,-0.003676999006820266,-0.5301753985385462,-0.9421585819846834,-0.8099583288955863,-0.4427630037630986,0.3203732779162882,0.3499771473516419,0.3265973902277291,-0.008155889599777887,-0.07094985197087557,0.02256657995625852,0.08646770988723854,0.07471172637275271,-0.05354391447467748,-0.08843902148928116,-0.0005306255066539305,0.03096667622384857,-0.1444404325354391,-0.3875243953346391,-0.2161770189347291,-0.2500240772020612,-0.8577686317288949,-1.016741121199753,-0.6223611758316813,0.09130698845094588,0.3893821063037954,0.2107147707366332,0.07627784598017612,-0.03974291492966061,-0.1607043412643407,-0.02470463325586009,-0.01180512950841005,0.07856992700791457,0.09591060618169062,0.0942331424616592,-0.06797121731503784,-0.06006205521655358,-0.1051461365454921,-0.3052771255774609,-0.1322717600528047,0.0862552837881136,-0.1829608762482726,-0.3443835257105187,-0.1043899033770964,0.3475147742985217,0.2629247089694551,0.03678362148150315,0.1291805740818217,-0.1134886690526797,-0.1402732165461333,-0.06498210000226706,0.1497099597330726,0.035111948670106,-0.08582759477593585,-0.02637568470444231,-0.1006323908474696,-0.02520038695530771,-0.1423943858786918,-0.1441065201655518,0.2229756142292428,0.6959507691759176,0.2751493573445297,0.005682297218584619,0.1778956864975856,0.3393059622606807,0.1472298445728114,0.07738649242552414,0.09716916222451807,-0.3316280851437293,-0.2251161221934305,-0.2243522156780323,0.03285029142113954,0.01200248239837266,0.004448412080118674,-0.04445349785800266,-0.09444081377464213,-0.1745526537852866,-0.1407301319637086,-0.1791165039609046,0.0743491059764079,0.2501616365106713,0.2170042022905666,-0.001462977858125308,0.1987593929852105,0.3553206379126939,0.2446883832164504,-0.09824453626483223,-0.1527976265068064,-0.1345725219301299,-0.1427630127829513,-0.06802647580704611,0.02848532400806862,-0.07796772420537114,0.004177723306294512,0.08236026230165304,-0.02584349840540789,-0.07475719062523255,-0.0206126688938506,-0.3041353080928375,-0.07530025294195122,0.3282266102698879,0.3420858340520488,0.3648755718220855,0.3566815350208559,0.3958539342556868,0.2601674488762735,-0.01693637685424931,-0.09371679869886053,-0.04747038277118042,-0.06095140725901529,-0.09363952532578085,-0.09360059600293999,-0.01917977354960083,0.09465222375491517,-0.09249248006518528,-0.07884335507717782,0.001611974941539921,-0.0144155234611776,-0.06218291175178771,-0.05124603567267873,0.3817441985406551,0.5266392427328992,0.428504588830053,0.3327021898492631,0.2982250436540608,0.098720249171894,0.07066887697440234,0.0245695454766308,-0.02649923965422705,-0.09982040396557308,-0.07503060414060758,0.02203329903437519,0.08198695140842052,0.06273555959011595,0.02323009761576122,-0.009786947597385508,-0.01098330225742095,-0.08786847130170954,-0.2842982617303365,-0.06053106933901826,0.1612690512351257,0.4242795382131023,0.5293086761182426,0.2902856633917437,0.3409190088923028,0.3315433364453602,0.08101804545647595,0.09366345374639871,-0.1268300540332848,0.03695408027309494,-0.1174782358554483,0.04849317146217166,0.06109682435578226,-0.03210919152656228,0.09042618638511632,-0.01811183609390181,0.01655548346046111,-0.1628980846128595,-0.2914024269044136,-0.2680539482464806,0.02494895231593347,0.1737422039239411,0.1012403501998208,0.2419670025630694,0.09856755502224149,0.08947364295324953,0.1185972918440277,-0.04867264904433243,-0.01138406437658826,0.01875523750816717,0.04311459269224674,-0.0724074717082422,0.08280574817084681,-0.03931731925510027,0.05487493833042818,-0.1005355756154327,0.03234549999221454,-0.01406587052422256,-0.1046519924155305,-0.2197932319540016,-0.105207349088967,-0.02192627585538819,0.09119626706592501,-0.03144614977165257,0.1136385635234925,0.1244486396025065,0.02281270046728915,0.07835558139073655,0.07560866054412013,0.1007171502093522,0.09891724616843595,-0.03506989941242143,-0.07016307883517746,0.06615232108763255,-0.07416255205425075,-0.03064613439985156,-0.05103576276211823,0.0470492318908262,0.01786710748720736,-0.02764353827999094,-0.009223378022038941,-0.07233814331734004,-0.01315835612900218,-0.07190485920300103,0.08459218528870416,-0.04067581476800732,0.07745472463988867,-0.04653608732081533,0.04376503675431236,0.02884215601055548,0.05777800344683224,-0.00658867167815176,0.00357818974950712
-0.7466418283945562,-0.07878197333292315,0.008320682370507372,-0.01164740400867961,0.0573512428669835,-0.04212167217335404,-0.06955151180378845,-0.09832462865834095,0.005993479452237688,0.009316722558799258,-0.04392681116682959,0.01722323626422508,-0.007641210691162124,0.04580898637815609,-0.002336140541728991,0.07485012185013873,0.05469240631244193,-0.04502952452235499,-0.03618122155369796,0.1005311896358587,0.07321186375465764,-0.09660241787043602,-0.08379938342484761,-0.05633150147738669,0.0595025761109885,-0.06875468994824276,0.04608729496340007,0.07553396739423099,-0.09614365073568142,-0.07043517611026741,-0.06125729290735769,-0.03688961067589662,-0.03805388950799633,-0.08510359627619858,0.0807901258881018,-0.04121128768736229,0.0714537885593486,-0.07731520997324917,-0.007444640296779032,-0.08765586258670195,-0.0007722059575143564,0.1019171631009399,0.07384722750217339,0.06095723571364185,0.08635924824977022,0.01281909789468025,0.006309726374235746,0.01788772712176692,0.09249629177255379,0.1319616975367835,-0.02296253129066702,-0.0263457596002612,0.1059793733098866,0.02231029656217738,-0.03690705806744925,0.04959707674922528,0.05096595358875096,0.04209813713923419,0.08899234122084647,-0.01453124998319178,-0.05648642344820742,0.04192429555295796,0.0260429214238215,0.05584676609744958,0.05578045999342545,0.1123414062946664,0.1966373973631999,0.05512343413365881,0.07490154538850401,0.0639824739805738,0.1161380401746503,-0.0417720636828298,-0.03844059599976817,0.1016142329962431,-0.03134105161335529,0.1033395036924427,0.0498707098498948,0.05566614575100344,-0.06298853555214928,0.06753666191409702,-0.02675371169445168,0.03452771124488759,0.03624534626482084,0.05873557823618721,0.1479433861313141,0.2272413559965012,0.1552104893027987,0.1886269170172126,-0.01814638185782562,-0.00823946601631213,-0.2075561858899474,-0.2808911286355046,-0.120038413117657,-0.2062126432307959,-0.1689270671532382,0.1152056232809409,0.1513827107035395,0.09623911491555399,-0.063003196430522,-0.04789552539401969,0.0430585198143616,-0.08921909975570436,-0.03248273995114317,0.0967908694391327,0.00033701934822128,0.1038737960741784,0.1400302063673281,0.2041826625545534,0.06947605443405697,-0.2870008630465093,-0.1926685335769425,-0.1387189534739908,-0.103754442967808,-0.08995360908806281,-0.2692530713589893,-0.3827923174756964,0.09750393037505437,0.05281178466183579,-0.05345193052018668,0.1590856826000248,0.03398261916254362,-0.09786845028163003,-0.1048419243120709,-0.09361675477728662,0.06859589166955998,0.05310946594472394,-0.08002463188856343,0.02101646468372019,-0.1621038985825212,-0.06830580780510255,-0.2020323562747904,-0.4422704290941535,-0.1728354382404096,0.2161530776219103,-0.0880527372063043,-0.328388033922432,-0.09949442720768985,0.0129710541892866,0.03213238698485124,-0.006019995420806402,-0.01709173851387593,-0.04192461895675823,0.03222133147535678,0.07645904535647995,0.02768320110879532,-0.05746826475352491,0.06394953809045341,0.1143523854180764,-0.1366198127007346,-0.2004007044314133,-0.4341575191257302,-0.7609314074587278,-0.3010705812275972,-0.047768203971788,-0.1095975989733307,-0.3441838535975709,-0.05112998670577434,-0.04117347398781396,-0.009061726404737548,0.2145433415314598,-0.08095208559393037,0.05435825892930692,-0.1059310728177407,0.08728877008488219,0.1034902457911787,0.1270614200063226,0.06416017789223261,0.05845820747265126,-0.3385894633343433,-0.4640513637306651,-0.4243733896313612,-0.2211966651806852,0.1127336586991809,0.2344255533373295,-0.1424317836339122,-0.4314501716519141,-0.2414444940922116,-0.2478694602326143,-0.1210065527789338,0.05883869927963414,0.06806899590422258,-0.02341151824816104,-0.04643515526229869,0.04987434549612254,-0.02739436463256954,0.08590355941854061,0.2031448716780256,0.1192267070893676,-0.6791120049734007,-0.4891624275784525,-0.05401740633902122,0.3121993391047521,0.5557137507773808,0.5458152546360221,-0.006298634571996165,-0.3058578478092268,-0.1753355397569963,-0.05449915060028571,0.01000761695519979,0.03455925513051109,0.02591403485902725,0.0583773193370959,0.0466734415339245,-0.02414689225226173,0.03692850644066792,-0.07774547562151476,0.01114816405761472,-0.116105396477183,-0.3515759966537941,0.2474322738909415,0.5361652035043516,0.6153808475918531,0.5373961918839394,0.4572572317021543,-0.1164077078064133,-0.06038719207868332,-0.2259204695902328,-0.1153655188619978,-0.1310488460820002,0.07626351301543643,0.05503861861618671,0.0171375883322817,-0.1127451743980498,-0.1097078178693599,0.01313620513910757,-0.09494892738962718,-0.04424123622771454,-0.08057846822367172,0.2113258459048739,0.4777478702917293,0.6944622932582051,0.5141690512068781,0.6156526538356997,0.09336335025836309,0.03136019205106688,-0.110079185558256,-0.2181839916027411,-0.1214467450508272,0.02076330808178371,0.09455759423263842,0.1028256410699366,-0.02135598279056776,-0.0702062726266363,-0.1204451370863251,-0.007558611331162252,-0.1338007577669021,-0.06335751864397585,0.1288523148444182,0.3720962029247405,0.5781594703782633,0.3993954777927503,0.3897272168800666,0.4088284706590857,0.1729996491238517,-0.2313022355629055,-0.323742719134739,0.1164550963610876,0.1769375753282096,-0.02144986902323999,0.1752764516449841,-0.0624898025190204,-0.02885401803030865,-0.0159522477389277,-0.1710358771622688,-0.170859218996553,-0.07858996009613634,0.2559157779637387,0.2869082928688886,0.4636067768096337,0.6519544947593797,0.2902200340707498,0.154735980393908,0.09000081499240094,-0.1026936425928193,-0.4061262993335184,-0.1504435406798621,0.08027486113211472,0.01968064971328314,-0.07387987213573748,0.006472506188644484,-0.02376783188389734,-0.06596620951407368,0.05052980828181644,-0.02998975699984445,-0.1598810078907333,0.04210545867964609,0.1921428373767141,0.2744942078987647,0.6103635743893329,0.7925972149035088,0.2859623926152712,-0.09119027244686322,-0.2942492002980533,-0.4000740490526374,-0.1327982043807462,0.01759430702646743,0.1378806314728734,-0.02420745046743045,0.0710251943984179,0.06340533358199053,0.09797770246800648,0.067616946006042,0.004502308800050358,0.06552372397670221,-0.03180186978925947,-0.1226509160417155,-0.08836743148117508,0.08868627635743567,0.4622928774194315,0.4386662432359736,0.01659971979812023,-0.2513729446825614,-0.3289676678428077,-0.2544054482234347,-0.01557078892938847,0.004902656362094043,-0.07578661860033528,-0.08041464834635315,0.08845232461098167,-0.02429555471134105,-0.07949426599777212,-0.08900718542902492,-0.06418227409543943,-0.09821447850823448,-0.1657673310343881,-0.2250414068647635,-0.3478839304295926,-0.211568059131307,0.0575065794866088,0.0002035761564734687,-0.09921522385069249,-0.3738758704070087,-0.343933920883443,-0.1065783037798816,-0.1074624777899753,-0.09679464470628206,-0.07176437155167267,0.01355153035093995,0.08888533109675593,0.0300714293537469,0.05819615587271636,-0.02413706497892694,0.06872186137007687,0.02081680054244054,-0.08880669360124373,-0.1504629227294443,-0.3953686369753932,-0.5115662431377581,-0.242093973053727,-0.1269477485940361,-0.1529046532394289,-0.1718715726380365,-0.05076829765390221,0.08743735465889772,0.109840818381239,0.09918254706192946,0.04181450515740472,0.05813490981711238,0.02339953569522377,-0.0237314851105255,-0.09446451944653794,0.03920624876113592,0.01101977385608228,0.02185304408115381,0.07829588525278471,-0.01485175895856701,-0.1244037039881507,-0.2895307787416337,-0.1821529605174442,0.01080880795939474,-0.03992102197867294,0.06381402197335787,-0.04907094590146972,0.0569379055671249,0.09104112103994325,0.02900678228429011,-0.03878217321841771,0.1049112228208088,-0.03632618597865712,0.09647258970961829,-0.04967513924748006,0.01493683973884023,-0.0426605684062964,0.05319113345806014,0.03734244033997374,-0.009575222756691882,-0.08229375954814558,-0.1047681819883249,-0.03685713476788502,-0.03163965801912647,-0.03786067329112532,-0.08617404921553119,0.002388929320036002,-0.07008027892959358,0.005234763300941245,-0.04590418131140211,-0.03298094376155125,-0.02260153908093027,-0.05848388214922317,-0.01896846733791884,0.04708881445766406
-0.3528061824678561,0.04371083792487148,-0.04737223201124319,-0.04582360038472226,0.01997074925270228,-0.05155207713425448,0.09243174557180314,0.09854519052689562,-0.01750121685594773,-0.1017319848663676,-0.01938313822680137,-0.03393114060160648,-0.09446544522930325,-0.04127055705020024,0.0481878182863403,0.0185480747452496,0.09516396865937353,-0.06951843787005543,0.027888150066985,0.07571525227322436,-0.05453449573566394,-0.08697063002254635,0.03661889565023421,0.094196785952636,-0.09354019203467578,0.02384072234766942,0.08869571579064162,0.0216272115409632,-0.03384987299815741,-0.02349825591729218,-0.03052415482295915,0.03370901645082985,0.06741944440230789,0.01412896922335617,-0.04062355121354772,0.02025141093656853,-0.02785192343592604,0.0818404187563941,0.02594737928684835,-0.03113432458803181,0.01899547612701715,0.01039042149676496,0.01637784127819534,-0.03449918290214221,0.04750697188595449,-0.06328347878422878,0.009564054665807889,-0.04421773543039155,0.0233051998523181,-0.03543744854195729,-0.001048023270079831,0.01359115134201533,-0.01885358035892363,0.06085736748462943,-0.009251521672641649,-0.01932898032766556,-0.01666053916866572,0.08014352941018536,0.1012199302038563,0.01874998812455248,0.06078618047631425,-0.01710468237017061,-0.008206856162780942,0.09563786364495709,0.04429137531994844,-0.06618372623581049,0.02372106731558198,0.04292188297353591,-0.1289656299229468,-0.04220112826240628,-0.1924194640714108,-0.02019069168465835,0.02459552683319385,0.0003078287516972747,0.2170207548592907,0.2466173239400189,0.1156528327525698,0.02831761737710275,0.1565835149289411,0.008866027285344684,0.07345181494602609,0.06685612142034093,0.07406449206675941,-0.03289278349230654,0.04484194765403089,-0.03018548182235661,-0.01417729913118737,-0.09945589667955312,0.04575681248708564,-0.07875231285458822,-0.1228274855890707,-0.2410771074812848,-0.05382533395462667,0.2161828329210075,0.4079256753077661,0.330788471135703,0.3556322401771997,0.1257453715168066,-0.0009619210059080821,-0.09376171843322943,-0.08789037212238364,-0.01240276595474522,-0.03920566173678116,0.03648079823857589,-0.1187664918354647,-0.08587325120768462,-0.05255228730077433,0.04423755118611141,-0.01523357645986223,-0.09671059087596488,-0.08039899388198671,-0.1779175946767826,-0.3528606204599655,-0.01272572107669897,0.6318260238589789,0.8119513082510372,0.2855016648942427,0.05593880162941458,-0.1097621433957422,-0.1386617012925828,-0.0502573413240848,0.09244796907166275,0.09984002786161206,-0.07555415034037566,-0.1491541045755254,-0.02124878634296872,0.1336640243923605,0.1243380876739353,-0.04753738647588119,-0.191039045923723,0.002310715894128126,0.04551481440578305,-0.3106872289524171,-0.1573415215261638,0.3374812543248232,0.5163945194784856,0.3043771932072294,0.2108764179340051,0.1143799386627292,-0.1091237510905051,-0.03144877654681711,0.08277316426501737,-0.0187083719041582,-0.1597982579271203,-0.2304868954150592,0.03361240083083458,0.1765522803121132,-0.07688352663920467,0.07936610777922663,-0.01816575577968913,0.2321203635602809,0.4573485864399635,0.2503348082773007,-0.04623084441988488,-0.0301194678895817,0.2696210999912784,0.2180700757695636,0.3525428107887302,0.1612201521413758,-0.1517904422725448,0.05721178580940891,0.01275308386837894,-0.07235751844829685,0.04593149341049154,-0.09066395801645477,0.1558533964365445,0.1631111405015139,0.07811131631772625,0.09081464417541284,0.3111631053710849,0.4078926982897336,0.3929844824064065,0.0579615242676182,-0.4157837589083922,-0.4593011782506499,-0.1085775407690641,0.1225478145141484,0.6794031730507319,0.2590517818719156,0.0327208663121242,0.05973252276680452,-0.09967614694033008,-0.08175090397171624,0.08605900716057228,0.1864961697993502,0.3868517548656616,0.2081341821239994,-0.02903148897364952,0.2025687071199543,0.1520962558741689,0.4567269490121117,0.2129932173773293,-0.117059515013437,-0.7689466390876465,-0.5237255334525078,-0.2936340987699367,0.1991833050569009,0.5797329256105428,0.2822946607375901,-0.02255696806095998,-0.008228628388834473,-0.0514083408805877,-0.08958123586366419,-0.05987745720430125,0.1680522897022399,0.3600278379733396,0.09578888501026986,0.1338167201928026,0.1273982143109113,-0.004490410503898641,0.178404676568586,-0.2876713754923173,-0.5948906468772315,-0.7891558533578028,-0.3020948231308758,-0.2216648374816618,0.02786128994232633,0.4254795343785159,0.2343545221239893,-0.139230917113998,-0.01651508950272891,-0.09319227997906614,-0.03968008241936848,-0.01189958485075247,0.3300786055418911,0.2991067858454904,0.05306737561669088,0.1018478707130182,-0.01572208193662876,-0.3692140525257129,-0.264958689188772,-0.5199675750301249,-0.6997125892376753,-0.2774149848758323,-0.007050169004181969,-0.2928783369963584,-0.06360320569044747,0.373301115806385,0.3142902483421285,-0.01272984343221082,0.002851156873244537,0.077429444043182,-0.08116906022860154,-0.04712535683636263,0.1306287270472672,0.2961231254875268,0.1654628353492114,0.3819316925560483,0.01375945036061358,-0.4157041854840338,-0.4906173864713166,-0.5246068481591225,-0.4738875622984971,-0.08364763908657974,-0.01041024934617504,0.02371482965384001,0.08270738074959055,0.2550455356990184,0.09511802135780262,0.04399149155552177,-0.1026926776756235,-0.09894158692951818,-0.03705255779000047,-0.1613877562002783,0.002216796886892839,0.07753007347405655,0.1626796394526915,0.4451152823836956,0.1522662999966592,-0.1637688761087811,-0.4522554542215352,-0.3533189252450593,-0.2687844799816768,-0.04562491469016482,0.123689941654172,0.02512056685928827,0.08557083664305087,0.07811285387134553,0.03075642047638858,-0.07671620643144668,-0.03321639202507438,0.08507623403259479,0.07662894131048742,-0.1738295931032941,-0.2473820993079647,0.1095484208215054,0.1946784047096428,0.412797669901023,0.07725515911188248,-0.2901308237501974,-0.5992485599190334,-0.4104893547826588,-0.05336044462610512,-0.1290572866584236,0.1022102079891562,0.1212839083817696,-0.05444433618879338,0.03271661567232123,-0.08096724248242772,-0.01591672822416606,-0.08674908622181011,-0.08830731271503713,0.04295056120658539,-0.05578935880785368,-0.0429883457760982,0.1934469215405714,0.3234184403103288,0.4688327646671687,0.09939608167814767,-0.212725074182831,-0.2205131731364142,-0.275036007158062,-0.007631401585040148,0.0958737026780721,0.05668157706426052,0.1074116993384905,0.09657380927765181,0.07283023805830904,0.1002849076228918,-0.1221945292944615,-0.09247585221953114,0.05389124018349687,0.04259547804539368,0.006052379595201666,-0.05375638341433999,0.1082725135316108,0.3871358965412835,0.6763765247551141,0.2686750331610416,0.07028763026916705,0.03261131996766539,0.0779827391670188,-0.1033088697739822,-0.07053814396577765,0.04253841900749904,0.03923034951572869,-0.04519715140438785,-0.07465054913194717,0.06799680435584489,0.01973829391933152,-0.0935087147093501,-0.07026023442670933,-0.007947787807349805,-0.07414937212005754,-0.03501194136397635,0.1234494371344684,0.362192478986055,0.6304241826829317,0.2876980409368273,0.1327243493694063,-0.08302882044201877,0.0809731261282631,0.09181877739981206,-0.01170120267289932,-0.1278301415411416,-0.03820491123985612,-0.01453991498616673,-0.07588946734889768,-0.1047697775689221,0.06618254151136807,0.08265715656660694,0.07504201740400399,0.06626856862516893,0.08143731715261693,-0.04672639719302445,-0.006163055679567223,0.197689627266276,0.2036570895377466,0.1200153212583624,-0.05296255759755527,0.01960354456393154,0.05498613609266925,0.05960062013744232,0.02547161345307066,-0.02103818084864983,0.06494259217263235,-0.005122339974105886,0.07893636760811357,0.02386532908438672,-0.09226471178568128,0.09183231808770351,-0.0629739224155809,-0.01903520818303431,-0.0830793036197625,0.09709909675300429,0.07616983927359,-0.004377303044264954,-0.06575835766016866,-0.06365655402012904,0.06433055583717415,0.05236938736933212,-0.06823884958382685,-0.01667238905139412,-0.09113759741539736,0.03427383439341022,0.02840363172726329,0.003509448474097294,-0.04901523587839254,0.05910701763314489,0.0388186883516566,0.01449998942606654
-0.4873178835791298,-0.09653154762811521,0.004960919968808982,-0.05120777642188939,0.02220218525226326,-0.01259779486088365,0.05932560097315295,0.02131057675502651,-0.04342486234477949,-0.1008960930857609,-0.02779199384853472,0.06229594154911607,0.0541754333479825,-0.02914530541038909,0.06355711867757785,-0.04453764225349969,-0.1004835336365413,-0.09454185330081907,0.07661735170266762,-0.0434922090458642,0.06183311710801458,0.01193826052927676,-0.08748912437538692,-0.07184013052745886,0.05968615534494204,0.07342345240999953,0.09938700869817482,-0.02123616199045042,-0.03704502808234041,0.03326369154335984,-0.09095137414425546,-0.09134910632927755,0.01364038764525526,-0.04761962775345056,0.02727911377436407,-0.08669902547681885,-0.0433735180879407,-0.06407588649241362,0.03251880218139239,-0.003768622091923917,-0.08891942669046453,-0.03504095161016601,0.02174149518961503,-0.08385941363692354,0.03080253018880324,-0.01325603076236518,-0.03788335427334132,0.004329290088281666,0.02618493648969788,-0.04898120039058543,-0.05584938334991646,0.04942403043050106,0.1056071250238729,0.1607409260737942,0.07072265962300417,0.1034688219134764,-0.0521758298553133,-0.007362232422505776,-0.003010509216999024,0.09838023276565935,0.03745786599848606,-0.06923258381358657,-0.0127905692483464,0.08119271766550851,-0.005317347457461944,0.1172610800736823,0.1382975217411538,0.01753656308414209,0.130851591603505,-0.003959586827054168,-0.164514250418928,-0.2045171185491894,0.0190006357336247,0.08550181362903958,0.400713120925384,0.30998220623845,0.09442543498171367,0.06432656054986681,-0.0064774935521404,-0.07479367932947967,0.0007701107454551105,-0.06749326397836171,-0.09049847998970015,0.09228056927658973,0.1164121615411192,0.009561108311293526,0.1469318273625381,0.030232908094145,0.1067815938384379,-0.3202876751941743,-0.3578927465106377,-0.3462573339048934,-0.3070887721070161,0.208717280697247,0.3524307440627419,0.3553316331592186,0.4260590000644716,0.1554630851403474,-0.04635025691417691,0.01705508440045525,-0.01076235288679006,0.09226995198225352,0.05694972479576154,0.08301752886660674,0.08793697288378474,0.1740894167286957,0.1890688186007,0.1828955304200785,0.06171716401465156,-0.3142643688690647,-0.4674681238173163,-0.4942347737903395,-0.3149642205193216,-0.1114709226904463,0.327731315617025,0.4677664533881644,0.2924909376047363,0.06127668131546743,-0.05523048681161991,0.0005206951752677992,-0.03368797985125512,-0.102921006432584,0.05578604449613005,-0.03165243008917745,0.03036674487181316,0.1664239523136026,0.1919251945124337,0.1630563406682477,0.05363852889498125,-0.4576347134450762,-0.4321571551737199,-0.2606651798590184,-0.2618682325293933,-0.3808076340125576,0.1850684618127907,0.5195751248587793,0.3402133544662784,0.1296659257357278,-0.1878571924848649,-0.09485532973443705,0.02260820964216663,-0.09376453851072029,0.006730739406719042,0.08645361827093441,-0.04036429128449232,0.0566615119171136,0.1661502333013917,0.2586751808911684,-0.1552396118044024,-0.4873909583983146,-0.4296232486238863,-0.2120683194383821,-0.2596115576331113,-0.1976892622135775,0.1648751842626365,0.4289916720211894,0.2905133001632478,0.2836659530013311,0.03658437053561894,0.01099343572442183,0.04613244601234882,-0.06534139302749695,-0.01806159977032184,0.1271900616718486,0.2179110289906461,0.1788714907341671,0.1447204265520957,0.1481792342928836,-0.3855839027255972,-0.5433304699968692,-0.2848739968404618,0.04359791574984053,0.038799409927557,0.0005954799883085192,0.09460621726262017,0.4166975661923938,0.4213315128353008,0.3000349802594034,0.05256470856495762,0.124510597280009,-0.03317840465253478,-0.09978681038898768,0.02770339049697458,0.1341475295005659,0.2962317127732297,0.3142418258691104,0.09589886656728351,0.1449827414319684,-0.1614503648538794,-0.1818448029221996,0.1137487980573815,0.3915989368140011,0.2475565609442799,-0.08319297400969766,0.03867508064477168,0.2190716864596237,0.2780956840312677,0.426611887207013,0.3159809771515287,-0.001639067812862224,-0.01168128207059742,0.002957712138231123,0.06630866872234853,0.1263619994651133,0.4673017097979562,0.2860591095378509,0.04301811039239015,0.3975170433957861,0.2571665737268705,0.220421046761113,0.1753508914975052,0.2525097437292372,0.0934008985906612,-0.3033139069959262,-0.1590203033019078,-0.09944138657433139,0.01472041170604044,0.2839565949538118,0.2166748954651636,-0.08188163601343598,0.01530210637513465,0.09119391108068825,0.1020063388041785,0.1495705413539747,0.329147579709939,0.1828496665456001,-0.007477861304515424,0.1375332957285814,0.135292174995596,-0.1328471367227087,-0.3141847399341059,-0.1349709059332356,-0.381434643805577,-0.2813818870747085,-0.1677078654523668,-0.1218268920823362,0.1250760826215556,0.1854132301950165,0.1364517297822382,-0.06850123022764172,-0.005725713377422668,0.006272453985825321,-0.003239340591083547,0.031442044258254,0.3405278238681744,0.2433345078778012,-0.03766215825338536,0.2686774649290508,0.06169704962451973,-0.329636923756976,-0.4086749771111252,-0.2166926363110415,-0.2752096003360072,-0.2412078752750935,0.03822392883803476,0.05203719984874566,0.1789174628709378,0.1483275274521376,0.009274313222500767,-0.04145264588706885,-0.01932871348149673,0.09985671146696683,0.07895454168712832,-0.02762298541049908,0.2647441254523334,0.1438219405386806,0.2289971013137649,0.2282473022596954,0.1016809007530118,-0.0427800092805554,-0.09771186768481384,-0.2856869456412329,-0.1094353973633039,0.01988866610399801,0.03964156894504264,0.1724110354420085,0.2485856268253308,0.1025645957163539,0.06508305463877874,-0.1097555191064628,-0.1027134336786238,-0.09114984844184038,-0.002303735531054942,-0.05113404781027635,-0.1233251012866006,-0.01997940574149409,0.09340654928034695,0.2938300585351674,0.1547895627209495,0.03716207732528205,-0.2368187924451252,-0.392647649314009,-0.1771353881666535,0.02594252197336571,0.01582135051583015,0.1169876864351871,0.00833729211159101,-0.09426563997896475,0.009619159417194255,-0.1054488558706829,-0.02719132181572719,-0.04908974759583735,-0.02606143232042261,-0.01936766847197973,-0.09779404863435817,-0.05844156145107938,-0.03703541319994541,0.2848786342454194,0.2653395765938237,-0.02279719803975058,-0.09493673510432446,-0.2878240670225087,-0.008425287697359219,0.2411814564727674,0.2600757438884203,0.3042968743019644,0.167972636584442,0.01286259983639415,-0.1444673571298852,0.03490618631795647,-0.0408360400214831,0.01342204272163684,-0.03159753048220217,0.07796487396876635,-0.1736464662477135,-0.08604205041005492,0.1136293892555995,0.3380116313142403,0.3092336172428946,-0.03353945332764337,0.02565129446958716,-0.2324631287718996,-0.001795543178974462,0.1212331308898661,0.2087648455941001,0.1232187877369117,0.05121695045076324,-0.01977701422598628,-0.02789031653150173,-0.01163342972284564,0.07563156715716454,-0.04423333494957655,0.007294546133005616,0.06452537389031149,-0.06854334614250016,-0.04421574072305375,-0.08065355880319644,0.1846896401688243,0.202017147980216,0.05136354352644814,0.02765852494755282,-0.1011451965173609,0.08567131262194676,0.09920362452123223,0.2296756341081181,0.1209535868479217,0.0885114643075447,0.08725154066453567,-0.02571971792179437,-0.06609870550055255,-0.00791704865575733,0.04089615363563057,-0.0565438126774,-0.07665940875151524,0.05681980896602114,-0.05642307798885554,-0.01649222012356936,-0.02299693662544654,0.01311713577585528,0.105304594428401,-0.05062644344945008,-0.02997648923520855,0.1051744086465351,0.1289741958665498,0.004539006864434963,0.0696940124876482,-0.08678328654102184,-0.02817336615573488,0.05035993560485388,-0.05769768993400889,-0.07828078657519835,0.02848796115690665,0.04112051681813608,0.05738783374475818,0.01815286110836813,-0.04751532439692104,0.03525618057750113,-0.08713647736151073,-0.05815172720810879,0.02372270930540391,0.05296378083999608,0.07051886542133809,-0.06442719095099102,0.02195740440480062,-0.1017858478832093,0.02492704561491639,0.02192194948550875,0.03430085262449872,0.05714642017452713,0.04870110360051022,0.03290499557006739
-0.5550847767367686,-0.05853055684721355,-0.08399004181568286,0.01801013447623586,0.01195402527061244,0.06186199706763246,0.0645685103029958,-0.06183043639429547,-0.01443584415378399,-0.05896471578149919,0.05199077473874403,0.04038929057925628,0.04035422249679139,-0.07080454367403616,-0.03867712767456039,-0.09846953981207257,-0.08822290073156215,-0.07131499769532722,0.09902248523437733,-0.02359380607970336,-0.03404061889198048,-0.03290108498779468,-0.07220898705254158,0.08113434826424031,0.09945403720426484,-0.01618047060882818,0.07989449145046561,0.07341948392394014,0.1094501292919352,-0.04796405220486467,-0.01496725543836407,0.05165148858832627,0.09926184300436335,0.03700044224118437,-0.0179148786019223,-0.09478602144498793,-0.04639041041332472,0.01610460459349794,0.03510406676471116,0.04509059288055296,0.06679611705806304,0.07730549730171501,-0.0605087635946284,0.03354095600179462,0.09812083621683614,-0.01138861225416586,0.1031780663675998,0.07845512522828292,0.2301596966383686,0.1211297012461807,0.04303765995447933,-0.005241911091206793,0.07938182540892331,0.1914761228226208,0.1046267346728915,0.1131422501177936,0.1112965718153096,0.06835242886511271,0.1416770829066965,-0.01524588268697198,0.07236123909762382,-0.01063448476192157,0.002610776194041819,-0.003741603675071592,-0.04538340141246369,0.1586912210845373,0.3570916674968916,0.3898449751469162,0.2806510852224646,-0.1093291990251856,-0.3296735123470954,-0.2372477398488856,-0.2365520433217639,0.1074884003389503,0.3487982449595476,0.410552072358909,0.1004446932250702,-0.005899510064523967,0.113658026597622,0.02757989680780239,0.07307730515593225,0.09889320150655974,0.02474477903101426,-0.04489639134939089,0.05060618050110948,0.4485786980743187,0.4145955610140558,0.3307372779066516,-0.01376358081225867,-0.5521748262600568,-0.9703406478985427,-0.8890329089972823,-0.3847278801747645,-0.1702303947889093,-0.05534826942884,0.1881562293759448,0.265524029472967,0.2180196460681988,0.21820977935902,0.01328905122037394,0.09580229576138914,-0.004887217990006817,-0.1024918167659401,0.09085769019716537,0.2001933998078878,0.4013443506838049,0.3218766466378072,0.2076352673526339,0.04973039887330619,-0.5932137041592773,-0.8932629700870719,-0.8903996734849111,-0.3285111766769394,-0.02241842542586274,-0.2752920971324316,-0.2376928876877393,0.173122177847408,0.2002003714593257,0.2908666089920676,0.1407871991476909,-0.06261681338002957,-0.0167429687445492,-0.02661058423120011,0.09066679161541247,0.3776147120345552,0.34133520148421,-0.07401978339864734,0.06154771136743918,-0.1778439695667322,-0.5674140535624799,-0.8483115127680703,-0.4481594721545729,-0.3105353049169176,-0.1467030975501926,-0.1000773454005176,-0.07839128626415956,0.1342695695794048,0.1047088562573488,0.155641532210227,0.1741139871426673,-0.004868549579550046,0.1029677358149757,0.03067845270011003,0.03935503867256155,0.4048456181616277,0.2935626911454755,-0.0795132834945641,0.1767153185418621,-0.4590732770678645,-0.7823504075947696,-0.7457567107640922,-0.3955447531273428,-0.5145778209948282,-0.3125817573598779,-0.1987068313606886,0.09299818639644079,-0.04810901912387326,-0.02993156687463853,0.08223816060989581,0.2709572965610512,0.05530109634630712,-0.04957030199900192,-0.06981541351265964,0.2426414482345653,0.4236571476615092,0.1629930020557433,0.1334033571959589,0.1206901867849268,-0.5119051527454722,-0.8760681079828465,-0.8426606059168948,-0.4584019055808184,0.007573820651659362,-0.1415655642641125,-0.03503462670962611,-0.1226991724922291,-0.02646902856964495,-0.2169712608785976,0.08203446347411572,0.4831551069540332,0.1613336784828111,0.01103671118464365,-0.1219546168531388,0.2934930103639404,0.4985855500910925,0.03871705679783015,0.154709183756756,0.2144886804433239,-0.2198648490477063,-0.4972316734833729,-0.4927457817501781,-0.170831119558242,0.08896943129344709,0.0906788265891169,0.03868102274422718,-0.04233094710971826,-0.02410784147323432,-0.1386061893975674,0.2300944266360434,0.2373351555568805,0.138145652205048,-0.0774177088336936,-0.03738877498663429,0.09717963419576782,0.3359805065863876,0.01850015722739995,0.0145489504512744,0.3391640141426133,0.5002299491778901,0.2530012265431096,0.06882049910231869,0.1114095719247366,0.1900210164352642,0.1055046143262628,0.1156119646964391,0.2179540700871522,-0.005804140270088331,-0.05400250213456712,0.1859868536844203,0.008307691165388136,0.08871699475865567,-0.05704689307299884,0.006734852473146286,0.1752458727857449,0.1779399216409015,-0.06905579856545078,-0.2288958757339446,0.5261208416183418,0.7738806796070303,0.2862558932690915,0.1186921346276385,0.1222556073812422,0.06636518455410077,0.06297078645568102,0.2123213235704264,0.1578273090701627,0.1572427902685159,0.112429153203297,0.09906256011183656,0.05593019046932581,0.1490819439680013,-0.06118608666700857,0.06382708880896583,0.0426436166987951,0.06115204771558409,-0.1388465239044843,-0.1687397450995345,0.2634004162408032,0.29344267230445,-0.01361971303289445,-0.06589724376408508,0.006907691428432041,0.2963158845687109,-0.0008435000756761433,0.09583810055246034,0.1964494514270781,0.1002016036054827,-0.08409536743248006,-0.2056090914498818,-0.04264303830270463,0.1605156311059443,-0.04100845159711942,0.06505835660804551,0.04268680376651037,-0.07040000748146194,-0.03491811409749171,0.2540353630451591,0.3465899598649565,0.2945203600429912,0.1580294893326754,-0.1383822875068658,0.04654851209367925,0.3659622337494648,0.1296087169311004,-0.1212170839382355,0.1841013655058238,0.07946780253070941,-0.1556535295950975,-0.161206064149419,-0.03688110503504703,0.02718892240103364,0.03990274703414544,-0.0536153135893898,-0.009420311721788427,-0.3036607317112848,-0.1291746666243912,0.3156094206220121,0.4641475233210899,0.3911723431409721,0.2043602339751205,-0.135864593400576,0.1332679565517808,0.1323371238897063,0.0218526723437963,-0.03662016922310386,0.2122819988697826,-0.01485754149220987,-0.1608849728406865,-0.2632250593358581,-0.1041036948733629,0.07719775102922989,0.0780986953098546,-0.006086560298568534,-0.1188882656495538,-0.2108961552384807,-0.4883270517874175,-0.2322746909959301,0.02953654178907269,0.07119509869078257,-0.1410114653454129,-0.195166644775225,-0.1333292007101927,0.1711967585567336,0.2132032017860725,0.3654405406963465,0.2214446394531323,0.1769471366617726,-0.1393766977598324,-0.1054553115339697,-0.1432754750520987,-0.1018405409580938,-0.08574942478138746,0.05677883301905868,-0.09268082924957856,-0.1142758533242523,-0.3564063796689883,-0.5554671790941033,-0.3809779043989375,-0.1858841723285756,-0.1890536682055773,-0.2240265347156365,-0.208720731052291,-0.04955739090537477,0.2178039050169654,0.2570680950231559,0.24332844592807,0.03784363171195539,0.03182332680669919,-0.09732738728510702,-0.06907018156249958,0.004407898018479906,-0.05914419897658413,0.0704661450295586,-0.04429509700021162,-0.1247422527806347,-0.3720205929237256,-0.6074290887366921,-0.5295727935802956,-0.2061817426578532,-0.02049221363339868,-0.04614992457184873,-0.128093532394857,-0.120546844505083,0.2271136502909343,0.2673526433158205,0.157026122776535,-0.08241013140551794,0.01670336743776864,-0.009325972314464403,0.0340917937088461,0.01188170113488392,0.03039366259821539,-0.06003851815626845,-0.03906495981183905,-0.04331715382963131,0.04346847009171326,-0.09578045513572803,-0.1979176797466184,-0.01312347059011949,0.05780950446870005,0.07360165092924696,-0.06723766426424239,0.10922838928555,0.1884630554887248,-0.004724076862417544,-0.01212161733214264,-0.05884211671658876,0.06007847010911845,0.09289495145864696,0.06686571966180443,0.02348233665336216,0.02668598611579718,0.08819423742208543,-0.0124672927895075,-0.09220855177946052,-0.03740144894458506,0.02515704732351208,-0.08018248634202958,0.03799586704994309,0.06644269291021557,-0.05649625984033289,0.01603439617336003,0.09629060299183628,-0.04201795779658537,0.05399383907665701,0.07327554078182429,0.06585977028379089,-0.06388169862125063,-0.0255838601866284,0.03183916054692815,-0.08013849934994682
-0.269904597056561,-0.08287102260413665,-0.0909333479847861,0.03202169083855808,-0.009599071053023571,0.005333841818873588,-0.08066441660082671,0.02473685455978976,0.009452834460654506,0.007520759454780225,0.02454378627767684,-0.05028992741734819,-0.09170229463255046,-0.06841955917370442,0.04750621764921861,0.003108956536874256,0.02970078630514543,-0.05792658831114248,-0.07352497518606643,-0.01617719504114794,-0.07991870687259292,0.0388045414890466,0.05389967232302277,0.03652647891111983,0.0450055960678702,0.002999893356283068,0.06474230882308689,0.02237070782839999,0.02805176384494484,0.001752763418628145,-0.06056852621804969,-0.06080962493132348,-0.05976325652468847,-0.07991205843767003,0.08384034707692997,-0.04525601265781156,-0.07374470525489504,-0.09762531089686499,0.008581833371331862,0.07744787223373856,-0.03425815183968886,0.03952699539667437,-0.09398753895862576,0.004377807708867033,-0.02373374295643285,0.07488730304512661,-0.01925694156338561,-0.01278366763877323,-0.01829033653907679,0.01136429023220697,0.02021401002222864,0.09060090042029302,-0.02294361057288952,0.1239528837322359,0.140351914724926,-0.04061860482102855,0.1141974385461917,-0.05818470836784387,-0.04868694974622888,-0.04377455826934998,0.10093993445932,-0.07719892846620031,-0.005407699321034165,0.04401687697620381,0.1016937809526623,0.1240548583453417,0.1460899801107856,0.05694973169314979,-0.19605780435057,-0.1549104770813782,-0.2996119735301912,-0.1704969097381158,0.1506698128604398,0.2034751281844074,0.4148086234896108,0.3602533528800039,0.1241797438761604,-0.06565869882993759,-0.1227755079572918,-0.1057291878416652,4.459968134648966e-06,0.1015597725079211,0.03821252407827611,0.01942579966872211,0.05610896907303647,0.04711935589216894,0.2151782245645775,-0.05824094044984061,-0.3891702050284958,-0.5242442077154577,-0.5223821320761488,-0.08829374335529468,0.1774713810395159,0.4070408209765451,0.6605199769179462,0.4509226374782753,0.2170355259715788,0.2040076900889378,-0.04875283365252214,-0.0863013608582829,0.02114488529347433,0.03750362058653848,0.05532725229921391,0.09095909967077148,0.08363749971516345,0.08271514322306685,0.04498497137903,-0.1315523730895974,-0.451596899594139,-0.6145721710280566,-0.500921209717254,-0.149110752225411,0.2488854968300293,0.2835553093607757,0.5886410203170832,0.4560225130947063,0.2943867911474172,0.1185928504501224,-0.1743069145165302,-0.2652406382038442,-0.08879023030811116,-0.07586595795682324,0.02467891763939785,-0.02073317573914768,0.02411520065657992,0.05113005545229293,-0.05509651417094592,-0.166190598182529,-0.4101996358658934,-0.5302520764964853,-0.2913269978356095,-0.04134146464096446,0.00691260702533051,-0.2512253017054381,0.1837179113391209,0.3709008494329415,0.2876883277684997,0.07601744945582231,-0.3584002226273166,-0.2200224387310034,0.03211210740479571,0.08468733192513374,-0.1155089687835373,0.03661344867173657,0.031787811876403,-0.02194810123767362,-0.008446043786936575,-0.1333281923374218,-0.4271796515048026,-0.4593050903632118,-0.2372910551471893,-0.115043245324301,-0.2166440676264736,-0.4074975419104545,-0.1820682362204011,0.4789794753337339,0.5824846761798592,0.04218152295274334,-0.4915729025181882,-0.163977497113009,-0.1065108433880464,0.09486431584584222,0.08342853388908562,0.008715518151776687,0.1453106095635683,0.0671950417917819,0.1564799615986564,-0.04298362209075685,-0.4885394567139844,-0.6228244294593503,-0.4982987605119542,-0.2525140211699043,-0.3238784597020211,-0.1639494749742753,0.1154235180809614,0.3749386206008534,0.1251918051374246,-0.1926561860257527,-0.4113747597895316,-0.3086403608467438,-0.1184587039500972,0.06356935279694607,0.0778261191090442,0.2029168197140057,0.4746173979053869,0.3520578172249926,0.2395864353443942,0.03156228668927161,-0.5298178868249657,-0.7105657140637216,-0.5227794818040374,-0.06637950462346878,0.03703589550320403,0.1164154998397459,0.2620502926398812,0.1811978850787447,-0.2038286427142723,-0.09790790973613141,-0.2347016929956489,-0.0698711510844269,-0.02604855917590087,-0.07361947293135415,0.01717967257502307,0.1138921653370571,0.510505222117947,0.3875044062469664,0.3031227342358744,0.44271401106132,0.222660400450692,-0.187759162912388,-0.282501221375775,-0.06225923587514129,0.02199353735747796,-0.008067161989703286,0.1423287965274208,0.1837553553039617,-0.187103979395318,0.09693467737332324,-0.1424955413030768,-0.09772696607491536,0.06287458179128816,0.03679893813722241,-0.100086323855619,-0.05167951428271163,0.1870050586543793,0.3764786891311642,0.1816235335296024,0.3473071906082648,0.186857951809959,-0.3507664976141306,-0.7749859272754559,-0.724605915894561,-0.6648929851170369,-0.406946714697304,-0.1940610874669343,-0.1420976257101779,0.148461497561045,0.08625115311801707,-0.2115355881698009,-0.2023872096425282,0.05839840188922996,0.071104600412913,-0.1358925589544107,-0.1944523955061344,0.07299950151310265,0.1600674727735324,0.1068752768447978,0.3562243079560162,-0.109853474293721,-0.5614450481674238,-0.688447530099212,-0.5606101608746814,-0.5323260029515313,-0.01975166870401875,0.1064083446956543,0.04087102503282522,0.02299842764540586,0.3150712787364702,0.0250383910844009,-0.06080056047922774,0.07539243035131199,0.06554541977432728,-0.1087135286024845,-0.2058769089374625,-0.09457535596046458,0.367913675840723,0.2786304104023003,0.2940521588957113,0.1011580165337501,-0.1744163706156054,-0.2214106473011345,-0.3144307683618498,-0.03470048622900725,0.26361334986722,0.229978378411612,0.1654010177153487,0.1710269348430458,0.1963229919085712,-0.008624994146507577,-0.04217923953156051,-0.01155110146297065,-0.09777141213527558,-0.03268560750561066,-0.218895733957553,0.05055825173391693,0.2634023706486355,0.2342899843772333,-0.08853991387625686,-0.02799425982582768,0.01432399680641684,-0.09459541495748974,-0.2204234247432243,0.04823296510116622,0.2654436818393527,0.154320719913231,0.1334777104433023,0.2381556517048415,0.1026054028342786,0.00770258665694359,-0.07463162726135265,0.062918472289719,0.09677514953164106,0.01757800861812395,-0.008664857542518292,-0.06211091075082469,0.1026807940421751,0.07334985189421254,-0.1742279169353706,-0.1032487047552383,-0.2041061390278093,-0.1439352790327739,-0.2937782617093491,-0.05365389474177044,0.2815351655482223,0.3456968329983435,0.2059381087632942,0.2180974768289223,-0.09659769443455757,-0.08924650027621153,-0.06393241859620487,0.04225141511387137,-0.02052880776593602,-0.07654414294902992,-0.0669729311742446,-0.1135631250898899,-0.02328560513963119,-0.1714335454602907,-0.1773549258334474,-0.119382214419961,-0.151177794622866,-0.0777486638872589,-0.2382143984075482,-0.2018837002671333,0.2618231312679979,0.3024037871865023,0.1179594441468055,-0.06413855180845301,0.004952214341807044,0.07988572622511092,-0.0034263242245394,0.02283385125191923,0.02294248299834675,-0.07056110151127608,-0.02614869857028115,-0.08510666369895836,-0.06596225143710976,-0.1625863471559684,-0.2568748632389469,-0.05053398222573031,0.04374564487402376,-0.01468070847415937,-0.006618471578242209,0.04323590867488568,0.2595167845078994,0.2541940377358294,0.05525570698457597,0.03175345256093096,0.0591315028177392,-0.0891113893167647,0.08790124114663321,-0.08526614248701146,0.04239334205705729,0.07644481241846295,-0.05226631843091879,-0.02031531279014063,-0.06192849193784029,-0.0832700291532268,0.003356806952502759,0.06240422956942375,0.1021438529076266,-0.05463184785877637,0.01410415275297154,0.07286802218915885,0.03821649328376388,0.1365694323195757,-0.02101001899518859,0.03897521711034287,0.004239198121571457,-0.06802297125744852,0.007738830433967055,-0.03352510711872003,-0.01798238373446951,-0.02752946903969694,-0.02207771401388646,0.01201406002044255,0.09070050873781473,0.0130715489641305,0.07268633942809075,-0.0752688760176992,0.04606984545909718,-0.09279743129695754,-0.08017385570452328,-0.08504165373283031,0.007032620835381075,-0.0799895267218807,-0.00128279865388976,-0.07572498227339565,-0.06596535369557031,-0.03560689162517663,-2.561759398173397e-05,0.07286931625244801
0.09441523260704213,-0.04458191125741678,-0.06803217776717639,-0.03716045623827545,0.02716521896191902,-0.07345216601260375,0.03309919688921985,0.0871761981400215,0.01963210978901618,-0.0982555530416359,-0.01028956945069906,-0.0738233334113836,0.06344526387309683,0.0003521420656719192,0.07947790868102449,-0.06162081204547247,-0.05851509309902756,0.05218248970465886,0.02149911209176234,-0.01797399735509011,-0.06010867827620432,-0.01395501142296429,0.04282618218403323,-0.08918535811235172,-0.001091962945346771,-0.01006437847042413,-0.00279447797425229,0.01118346024376587,-0.04367194154093606,0.05115313944925956,0.05800788847009018,0.02328273815236336,0.08823408170378162,-0.07868285619235631,0.03569404548408072,0.04224664131651939,0.04741085500407895,-0.05162150825271404,-0.00809559956273021,0.0801096312007664,-0.06609314892452843,-0.03702169876246935,-0.02391153450771916,-0.02334997381133987,-0.1056686372149755,0.02229876448980418,-0.05061885759699631,-0.01896334297579827,-0.02950703272711955,-0.121586302881555,-0.123205567551383,0.03394651474032508,-0.04125550164517967,-0.09255813591363621,-0.1483648779485837,-0.08699309922380473,-0.08174881390136152,-0.1257047953262531,-0.07643030655457959,0.03071634860289706,-0.05359384853805382,0.03752219565888278,0.01128608635849026,-0.06892895835259683,0.02275327268278337,-0.2134955560426408,-0.2273014376396927,-0.2644745268527238,-0.1455704717535077,-0.05854232749358881,-0.1804507025986371,-0.08402891331196237,-0.05844385214522217,-0.250224621570878,-0.09814495028614784,-0.220571557146173,-0.1088891447531561,-0.03693220158896073,-0.1258175352879174,-0.152932647771871,-0.01575892955252796,0.0288038366476914,0.02337390569729943,-0.05747921870460785,-0.1921613115513001,-0.2248260550845986,-0.3214469538579693,-0.2599489819301387,-0.1179915239097141,0.1173438861733025,0.2208388873774885,0.158585188344363,-0.07606083435606427,0.1877868638458111,0.3159241307346191,0.2006279194900624,0.07461407784178203,0.02515272599646085,-0.2282225372588446,-0.06590216123393401,0.02073973200949055,-0.04496091494379786,0.1036228522742738,-0.05442031647734866,-0.2098816035555271,-0.2160964582925727,-0.1180178180194243,-0.06688470711154662,0.04025786180539347,0.2719448225369064,0.308831309480275,0.2074767940610724,0.3360268201904797,0.160917562801827,0.3371049050065861,0.4600191515286955,0.2866827127130954,-0.04812828039939477,-0.4199253415838772,-0.2171294334634817,-0.03107154584157224,0.01004560523143622,-0.02763788587163606,0.03658626041181372,-0.1396635098891252,-0.1486800875529535,0.2328525017616004,0.3567369378397214,0.436982916701095,0.2893968685428891,0.1992861257270891,0.05172053608455836,0.4682007444907177,0.2269883007536393,0.4792472418950356,0.4904258908300417,0.2200271277013505,0.05839532245652436,-0.2335218117075836,-0.2368564992380469,-0.05516499701742926,-0.03098805909863793,-0.03275724286779511,-0.1004721522441267,-0.2826857304399213,-0.09175697669116735,-0.03222776388616531,0.1584196079988597,0.4602810966437316,0.3007688737471441,0.2760971341432573,0.2441337853294003,0.4680475019311088,0.541535799945266,0.6630699479827737,0.4775066385992089,0.2189026162370483,0.2896306775896955,0.04478417930415195,-0.4560835594614939,0.05522055465625339,-0.0189533054788098,0.030799007108704,-0.1548028663467986,-0.2829361259350436,-0.192728743760359,-0.03514197157108467,0.1328576331985969,0.3345009848254729,0.1614865672145016,0.3856077753613121,0.5753488713203767,0.5015769713233941,0.4935978299724781,0.4836921740235207,0.2925730172658991,0.248712806934207,0.4580061302646994,0.09356335803729315,-0.4528888639671938,0.005096539775950579,-0.02039728713519063,-0.07740479419598463,-0.170001332498531,-0.2187840716149475,-0.2423040972762974,-0.4034005084329465,-0.2448446850320771,0.2016307453885264,0.1218926708610145,0.2895836841046752,0.1522434566587771,0.3058625906103384,0.1386509423820969,0.1369524926450797,0.0371585831382497,0.04757160782849724,0.3344507222503995,0.08748903759728772,-0.358698689122227,-0.02750285401651545,0.08891379914629693,0.009488826751485555,-0.02402935999359347,-0.02950318239862323,-0.0688264958671486,-0.5762993146465131,-0.3712835005160121,-0.4499265493470421,-0.6002954129662805,-0.1539843995081188,-0.1458513158508202,-0.02287782841940964,-0.08022962682972941,-0.02191866577246548,0.0230365319789438,-0.128910447920123,0.1498214909299597,0.1698352270194681,-0.2627132129289924,-0.128868357582984,0.008799236814220424,-0.0345102121657508,-0.069175531245055,0.07334884913012192,-0.002677379552359253,-0.5335254311686676,-0.4162085454417561,-0.664671068977097,-0.4871707146710846,-0.472325905769295,-0.2624245550335102,-0.2658397134009786,-0.2483000061616654,0.03414284270828977,0.07409130705355436,0.05822357020202922,0.07312570892468868,0.06098645816427142,-0.2289582241785945,-0.06251166874080485,-0.02472816668177714,-0.02601977266825104,-0.05474709589830826,0.308071605090825,0.2572892070319739,-0.2680629520403484,-0.1950351548659464,-0.419008197420154,-0.6298703742632311,-0.2884652104693743,-0.1711869650103577,-0.3463464012496824,-0.2681221369167002,0.06502170626457439,0.1757360444011543,0.2178369792588564,0.2833970782684024,-0.05791694594139371,-0.1757675308984635,-0.04611341466614609,-0.102207107680169,0.02339977988682415,-0.03878793264208165,0.2253270203811493,0.09809973654119075,-0.2053331168882334,-0.1298356358334252,-0.4713422446575268,-0.5026854329026471,-0.08825958995609311,-0.02269842917021,-0.3680372573424305,-0.4301722729103032,-0.03989706090723961,-0.1005045055752133,0.1813883340476825,0.02139819656514859,-0.09938965195680133,-0.2642970771497627,-0.1411678975967782,-0.009583536824428954,0.07786495637314861,0.1223321997935936,0.396612781151026,0.2639161073023898,-0.160058736752031,-0.3710858080628454,-0.5772142539044619,-0.4409344622442876,-0.3733851700478308,-0.2123128851271976,-0.1006180082301806,-0.1168580911892298,-0.08956009079053875,-0.1374223138543383,-0.08434992776342023,-0.0365793194419444,-0.1148465696640812,-0.07751619889562351,0.0505549321207371,-0.02128287827123189,0.08270069783819638,0.0577749598287417,0.3395775641939098,0.3519061780142281,0.2260481124016875,0.0404910301471442,-0.2236874407092746,-0.2386767674660624,0.00582391679638543,-0.01982335753487723,0.003051858209642123,0.04947623303238328,-0.04281095796315103,-0.08728322047854002,0.04291343925701165,-0.03082457227125538,-0.05992608458831143,-0.1384023361688844,-0.06054934378575107,-0.09835039055786689,-0.09959027721601631,0.04017623156153052,0.09304200861320391,0.4079070349616084,0.5642478821190644,0.2754263896520265,-0.1014897164257954,0.07026161527945723,0.1821072794503761,0.1538580138071221,0.1088970976194057,0.05942180748730161,0.06812395960349144,0.1561934975693118,0.07663054503330884,-0.05500513132377208,-0.02608401530614917,0.01115353383876179,0.04993439039065826,0.02677213598442652,-0.003470443946228249,0.05519745699659877,-0.02636611645328683,0.2650036926210044,0.5132703596480037,0.342945160496596,0.1779270623687888,0.1033928434607499,0.2040494323835131,0.2123240175834089,0.00355697446500468,-0.02790014852496464,0.06722603980140496,-0.01194909163843469,-0.07787318143721243,-0.0911954694710527,0.08327387954475685,-0.01387858128933375,-0.07886525878667361,-0.00337826805302824,-0.0368762638911414,0.04696156052714891,-0.03385425251369709,0.002305263654299687,0.1280158351863422,0.201068565159402,0.06012796373261674,0.005083075017549077,0.07529481268806358,-0.02856627189373764,0.003021870455455235,0.07743777149953636,0.047669718378499,0.06515373347407678,0.01227425451002931,-0.0810938242372292,0.01179101585727886,0.00174776392449195,0.005644574300208216,-0.07272249530925153,-0.1012490237960736,-0.0641553621325522,-0.01818650939586219,-0.03849073386853152,0.01719163506382667,-0.0267876586644252,0.06194014776730446,0.009915026714994805,0.07931702272214128,0.01700367697596381,0.05894910340974949,-0.05788196563130237,-0.06942108873721471,0.02631840258847488,0.05789671669167013,-0.05627896868778523,0.01620616428558287,0.01024702011815028,0.0974019670728975
-0.07005581587382309,0.05566730444185725,-0.07682426261329574,-0.06015887422747196,-0.05337308790105735,-0.001643096605696396,-0.09512809992353745,-0.03484559421216885,-0.05112431817521804,0.05304889863589912,0.01441309917382816,-0.04510161403953942,-0.04939417191206214,-0.009273053575022581,0.03851595155012932,0.04155715822936328,0.01844852186743028,0.06877236182481179,0.06795460898643665,-0.04058419875369272,-0.04581895225366851,-0.004897282616122643,0.07027826223485946,-0.07088163242892652,0.02390326893025608,0.08001859522528357,-0.01543488972009039,0.07995793731064184,-0.05585979506455714,0.06952600421346575,-0.05699499655832388,-0.07169270455484344,-0.06361143650330447,0.05718158604953993,0.06635188606310087,-0.06352573809491277,0.07011888095063691,0.06332590946121947,0.09796769739132115,-0.09766809542240357,0.04167359747285627,-0.05938710696986955,-0.09578849467978802,-0.05238148179536856,0.01292176541641041,-0.07234026738895126,-0.0320146114922442,-0.0778555178400016,-0.2243209866328832,-0.2099388797499435,-0.03870844031503248,-0.0339529380379016,-0.1385085853107084,-0.07785388245986484,-0.06605724075162028,-0.1046714475667956,-0.0540822804948986,-0.03073975272869659,0.002283308821633408,-0.09429626613769018,0.09758029008453314,-0.08597949455037147,-0.02959892618500388,0.0612967321397808,0.02379416696494888,-0.1628599217415629,-0.1438850403605014,-0.1437521950231565,-0.1164482867092867,-0.02765797278574078,0.04097842734683659,0.2022058101314855,-0.1126520160205816,-0.3080675074390499,-0.3054916421701565,-0.2259452995374255,-0.1129183089528136,-0.01500604747680275,-0.1355534029664105,0.07215656994096545,-0.06667203908111992,0.06797907060625646,0.09953942809631655,0.08550410325333124,-0.1453981653112611,-0.1781412313352471,-0.3758175921091432,-0.2069874091363966,0.09831561008957215,0.5703787016453962,0.6408603832035077,0.2980419010455508,0.02515694133479995,-0.358101946681463,-0.427720932146376,-0.2518253239759404,-0.1279502957066528,-0.04962033427481571,-0.04062072845974301,-0.02019813152683256,0.07460003753162621,-0.08686334512094912,-0.05510224666062988,0.001973567393158044,-0.1252477652601977,-0.2845650858780379,-0.4578931829045931,-0.3555194184058676,0.1174623624680182,0.4883598276421992,0.7926546027082289,0.3652024404607195,0.007158071705247723,-0.1619260962480728,-0.3224286911356453,-0.3346349564990484,-0.007392907965009314,-0.001780797396612559,-0.0897475134127055,0.02468652970180008,0.09517633143980557,0.01828962906650869,0.124665577110199,0.0502758584138887,-0.09072853657200561,-0.1917737373874021,-0.1565300148753163,-0.1689537941240771,0.1957218814248396,0.5266812589119131,0.4639373931197953,0.1010584659909772,0.1515857569183368,0.1449247582668627,-0.1023001180229928,-0.2382304995916321,0.02092941953976999,0.02673875653332155,0.06491961258905472,0.04512292093128516,-0.09783968478469193,-0.06089988345334697,-0.01765069776285713,-0.04512659255465019,-0.1483939616933223,-0.05519856011599215,0.0531890757802906,-0.02994049967489686,0.2783389989520001,0.4951317475256282,0.2707630703517152,0.03174789923416423,0.2634695505331824,0.2537423009944568,-0.2256082145797288,-0.362469034577696,-0.06606222701783725,-0.04940964202410905,0.21221281153484,0.1844048856781543,-0.0413288978139316,0.009564189372106787,0.116351305181476,-0.08795658205759016,-0.08985499323804574,0.0467171578397954,0.09523636997572252,0.05960738096054599,0.09032557207209711,0.256741944937678,0.4222197715857393,0.128273315158123,0.02940940361195317,0.1336477625779271,-0.1270780116872626,-0.233523115692011,-0.2067677124956309,-0.1814506483208998,0.08496250673831901,0.1231925174137725,-0.01385210800547212,0.05625105517281682,0.03762370852813165,-0.1262055386211151,-0.1549726953245521,-0.0385901870775693,0.1275794885153769,-0.2328200596837733,-0.3509622485084427,0.02787489243184112,0.2569689851453102,-0.06341399505393791,-0.1660838345349699,-0.2135839957085641,-0.2444953845630222,-0.07832329361688749,-0.01313554511887303,-0.3376478178946617,-0.1872730866196605,0.1595743657122548,-0.03843669416306049,-0.08561778499053174,0.1372539750013293,0.1551542502181851,-0.4063768665833863,-0.02853233018449533,0.5432978915362288,-0.2055231934845471,-0.8076967911148829,-0.5098413939192953,0.09404046351812205,0.04843953279301751,-0.2253923575242521,-0.2852306508560626,-0.1854055220531466,0.007499724143281461,0.09727273674066646,-0.1309762189048269,-0.3084716888826575,0.0290701248240219,0.02116065159110724,0.08385838184425123,0.100585429516739,0.2026715010775542,-0.2800591774542034,0.0590775739946079,0.593362851517204,-0.4715129524370483,-1.165588640252323,-0.1942605543372374,0.1870634617811931,0.3088838045548148,0.05866362415191896,0.003312872288602721,0.09924119602341581,0.1009463267067401,-0.02542594107865601,-0.3665297228036968,-0.1537647380272852,0.08016756294186564,-0.08920611825664539,-0.03753372654333183,0.1258796606049027,0.2491213472433005,-0.001296506685214923,0.1127964346066462,0.2477522960994862,-0.7351514180920342,-1.001831790910392,0.1137738582945118,0.4784842231470725,0.5561124327330289,0.1575659240465935,0.128789449769992,0.06011683078510451,0.01156452632038398,-0.01255049620708268,-0.2155440973421002,0.0343855132583454,0.0880466108148653,0.006597801626792275,0.03759109395235465,0.1778133346214147,0.3467961205663214,0.3133547863517669,0.1072196858371892,-0.3347726801805961,-0.8094819896999694,-0.6821833940942478,-0.2304314107173203,0.5186688695695203,0.3548305491551529,-0.08872647496346651,-0.08896683679071642,0.2628236471563208,0.05621881950882546,0.1129129636044599,0.04820458866609135,0.1196555564310972,0.1786257674980253,0.05768562467193195,-0.02157007851687031,0.0446871137545356,0.2688192416494226,0.3513942355405437,-0.04102728112193964,-0.145759182196799,-0.5643546654339642,-0.6008133566575388,-0.08407963756640566,0.3894614300491893,0.2286619701815831,-0.1741310661067064,0.0009506667631260452,0.05335107315131545,0.07628944280441785,-0.00825550659289806,0.1649262470929895,0.2086461151317216,0.1541742030193082,-0.0667110642876089,0.05910324143520125,-0.0651610705934749,0.1981141098785368,0.1355763363744249,-0.01479492744815398,-0.2431786896326878,-0.6196570235702163,-0.5948523689898465,-0.07220664384874673,0.06227090641592818,0.2153931964456801,-0.02629173992782006,-0.1770356460407123,-0.3348170976917258,-0.1461219497287756,-0.1663980532944557,0.1001587529117603,0.2896194549539138,0.0579888668711288,0.03049918875277596,0.08807807684893539,-0.04428455981776034,-0.00529872797529597,0.1543057128443767,0.107038018954016,-0.1540638088449006,-0.4584190560858464,-0.568879780894021,-0.00726702716572204,0.05980921695483081,0.02807106285917565,0.1103372506317973,-0.03575126338918148,-0.220244831309445,-0.1164958808384311,-0.110937397930291,0.02826828496534277,0.1061638160379627,-0.03800626884569339,0.002998197520116618,0.08244612853411599,0.09562570540592658,-0.04467467862771707,0.01567100047218783,0.0207201310696884,0.1435860999202657,-0.1292263977457047,-0.06970864579668293,-0.06203086750249256,0.136259394287733,0.1457245376959066,-0.1012826812783503,-0.1986682927817928,-0.08748798826183543,0.0124273115180819,-0.05666175104291967,0.08060340973650375,-0.003728741697661149,0.02654850676688591,-0.04987990418085642,-0.02968622128216983,-0.03189679196533324,0.09472860145088079,-0.08764490754602682,0.0680775712599387,-0.07259683813913126,-0.01030773088777011,0.005634914044884534,-0.1446714960359838,-0.09370882071186722,0.1217355978993863,-0.1204699729379399,-0.03564975997587942,0.04573908471973103,0.0203057833149726,0.00393502235090355,-0.02488930041967572,0.05408719449437202,0.0003514112550776375,0.08508342438127411,-0.02901925656446672,-0.02164223008756724,-0.003080298571106586,-0.0732021031735495,0.0254747122460902,0.06161707944598623,0.06331799860139234,0.04461241155135776,-0.08617607053521074,0.06341610680541956,0.07095008633851947,0.06900968699316125,0.07313373645700562,-0.02095680463137508,-0.08402868152591296,0.08761083419969656,0.07253105139250127,0.08602489184435898,-0.09554848150675721,-0.09493027888262869
-0.3146725837326687,0.01679464574449642,-0.04811238992670281,-0.06495330233038023,0.03547004001439891,0.0809750485290619,0.008378293876714842,-0.06297531845265496,0.02462362993316215,-0.0731230113742463,0.009766074801447694,-0.08512695006773488,-0.0701051167360484,0.04456252265556285,-0.00673344736370465,0.0837758149744714,0.01355105175363563,-0.02771570179936486,-0.04326959151231447,-0.03203013580204106,0.06033741098457664,0.05133591219108176,0.01367278134950537,-0.08202409513332701,-0.03091488315701512,-0.01768971064251504,0.05135790883869865,-0.05368589236977071,0.06463805658145505,0.07099376341981666,-0.00534246869513876,0.008222864610298483,-0.05185597507793113,-0.08849187333739619,-0.03865432923364096,0.1031463193077214,-0.08930837372854571,-0.02313374998523822,0.06830264520739927,-0.04795764874793709,-0.01837173466960422,0.05700448534927626,0.0005866809040854982,0.04607298522827723,-0.05504081020446921,-0.04341220282025112,-0.04198857592578269,-0.01616356316878469,0.06216597576154186,-0.01326078693183079,0.05714652607651005,0.0001765448305335445,0.07191542539717127,-0.04755692276178822,0.0007710796326554237,0.007388875776257845,0.002936596553352024,-0.009503232184273611,-0.03210079594741438,-0.09316998646330593,-0.01285074118758977,-0.07733837037583664,0.03155706019164091,0.06827653424614553,0.006761196073742606,-0.1313642202053699,-0.08822419660444508,-0.001710097059975993,0.004755456680716563,-0.01350386978618535,-0.02030255639327655,-0.1230367661764414,-0.06999901691082829,-0.1334616398029646,-0.06004508612424733,-0.03213611363648379,0.03045221426089022,-0.01409432276887575,-0.08438908574865282,0.03196038750944253,0.06231984130977102,-0.08060244752868771,-0.01166402018711982,-0.03943439240846008,-0.09092937749707004,-0.03312065255556158,-0.006160349898582688,0.1008935721576948,0.2312847969694414,0.2229533078100172,0.09787110179507648,-0.1526849338878263,-0.1479304160193667,-0.061280182104195,-0.06080497895136114,0.1510388203686589,0.2104358542822279,0.02700618444749734,-0.002194930266142865,0.06943490290911203,-0.09123804205487257,-0.00264106380072043,-0.09517632262669642,-0.01323208442889176,-0.07439952662571328,-0.0607279550444807,-0.03716847253005889,0.08674788217609468,0.2322549023659347,0.1915766088879336,-0.1786983064300316,-0.3710868872445314,-0.4894224019636926,-0.194344947279515,0.06387377675831606,0.2505546977724374,0.1970689103840955,0.1642115088775239,0.1410211352763207,0.1320846132612103,-0.0477911531623158,0.07854129476378717,-0.07535847752944413,-0.05850943706246014,-0.1835121991931076,-0.241719664199403,-0.0478146028592254,0.3226319609875669,0.267139737552961,0.03687885871396646,-0.2015747752184916,-0.3876162058606765,-0.3829367808030973,-0.1554340194765459,0.1614042937339108,0.05454413894022003,0.2672599359787312,0.2369946979016405,0.05166079443336383,0.140615518748717,0.07920426355727025,0.03901665859432749,0.01333243360674658,0.02224566365785202,-0.1497332484658694,-0.1851706827498636,0.03049346736037153,0.2287730256028606,0.3438462742894456,0.03830521032519085,-0.251165674304856,-0.2261766046886128,-0.07988200934383335,0.1220010759412677,0.001129402555741513,0.0160955367038175,-0.002578134502350328,0.1537058438167168,0.07976832586654302,0.2196163248324744,0.003545843073349712,0.06387516759569793,0.05294174153527503,-0.04757023593136584,-0.2155296594764857,-0.06766832519775823,0.2000114578251171,0.3462405868051466,0.3081847797732168,0.08034190134840759,-0.4698220548296508,-0.4615907471343387,-0.2682581850747695,-0.08283938774737153,-0.07085748368639741,0.06710467758771325,0.0960231798707641,0.4004213505017056,0.2474242336551356,0.1242079671478197,-0.0379724018652354,0.02276466565882022,-0.05764930793530783,0.02310142037643841,-0.01956461775607176,0.1449836143245468,0.2661686657244379,0.3572850752455474,0.3572990425979802,-0.1275666011160435,-0.3263817674121755,-0.4232415879663299,-0.3754953244687861,-0.3131357161248218,-0.3748547514302172,0.01055098056576336,0.1177474603694334,0.1923002040173133,0.1593593400847515,0.1953453832889048,0.0810106128471985,-0.04785659242680849,0.05604128519701998,0.09958534245053255,-0.09664750828723573,0.2559261912392956,0.5289740783131337,0.4381691449077855,0.1131669354941873,-0.2905012545027697,-0.3660596665987229,-0.3240725299050559,-0.4466025706529633,-0.2844694714705192,-0.297362952750359,-0.2809480203840826,0.06030354567728219,0.1176035691363279,0.2266600168583593,0.1494205933609624,-0.01513058381365091,-0.06002156652569979,-0.01414674564800803,0.095223345135638,0.006288443875268199,0.1343984029918678,0.6019362717741173,0.1706725606081437,-0.03853483490537463,-0.3231166761333465,-0.107545907799804,-0.1520753186041748,-0.07981787934285645,-0.1980614942096367,-0.1160420471778077,-0.1691177663881762,0.06420795899751515,0.003406651669780912,0.3140585149323359,0.1507752413597711,0.06547851608795936,0.09803659644889419,0.02268654423490745,-0.02484439102653064,-0.03608973422189964,0.1025825909941688,0.4115490210065664,0.4706207313849696,0.2023164171422196,0.08297374947779636,-0.2145906654491693,-0.09677001171393081,0.009850831816074516,-0.1700581341256525,-0.1086082976710263,-0.03752441191996875,-0.196325712531829,-0.1498700922026245,0.1719081004311649,0.2770092734959722,0.04070485707831221,0.04942786238835956,0.05698524651668904,-0.1023506506009268,-0.05940224819704591,-0.0722390317156647,0.2178231112426114,0.4464716127562023,0.5109640813961248,0.2479524934925782,0.01402266419045229,-0.1164470892836713,-0.1994302742388629,-0.1221850940849143,-0.1543585001064611,-0.1043137460350403,-0.1881269769511387,-0.01155229206044126,0.1565008944490431,0.1079822193436839,0.0103953754837959,-0.04805748993813953,0.09362444519606834,-0.09486483349115025,-0.104061727804839,-0.07742170960947364,0.1069384093674592,0.3383195139542589,0.3288844270395233,0.3616623116309592,-0.09497042785523604,-0.1486447277463306,-0.3178175361218438,-0.2001631763794338,-0.1504961088180517,-0.1404233714015228,-0.09015002402098003,0.008569261662382163,-0.0356072081543917,0.02230663845189926,0.05619075857819134,-0.04363859775123376,0.008907401034838482,-0.1416947735414841,-0.0592487442199361,-0.1884761686192038,-0.0417064592032552,0.2683068344386585,0.2417572214935434,0.1378269859543101,0.1073708812662504,-0.1317874204011946,-0.1251378712903535,-0.2108848852218478,-0.2376359272967006,-0.195793294860465,-0.1915861240304849,0.05538335095646601,0.08748730809074777,0.005140885505982335,-0.04234377168970952,-0.002699582087230285,0.003740696913930713,-0.03074111356494898,-0.08261103118712737,-0.03691820005858812,0.04383394628438136,0.2998596844341544,0.1232063112910732,0.02213042666680713,0.1695325243239718,0.07928392243022786,-0.1588515155662112,-0.09130494368169395,-0.08804599481161456,-0.0001917438435080614,0.03922577510118596,0.05273060169985062,0.08243284527102805,0.01072005440769717,-0.04623109267400802,-0.02213189452563416,0.08250241666230307,-0.03551838188559016,-0.04434159183624988,-0.09404128795613206,0.03358230234210118,0.1533346081706167,-0.06513726036666675,0.01177605838027234,0.06488722878161771,0.07118801274907727,0.1114494102425045,-0.05121986873072779,-0.008409474443231871,-0.1212733056523566,0.01091453884474889,-0.004274491617879573,0.01792219025773697,-0.07288664921615465,-0.04616163920855031,-0.04882781621125717,0.07546080537457908,-0.07589707070877956,0.09963265901222798,-0.03841443740464306,-0.07776468703202721,0.07508036955472003,-0.05845957935167981,0.09710665112448187,-0.03148313655018556,0.03607697213714586,0.03774562520868134,0.01230220714468974,0.03042854810239686,-0.1041739160741538,0.07919559776040509,-0.05732146019840599,0.03377472470276782,-0.09359063097075958,-0.09396355015255771,0.01576735210556121,-0.04052312840462004,0.0905917834507001,-0.001499437812307371,-0.04035459234566321,0.08924448265343467,-0.0406891121833321,0.00754531267046331,-0.07934869146793622,-0.04562471391820229,-0.09972073790772719,0.002051435311183075,-0.06899785020685049,0.02715634015320494,-0.05775055110604003,-0.03847658871861866,-0.06598160986517564,-0.04074900130720911,-0.05710927593720684,-0.1011299482959667
-0.6107595273900386,0.08970205168527834,0.02923200173905759,0.05904018376586761,-0.05125821639981378,0.08991066637550167,0.07413904200195556,-0.09157073069935073,-0.05806400184523398,0.0789357526653458,0.04751649199079665,0.04886169489876049,0.0940946061979229,0.04533579923223867,0.02473535277050638,-0.07289069439057101,0.09029700187878403,0.07796918250375885,-0.03987986598060982,-0.04789525934013165,0.09423745901535584,-0.03465546101596231,-0.005081008165941224,-0.01243532038647538,0.0652929278783889,0.05614107448623178,-0.06989827755330438,-0.04177277754896131,-0.04784880441761188,-0.08655115111184609,0.009521837837323043,-0.0949598085902731,-0.05500398204423871,-0.03018347809616885,0.0150579570637481,-0.001231901277021326,0.07638463514882025,0.03772147135065013,0.01087975169414333,0.01430137632478807,-0.0674359183734565,0.02634639664348182,-0.06128395045169342,-0.09713888282882277,0.03991619626587246,-0.09462006923430731,-0.02754880948097931,0.06450517877929859,0.06359484934567367,-0.01317418728905767,-0.109098791048111,-0.1224051378122398,-0.01470045995321785,-0.1369538600210342,-0.06931857102437812,-0.1350084424842353,-0.09769383551961099,0.04492372974629251,0.08832238626118322,-0.05230590477486776,0.012214658029698,0.008752291440445618,0.01283310327651775,0.02417107996144498,-0.09174909316949441,-0.04096036293800783,-0.03961668206110461,-0.06754512206080036,-0.1139615943329181,-0.1652004080996486,0.05122758455133859,0.1021366906190996,0.04385010634810622,-0.03706408610017176,0.02300419585316473,-0.1144533704175474,-0.04089255492325151,0.05932023800966384,0.0794468218348913,0.002020840168731089,-0.04940539378034695,0.08219183340097748,-0.05958690116125803,0.102490333599984,0.03168837385095341,0.02802302626313977,0.01347320083304642,-0.2047407127486252,-0.228235215358806,-0.03435388411615093,0.08382382351235328,0.4337554201218444,0.3938363706149027,0.1100910481845956,0.0236918487239642,-0.1301088610300468,-0.01048199780488274,0.001566153064131892,0.07706267277541795,-0.1088759441279318,0.04457892656486743,0.06512099683134522,0.03386794585425862,-0.000176984047161557,0.02565182775825317,-0.1435100884386325,-0.1956574971062807,-0.3813206214459785,-0.2984201950475335,-0.01575085064056477,0.1618026785382421,0.5171145514188636,0.7894054539895504,0.343744877229658,0.04000670864528112,-0.1835007293553775,-0.01546852112798891,0.03535199361338641,-0.04154737421157316,-0.0685027507831905,-0.02973042536258665,-0.01616837786358748,-0.05119645995331303,0.04739814105772472,-0.01452428999168487,-0.1459988810209608,-0.3404769471054435,-0.2783404810567963,0.005958948628047413,0.093842795055899,0.04072819778783596,0.371951381488876,0.7469113362857419,0.5365404714099195,0.2005701774920421,-0.0488326928260789,-0.1071607339695765,-0.1235214820242648,-0.2001478403935507,0.01605432167154599,-0.03150149109061735,0.05584357779711015,-0.03528112134256944,0.1060343606984131,0.02794373573541037,-0.2292527911475052,-0.4356762672655017,-0.4340896106902546,-0.3497180485198166,-0.09642256683034983,0.08592790694348117,0.3017271319264516,0.5190612610775184,0.4377571795369359,0.2568783538220389,-0.004193913582708161,0.1155224645661897,-0.0912534694988186,-0.1583899908819486,-0.05204222572102155,0.001620972377446311,0.07314546564642904,0.03330806267502891,-9.54795945159884e-06,-0.003890310097888872,-0.3492897601234056,-0.414000867020232,-0.4651781776734224,-0.1333953465860207,-0.05086493356295237,0.1444367131330829,0.3517253746755722,0.5047442948048673,0.3422137700150367,0.08131420649977911,0.2655365022362458,0.2189927263023694,-0.01760761581360844,-0.2120191886790356,-0.1467332379130741,0.114072453833759,0.01013923853673269,-0.02946251914376249,0.02250846173009673,0.04398937864872744,-0.08848102010062077,-0.4592931722181931,0.0300411073447951,0.04901269468695142,-0.1074333461599664,-0.08760963713848076,-0.1349394904022674,-0.1883891228894417,-0.09691785552887977,-0.1414120345348099,0.2215164678885191,0.0625634934316819,-0.1527029045478271,-0.1551766250918992,-0.2059930521319547,-0.06241465904704327,0.07677578935858113,0.06340375501253176,0.007091426843087518,0.02709894016854591,-0.3339457462463809,-0.2957794664964691,-0.04758923708973905,-0.2202306644310632,-0.61266787251556,-0.466297018888182,-0.4322666152656204,-0.4741976356816973,-0.4494247752507778,-0.04629901908272375,0.27358362087097,0.2078421861246353,-0.102206400797504,-0.3647596318612758,-0.1580721434287283,-0.0935467419144949,-0.04023269454117939,0.07991802357520837,0.2583609137454237,0.2013974635973506,-0.2006137817157644,-0.2553829280002557,-0.1040071873772909,-0.4844447381759052,-0.6436485286009943,-0.4144130228164246,-0.2911914710481618,0.001959667279278303,-0.1700832813730908,0.1557056641819791,0.4524904187681799,0.3212781405284484,-0.1378522394502642,-0.1997261164131745,-0.05187867563150523,0.04083837019864048,0.07264751690307771,0.05192712343881378,0.3031421601760094,0.1311555814408152,-0.01731931462245119,-0.1607366420728763,-0.2375985136657743,-0.04986956698872751,-0.1261294108129886,-0.08675544209419166,0.08088539554254531,0.1705803038693816,0.1329889127958639,0.3611645821586092,0.2449565005232174,0.08931920869581832,-0.1601638758244504,-0.3091828111850476,-0.02609127153042468,-0.01672903340443627,0.09289873101035447,-0.005840910480418701,0.3669522096630919,0.1787940954760459,0.07854961044977392,-0.3376186843036035,-0.2278693045380958,0.1388810319193995,0.08052310318130856,-0.07753820910836501,-0.007324949813911425,0.1837583458291323,0.2455282912849938,0.1370568577252672,-0.1225429090162684,-0.09175742829197342,-0.1128563665877149,-0.1863922257080305,-0.02526055793002049,0.01461256445010897,-0.1006475256052586,0.118165109250388,0.2646768008626468,0.249412417439202,-0.05539508226263382,-0.3663954189470681,-0.2401524061467079,-0.01313716849535371,0.02280642101780927,0.02429840033885384,0.2999090897513058,0.2021269477936871,0.3664841970031049,0.04255276291283767,-0.1880167097931466,-0.2138687385966707,-0.1428495462588245,-0.2006565439021297,0.02799340227313931,-0.05930171487006063,0.0893977431548541,0.1041984492228466,-0.06855463122432338,0.02491080968478161,0.08257704620349499,-0.09988839024762003,-0.2262431273768918,-0.03973393342112154,0.3013489302018504,0.2551911176416099,0.4532353646156901,0.3994657517472399,0.2927179558048297,0.03560714544233058,-0.1189517472805762,-0.2100015799912643,-0.2559568119255444,-0.1134117709998773,-0.04049847682210334,-0.01574885010407263,-0.05288725238057862,-0.08892578124992245,-0.1365701030421473,0.0986860594668684,-0.09343440131249457,-0.102495308714109,-0.3066811144301924,-0.02735248991370559,0.3112707380258563,0.442283617509287,0.5533391042155267,0.4032789002363634,0.2961168847692029,0.05799121357742953,0.0110541783848409,-0.1859002694392624,-0.1705712580438401,-0.1159610141065029,0.06231807664434069,-0.03180848426121059,0.06725235363067579,0.06863990985016896,-0.05759393327296252,-0.09661238557752036,-0.07110009575111478,-0.3987297209419474,-0.5183623799434554,-0.185101608409436,0.0816404217356977,0.2692750382048385,0.26074567862557,-0.07053588635543037,0.03944313201964925,-0.1082001926411593,-0.1438643277758781,-0.04946633988641514,-0.03868933980968913,-0.04855832153691107,0.03983179422998891,0.08522604593007696,0.05759384285422091,-0.08676428171294194,0.05147103181043292,-0.0866082293354538,0.01194165861708471,-0.1286761926813083,-0.157462512101204,-0.002037617851943246,-0.0540061180806411,-0.04151404186052562,-0.07107531931517547,0.04306797362334545,0.07457668615493673,0.009694993025088887,0.1139557329081939,0.01530799817637526,0.03853114808180112,-0.007792088583281689,-0.02256001011496296,-0.0429146273412316,0.09618347950835499,0.09139509416842659,0.02732398177339825,0.01372082509433897,-0.04305082493588651,-0.0284622615244844,0.07176195120827292,0.006842127038677443,-0.1021967724840618,-0.07986445738189503,-0.04301798128341993,0.001107368753136186,-0.09829826064114264,-0.01909311922869604,-0.00568983600188631,-0.02438687217137112,0.0730800157034576,0.06406755206564979,-0.01540023314097838,-0.04872120919713647
